<?xml version="1.0"?>
<opencv_storage>
<cascade>
  <stageType>BOOST</stageType>
  <featureType>HAAR</featureType>
  <height>40</height>
  <width>80</width>
  <stageParams>
    <boostType>GAB</boostType>
    <minHitRate>9.9900001287460327e-01</minHitRate>
    <maxFalseAlarm>5.0000000000000000e-01</maxFalseAlarm>
    <weightTrimRate>9.4999999999999996e-01</weightTrimRate>
    <maxDepth>1</maxDepth>
    <maxWeakCount>100</maxWeakCount></stageParams>
  <featureParams>
    <maxCatCount>0</maxCatCount>
    <featSize>1</featSize>
    <mode>ALL</mode></featureParams>
  <stageNum>20</stageNum>
  <stages>
    <!-- stage 0 -->
    <_>
      <maxWeakCount>6</maxWeakCount>
      <stageThreshold>-1.1306874752044678e+00</stageThreshold>
      <weakClassifiers>
        <_>
          <internalNodes>
            0 -1 41 -1.1796779930591583e-02</internalNodes>
          <leafValues>
            7.6829266548156738e-01 -5.7792210578918457e-01</leafValues></_>
        <_>
          <internalNodes>
            0 -1 132 -4.6517408918589354e-04</internalNodes>
          <leafValues>
            9.3891602754592896e-01 -2.5789669156074524e-01</leafValues></_>
        <_>
          <internalNodes>
            0 -1 30 -2.5443374179303646e-03</internalNodes>
          <leafValues>
            7.1472388505935669e-01 -3.3711585402488708e-01</leafValues></_>
        <_>
          <internalNodes>
            0 -1 135 1.9727577455341816e-03</internalNodes>
          <leafValues>
            -4.3937879800796509e-01 7.0136195421218872e-01</leafValues></_>
        <_>
          <internalNodes>
            0 -1 195 -1.3361983001232147e-03</internalNodes>
          <leafValues>
            8.6906856298446655e-01 -2.8936675190925598e-01</leafValues></_>
        <_>
          <internalNodes>
            0 -1 101 6.9945049472153187e-04</internalNodes>
          <leafValues>
            -2.8084710240364075e-01 7.7335071563720703e-01</leafValues></_></weakClassifiers></_>
    <!-- stage 1 -->
    <_>
      <maxWeakCount>9</maxWeakCount>
      <stageThreshold>-1.3133667707443237e+00</stageThreshold>
      <weakClassifiers>
        <_>
          <internalNodes>
            0 -1 48 2.0844597369432449e-02</internalNodes>
          <leafValues>
            -2.7295285463333130e-01 7.8085643053054810e-01</leafValues></_>
        <_>
          <internalNodes>
            0 -1 113 -9.4144931063055992e-04</internalNodes>
          <leafValues>
            5.7109576463699341e-01 -3.9214649796485901e-01</leafValues></_>
        <_>
          <internalNodes>
            0 -1 185 6.5009817481040955e-03</internalNodes>
          <leafValues>
            -3.3238190412521362e-01 7.5176405906677246e-01</leafValues></_>
        <_>
          <internalNodes>
            0 -1 169 -4.1387201054021716e-04</internalNodes>
          <leafValues>
            6.3499301671981812e-01 -3.9693254232406616e-01</leafValues></_>
        <_>
          <internalNodes>
            0 -1 18 8.9635830372571945e-03</internalNodes>
          <leafValues>
            -3.7524911761283875e-01 5.4691278934478760e-01</leafValues></_>
        <_>
          <internalNodes>
            0 -1 97 -1.6875606961548328e-03</internalNodes>
          <leafValues>
            6.2562078237533569e-01 -4.3403303623199463e-01</leafValues></_>
        <_>
          <internalNodes>
            0 -1 109 -1.5426906757056713e-03</internalNodes>
          <leafValues>
            9.0713065862655640e-01 -2.0637528598308563e-01</leafValues></_>
        <_>
          <internalNodes>
            0 -1 53 3.2454746542498469e-04</internalNodes>
          <leafValues>
            -5.9607064723968506e-01 3.5574978590011597e-01</leafValues></_>
        <_>
          <internalNodes>
            0 -1 110 -1.9920417107641697e-03</internalNodes>
          <leafValues>
            7.7007055282592773e-01 -2.9097092151641846e-01</leafValues></_></weakClassifiers></_>
    <!-- stage 2 -->
    <_>
      <maxWeakCount>14</maxWeakCount>
      <stageThreshold>-1.6703726053237915e+00</stageThreshold>
      <weakClassifiers>
        <_>
          <internalNodes>
            0 -1 174 1.0100586339831352e-02</internalNodes>
          <leafValues>
            -1.9230769574642181e-01 7.2916668653488159e-01</leafValues></_>
        <_>
          <internalNodes>
            0 -1 47 7.4354396201670170e-03</internalNodes>
          <leafValues>
            -2.5168460607528687e-01 6.6240125894546509e-01</leafValues></_>
        <_>
          <internalNodes>
            0 -1 191 4.5517389662563801e-03</internalNodes>
          <leafValues>
            -2.6224216818809509e-01 6.4557033777236938e-01</leafValues></_>
        <_>
          <internalNodes>
            0 -1 94 -5.9824768686667085e-04</internalNodes>
          <leafValues>
            6.1303192377090454e-01 -2.9129955172538757e-01</leafValues></_>
        <_>
          <internalNodes>
            0 -1 153 -4.7308314242400229e-04</internalNodes>
          <leafValues>
            7.1750551462173462e-01 -2.7992954850196838e-01</leafValues></_>
        <_>
          <internalNodes>
            0 -1 133 7.0855615194886923e-04</internalNodes>
          <leafValues>
            -2.1697211265563965e-01 6.9691622257232666e-01</leafValues></_>
        <_>
          <internalNodes>
            0 -1 84 7.1999467909336090e-03</internalNodes>
          <leafValues>
            -2.7839624881744385e-01 6.4479923248291016e-01</leafValues></_>
        <_>
          <internalNodes>
            0 -1 26 1.5399109572172165e-02</internalNodes>
          <leafValues>
            -2.8072461485862732e-01 6.6302543878555298e-01</leafValues></_>
        <_>
          <internalNodes>
            0 -1 63 -4.4721099548041821e-03</internalNodes>
          <leafValues>
            7.3200809955596924e-01 -2.3402887582778931e-01</leafValues></_>
        <_>
          <internalNodes>
            0 -1 40 1.2401269748806953e-02</internalNodes>
          <leafValues>
            -2.6072126626968384e-01 7.0171803236007690e-01</leafValues></_>
        <_>
          <internalNodes>
            0 -1 33 -6.7547289654612541e-04</internalNodes>
          <leafValues>
            5.7125115394592285e-01 -2.5883844494819641e-01</leafValues></_>
        <_>
          <internalNodes>
            0 -1 11 -1.2876963242888451e-02</internalNodes>
          <leafValues>
            7.4274331331253052e-01 -2.4016183614730835e-01</leafValues></_>
        <_>
          <internalNodes>
            0 -1 219 1.3671268243342638e-03</internalNodes>
          <leafValues>
            -2.4500846862792969e-01 6.7085123062133789e-01</leafValues></_>
        <_>
          <internalNodes>
            0 -1 46 -9.6577322110533714e-03</internalNodes>
          <leafValues>
            7.4474740028381348e-01 -1.9824828207492828e-01</leafValues></_></weakClassifiers></_>
    <!-- stage 3 -->
    <_>
      <maxWeakCount>10</maxWeakCount>
      <stageThreshold>-1.0619528293609619e+00</stageThreshold>
      <weakClassifiers>
        <_>
          <internalNodes>
            0 -1 52 8.2173749804496765e-02</internalNodes>
          <leafValues>
            -1.8607181310653687e-01 8.3847284317016602e-01</leafValues></_>
        <_>
          <internalNodes>
            0 -1 236 1.6424873319920152e-04</internalNodes>
          <leafValues>
            3.0316552519798279e-01 -8.5690641403198242e-01</leafValues></_>
        <_>
          <internalNodes>
            0 -1 6 2.3450965061783791e-02</internalNodes>
          <leafValues>
            -2.4761366844177246e-01 7.9211616516113281e-01</leafValues></_>
        <_>
          <internalNodes>
            0 -1 231 -2.0764392684213817e-04</internalNodes>
          <leafValues>
            -7.5677680969238281e-01 2.6157251000404358e-01</leafValues></_>
        <_>
          <internalNodes>
            0 -1 17 3.7716333754360676e-03</internalNodes>
          <leafValues>
            -3.4956836700439453e-01 7.0387035608291626e-01</leafValues></_>
        <_>
          <internalNodes>
            0 -1 56 8.0817276611924171e-03</internalNodes>
          <leafValues>
            -1.5897217392921448e-01 8.1143832206726074e-01</leafValues></_>
        <_>
          <internalNodes>
            0 -1 235 9.1987240011803806e-05</internalNodes>
          <leafValues>
            2.4816630780696869e-01 -7.5347596406936646e-01</leafValues></_>
        <_>
          <internalNodes>
            0 -1 72 -3.8155615329742432e-03</internalNodes>
          <leafValues>
            7.5243830680847168e-01 -2.3188011348247528e-01</leafValues></_>
        <_>
          <internalNodes>
            0 -1 57 1.1303493753075600e-02</internalNodes>
          <leafValues>
            -2.9787832498550415e-01 6.7767536640167236e-01</leafValues></_>
        <_>
          <internalNodes>
            0 -1 130 -6.1302445828914642e-04</internalNodes>
          <leafValues>
            6.4762979745864868e-01 -2.6734542846679688e-01</leafValues></_></weakClassifiers></_>
    <!-- stage 4 -->
    <_>
      <maxWeakCount>12</maxWeakCount>
      <stageThreshold>-1.2795647382736206e+00</stageThreshold>
      <weakClassifiers>
        <_>
          <internalNodes>
            0 -1 80 3.9737094193696976e-02</internalNodes>
          <leafValues>
            -1.6317015886306763e-01 7.2776281833648682e-01</leafValues></_>
        <_>
          <internalNodes>
            0 -1 45 -2.4145957082509995e-02</internalNodes>
          <leafValues>
            4.5690903067588806e-01 -4.1593042016029358e-01</leafValues></_>
        <_>
          <internalNodes>
            0 -1 117 -1.0734857060015202e-03</internalNodes>
          <leafValues>
            4.8347288370132446e-01 -3.4634956717491150e-01</leafValues></_>
        <_>
          <internalNodes>
            0 -1 32 -2.1787653677165508e-03</internalNodes>
          <leafValues>
            6.9139426946640015e-01 -2.4726609885692596e-01</leafValues></_>
        <_>
          <internalNodes>
            0 -1 151 -6.3635042170062661e-04</internalNodes>
          <leafValues>
            5.8292561769485474e-01 -2.6486140489578247e-01</leafValues></_>
        <_>
          <internalNodes>
            0 -1 234 4.8798514762893319e-04</internalNodes>
          <leafValues>
            2.0680771768093109e-01 -7.8148591518402100e-01</leafValues></_>
        <_>
          <internalNodes>
            0 -1 121 9.5191865693777800e-04</internalNodes>
          <leafValues>
            -2.4048373103141785e-01 7.1707272529602051e-01</leafValues></_>
        <_>
          <internalNodes>
            0 -1 108 -1.3711801730096340e-03</internalNodes>
          <leafValues>
            6.5885204076766968e-01 -2.3131920397281647e-01</leafValues></_>
        <_>
          <internalNodes>
            0 -1 70 1.7522834241390228e-02</internalNodes>
          <leafValues>
            -2.1049423515796661e-01 7.1715575456619263e-01</leafValues></_>
        <_>
          <internalNodes>
            0 -1 90 1.1582339648157358e-03</internalNodes>
          <leafValues>
            -1.9962663948535919e-01 7.4531614780426025e-01</leafValues></_>
        <_>
          <internalNodes>
            0 -1 225 -3.1818429124541581e-04</internalNodes>
          <leafValues>
            -7.6807337999343872e-01 2.1842485666275024e-01</leafValues></_>
        <_>
          <internalNodes>
            0 -1 74 1.7562214052304626e-03</internalNodes>
          <leafValues>
            -2.3211620748043060e-01 7.2557187080383301e-01</leafValues></_></weakClassifiers></_>
    <!-- stage 5 -->
    <_>
      <maxWeakCount>13</maxWeakCount>
      <stageThreshold>-9.8290944099426270e-01</stageThreshold>
      <weakClassifiers>
        <_>
          <internalNodes>
            0 -1 10 -1.6328066587448120e-01</internalNodes>
          <leafValues>
            9.0814197063446045e-01 -3.1222123652696609e-02</leafValues></_>
        <_>
          <internalNodes>
            0 -1 118 -2.0707927178591490e-03</internalNodes>
          <leafValues>
            5.8682286739349365e-01 -2.0337297022342682e-01</leafValues></_>
        <_>
          <internalNodes>
            0 -1 23 1.4325212687253952e-02</internalNodes>
          <leafValues>
            -2.8173133730888367e-01 5.9265708923339844e-01</leafValues></_>
        <_>
          <internalNodes>
            0 -1 51 -1.2265849858522415e-02</internalNodes>
          <leafValues>
            7.5937902927398682e-01 -1.8608698248863220e-01</leafValues></_>
        <_>
          <internalNodes>
            0 -1 227 2.6133118080906570e-04</internalNodes>
          <leafValues>
            2.3186513781547546e-01 -7.6827841997146606e-01</leafValues></_>
        <_>
          <internalNodes>
            0 -1 33 -6.7347288131713867e-04</internalNodes>
          <leafValues>
            4.3275046348571777e-01 -3.6988624930381775e-01</leafValues></_>
        <_>
          <internalNodes>
            0 -1 129 -3.3843741402961314e-04</internalNodes>
          <leafValues>
            4.9274939298629761e-01 -2.9854398965835571e-01</leafValues></_>
        <_>
          <internalNodes>
            0 -1 93 9.3885901151224971e-04</internalNodes>
          <leafValues>
            -2.2676104307174683e-01 6.5895509719848633e-01</leafValues></_>
        <_>
          <internalNodes>
            0 -1 214 2.3645789769943804e-04</internalNodes>
          <leafValues>
            2.1566078066825867e-01 -8.1441468000411987e-01</leafValues></_>
        <_>
          <internalNodes>
            0 -1 181 1.1240402236580849e-03</internalNodes>
          <leafValues>
            -2.7174958586692810e-01 5.7085973024368286e-01</leafValues></_>
        <_>
          <internalNodes>
            0 -1 170 -1.5762669499963522e-03</internalNodes>
          <leafValues>
            8.1540447473526001e-01 -1.6817788779735565e-01</leafValues></_>
        <_>
          <internalNodes>
            0 -1 235 -1.2111869000364095e-04</internalNodes>
          <leafValues>
            -8.0997395515441895e-01 2.2180518507957458e-01</leafValues></_>
        <_>
          <internalNodes>
            0 -1 186 -1.6140602529048920e-03</internalNodes>
          <leafValues>
            6.6839861869812012e-01 -2.4861100316047668e-01</leafValues></_></weakClassifiers></_>
    <!-- stage 6 -->
    <_>
      <maxWeakCount>14</maxWeakCount>
      <stageThreshold>-1.2665157318115234e+00</stageThreshold>
      <weakClassifiers>
        <_>
          <internalNodes>
            0 -1 224 -2.8193683829158545e-04</internalNodes>
          <leafValues>
            -7.9555553197860718e-01 4.2109090089797974e-01</leafValues></_>
        <_>
          <internalNodes>
            0 -1 31 -2.2178972139954567e-03</internalNodes>
          <leafValues>
            6.0183101892471313e-01 -3.2502326369285583e-01</leafValues></_>
        <_>
          <internalNodes>
            0 -1 20 1.3290496543049812e-02</internalNodes>
          <leafValues>
            -2.1615664660930634e-01 6.6785615682601929e-01</leafValues></_>
        <_>
          <internalNodes>
            0 -1 87 -9.2873945832252502e-03</internalNodes>
          <leafValues>
            6.9032692909240723e-01 -3.1149533390998840e-01</leafValues></_>
        <_>
          <internalNodes>
            0 -1 24 1.7790861427783966e-02</internalNodes>
          <leafValues>
            -1.5656800568103790e-01 8.6589032411575317e-01</leafValues></_>
        <_>
          <internalNodes>
            0 -1 71 -1.1544520035386086e-02</internalNodes>
          <leafValues>
            8.5493296384811401e-01 -1.3778464496135712e-01</leafValues></_>
        <_>
          <internalNodes>
            0 -1 55 5.6358275469392538e-04</internalNodes>
          <leafValues>
            2.8369331359863281e-01 -5.6099659204483032e-01</leafValues></_>
        <_>
          <internalNodes>
            0 -1 16 2.2639735043048859e-01</internalNodes>
          <leafValues>
            -2.7458482980728149e-01 5.1238131523132324e-01</leafValues></_>
        <_>
          <internalNodes>
            0 -1 98 -7.5458441860973835e-03</internalNodes>
          <leafValues>
            7.3203212022781372e-01 -2.1516002714633942e-01</leafValues></_>
        <_>
          <internalNodes>
            0 -1 13 1.7765210941433907e-02</internalNodes>
          <leafValues>
            -2.1482050418853760e-01 5.8613085746765137e-01</leafValues></_>
        <_>
          <internalNodes>
            0 -1 95 4.5495308004319668e-03</internalNodes>
          <leafValues>
            -3.0667060613632202e-01 5.2105450630187988e-01</leafValues></_>
        <_>
          <internalNodes>
            0 -1 229 -1.3631839829031378e-04</internalNodes>
          <leafValues>
            -7.2259080410003662e-01 2.4061122536659241e-01</leafValues></_>
        <_>
          <internalNodes>
            0 -1 68 1.0799550218507648e-03</internalNodes>
          <leafValues>
            -2.7841976284980774e-01 6.4949244260787964e-01</leafValues></_>
        <_>
          <internalNodes>
            0 -1 228 3.3969950163736939e-04</internalNodes>
          <leafValues>
            2.2477249801158905e-01 -7.7957254648208618e-01</leafValues></_></weakClassifiers></_>
    <!-- stage 7 -->
    <_>
      <maxWeakCount>11</maxWeakCount>
      <stageThreshold>-1.3878773450851440e+00</stageThreshold>
      <weakClassifiers>
        <_>
          <internalNodes>
            0 -1 183 -3.3844437450170517e-02</internalNodes>
          <leafValues>
            -8.1443297863006592e-01 3.9687055349349976e-01</leafValues></_>
        <_>
          <internalNodes>
            0 -1 187 7.4139535427093506e-03</internalNodes>
          <leafValues>
            -2.9841849207878113e-01 6.3443201780319214e-01</leafValues></_>
        <_>
          <internalNodes>
            0 -1 29 5.3388029336929321e-03</internalNodes>
          <leafValues>
            -3.9612007141113281e-01 4.5732325315475464e-01</leafValues></_>
        <_>
          <internalNodes>
            0 -1 184 -1.2438136618584394e-03</internalNodes>
          <leafValues>
            5.8819842338562012e-01 -3.3194720745086670e-01</leafValues></_>
        <_>
          <internalNodes>
            0 -1 176 -6.2603983678855002e-05</internalNodes>
          <leafValues>
            6.1840087175369263e-01 -2.5640001893043518e-01</leafValues></_>
        <_>
          <internalNodes>
            0 -1 146 -3.4046079963445663e-04</internalNodes>
          <leafValues>
            4.0009090304374695e-01 -3.8326779007911682e-01</leafValues></_>
        <_>
          <internalNodes>
            0 -1 103 3.8484652759507298e-04</internalNodes>
          <leafValues>
            -2.1632964909076691e-01 6.4237993955612183e-01</leafValues></_>
        <_>
          <internalNodes>
            0 -1 226 -7.7580660581588745e-04</internalNodes>
          <leafValues>
            -6.2206363677978516e-01 2.3337695002555847e-01</leafValues></_>
        <_>
          <internalNodes>
            0 -1 148 -8.6590787395834923e-04</internalNodes>
          <leafValues>
            7.7414155006408691e-01 -2.2020272910594940e-01</leafValues></_>
        <_>
          <internalNodes>
            0 -1 154 3.8292273529805243e-04</internalNodes>
          <leafValues>
            -2.6378044486045837e-01 6.6702628135681152e-01</leafValues></_>
        <_>
          <internalNodes>
            0 -1 194 -2.0384581875987351e-04</internalNodes>
          <leafValues>
            -5.7180416584014893e-01 3.2042121887207031e-01</leafValues></_></weakClassifiers></_>
    <!-- stage 8 -->
    <_>
      <maxWeakCount>12</maxWeakCount>
      <stageThreshold>-1.2830721139907837e+00</stageThreshold>
      <weakClassifiers>
        <_>
          <internalNodes>
            0 -1 25 -3.7214994430541992e-02</internalNodes>
          <leafValues>
            6.9764840602874756e-01 -3.1541725993156433e-01</leafValues></_>
        <_>
          <internalNodes>
            0 -1 21 -2.4981722235679626e-02</internalNodes>
          <leafValues>
            7.7743029594421387e-01 -1.8632222712039948e-01</leafValues></_>
        <_>
          <internalNodes>
            0 -1 238 -9.5187700935639441e-05</internalNodes>
          <leafValues>
            -7.2482550144195557e-01 2.4803072214126587e-01</leafValues></_>
        <_>
          <internalNodes>
            0 -1 83 1.0464534163475037e-02</internalNodes>
          <leafValues>
            -1.9837664067745209e-01 8.3649492263793945e-01</leafValues></_>
        <_>
          <internalNodes>
            0 -1 59 1.3139327056705952e-02</internalNodes>
          <leafValues>
            -2.1936871111392975e-01 7.9081475734710693e-01</leafValues></_>
        <_>
          <internalNodes>
            0 -1 43 1.4596972614526749e-03</internalNodes>
          <leafValues>
            -2.2221438586711884e-01 6.6731518507003784e-01</leafValues></_>
        <_>
          <internalNodes>
            0 -1 233 -2.2290018387138844e-04</internalNodes>
          <leafValues>
            -7.2839081287384033e-01 1.9716411828994751e-01</leafValues></_>
        <_>
          <internalNodes>
            0 -1 77 -8.0278434325009584e-04</internalNodes>
          <leafValues>
            5.8899438381195068e-01 -2.4795679748058319e-01</leafValues></_>
        <_>
          <internalNodes>
            0 -1 85 -4.1801780462265015e-03</internalNodes>
          <leafValues>
            7.8518140316009521e-01 -1.9688914716243744e-01</leafValues></_>
        <_>
          <internalNodes>
            0 -1 212 -2.4166013463400304e-04</internalNodes>
          <leafValues>
            -6.9708889722824097e-01 2.8315958380699158e-01</leafValues></_>
        <_>
          <internalNodes>
            0 -1 49 1.4463739469647408e-02</internalNodes>
          <leafValues>
            -2.5284591317176819e-01 6.8862915039062500e-01</leafValues></_>
        <_>
          <internalNodes>
            0 -1 133 9.1822992544621229e-04</internalNodes>
          <leafValues>
            -2.0197038352489471e-01 7.1074879169464111e-01</leafValues></_></weakClassifiers></_>
    <!-- stage 9 -->
    <_>
      <maxWeakCount>12</maxWeakCount>
      <stageThreshold>-1.3771578073501587e+00</stageThreshold>
      <weakClassifiers>
        <_>
          <internalNodes>
            0 -1 180 -6.5375491976737976e-03</internalNodes>
          <leafValues>
            6.4320385456085205e-01 -1.6752576828002930e-01</leafValues></_>
        <_>
          <internalNodes>
            0 -1 114 2.2115552837931318e-06</internalNodes>
          <leafValues>
            -4.5944035053253174e-01 3.5836434364318848e-01</leafValues></_>
        <_>
          <internalNodes>
            0 -1 42 -9.3311350792646408e-03</internalNodes>
          <leafValues>
            6.9852775335311890e-01 -2.2609947621822357e-01</leafValues></_>
        <_>
          <internalNodes>
            0 -1 35 2.7432290371507406e-03</internalNodes>
          <leafValues>
            -2.5692567229270935e-01 6.0290920734405518e-01</leafValues></_>
        <_>
          <internalNodes>
            0 -1 143 1.1134499218314886e-03</internalNodes>
          <leafValues>
            -2.0658855140209198e-01 6.6044431924819946e-01</leafValues></_>
        <_>
          <internalNodes>
            0 -1 172 -6.7503424361348152e-04</internalNodes>
          <leafValues>
            7.3556458950042725e-01 -1.7141020298004150e-01</leafValues></_>
        <_>
          <internalNodes>
            0 -1 58 -6.9000725634396076e-03</internalNodes>
          <leafValues>
            7.0784974098205566e-01 -1.7495825886726379e-01</leafValues></_>
        <_>
          <internalNodes>
            0 -1 164 -6.7839643452316523e-04</internalNodes>
          <leafValues>
            2.9312396049499512e-01 -4.7600442171096802e-01</leafValues></_>
        <_>
          <internalNodes>
            0 -1 3 4.3647088110446930e-02</internalNodes>
          <leafValues>
            -2.1533694863319397e-01 6.6262751817703247e-01</leafValues></_>
        <_>
          <internalNodes>
            0 -1 166 -7.9000994446687400e-05</internalNodes>
          <leafValues>
            4.9670767784118652e-01 -2.5173297524452209e-01</leafValues></_>
        <_>
          <internalNodes>
            0 -1 125 -2.1414854563772678e-03</internalNodes>
          <leafValues>
            4.4081419706344604e-01 -2.8612008690834045e-01</leafValues></_>
        <_>
          <internalNodes>
            0 -1 142 -7.9728278797119856e-04</internalNodes>
          <leafValues>
            7.0757734775543213e-01 -1.5557961165904999e-01</leafValues></_></weakClassifiers></_>
    <!-- stage 10 -->
    <_>
      <maxWeakCount>14</maxWeakCount>
      <stageThreshold>-1.4553302526473999e+00</stageThreshold>
      <weakClassifiers>
        <_>
          <internalNodes>
            0 -1 96 1.6629617661237717e-02</internalNodes>
          <leafValues>
            -7.8947365283966064e-02 7.8104573488235474e-01</leafValues></_>
        <_>
          <internalNodes>
            0 -1 150 -2.3336015874519944e-04</internalNodes>
          <leafValues>
            7.5907069444656372e-01 -1.6528843343257904e-01</leafValues></_>
        <_>
          <internalNodes>
            0 -1 107 5.8887437917292118e-03</internalNodes>
          <leafValues>
            -1.7202857136726379e-01 8.0257457494735718e-01</leafValues></_>
        <_>
          <internalNodes>
            0 -1 38 -4.2329187272116542e-04</internalNodes>
          <leafValues>
            4.9060860276222229e-01 -2.4592655897140503e-01</leafValues></_>
        <_>
          <internalNodes>
            0 -1 175 1.9664113642647862e-04</internalNodes>
          <leafValues>
            -2.2298109531402588e-01 6.3966214656829834e-01</leafValues></_>
        <_>
          <internalNodes>
            0 -1 19 2.1058239508420229e-03</internalNodes>
          <leafValues>
            -2.0586925745010376e-01 6.1139792203903198e-01</leafValues></_>
        <_>
          <internalNodes>
            0 -1 12 -4.6179361641407013e-02</internalNodes>
          <leafValues>
            6.8415981531143188e-01 -1.8293522298336029e-01</leafValues></_>
        <_>
          <internalNodes>
            0 -1 124 -1.6413255070801824e-04</internalNodes>
          <leafValues>
            5.9839051961898804e-01 -2.1470290422439575e-01</leafValues></_>
        <_>
          <internalNodes>
            0 -1 111 -9.1620360035449266e-04</internalNodes>
          <leafValues>
            6.9273477792739868e-01 -1.7306926846504211e-01</leafValues></_>
        <_>
          <internalNodes>
            0 -1 147 -1.5635758172720671e-03</internalNodes>
          <leafValues>
            7.5633782148361206e-01 -1.5153524279594421e-01</leafValues></_>
        <_>
          <internalNodes>
            0 -1 221 1.4428675058297813e-04</internalNodes>
          <leafValues>
            2.4747928977012634e-01 -6.5553832054138184e-01</leafValues></_>
        <_>
          <internalNodes>
            0 -1 62 -1.0734072420746088e-03</internalNodes>
          <leafValues>
            6.8308240175247192e-01 -2.1802593767642975e-01</leafValues></_>
        <_>
          <internalNodes>
            0 -1 67 -2.5348016060888767e-03</internalNodes>
          <leafValues>
            -8.5752642154693604e-01 1.7830720543861389e-01</leafValues></_>
        <_>
          <internalNodes>
            0 -1 138 -2.2131178528070450e-02</internalNodes>
          <leafValues>
            -8.4793245792388916e-01 1.2885154783725739e-01</leafValues></_></weakClassifiers></_>
    <!-- stage 11 -->
    <_>
      <maxWeakCount>14</maxWeakCount>
      <stageThreshold>-1.2445365190505981e+00</stageThreshold>
      <weakClassifiers>
        <_>
          <internalNodes>
            0 -1 27 -2.2748367860913277e-02</internalNodes>
          <leafValues>
            7.2564101219177246e-01 -2.0243902504444122e-01</leafValues></_>
        <_>
          <internalNodes>
            0 -1 218 1.5066628111526370e-04</internalNodes>
          <leafValues>
            2.8719049692153931e-01 -8.2523250579833984e-01</leafValues></_>
        <_>
          <internalNodes>
            0 -1 209 1.6081090143416077e-04</internalNodes>
          <leafValues>
            1.4513449370861053e-01 -8.1338495016098022e-01</leafValues></_>
        <_>
          <internalNodes>
            0 -1 211 2.9839837225154042e-04</internalNodes>
          <leafValues>
            1.4483395218849182e-01 -7.9196316003799438e-01</leafValues></_>
        <_>
          <internalNodes>
            0 -1 129 -5.3025898523628712e-04</internalNodes>
          <leafValues>
            5.4426586627960205e-01 -2.7016171813011169e-01</leafValues></_>
        <_>
          <internalNodes>
            0 -1 198 7.9178440500982106e-05</internalNodes>
          <leafValues>
            1.7729890346527100e-01 -6.9982266426086426e-01</leafValues></_>
        <_>
          <internalNodes>
            0 -1 39 2.7720328420400620e-02</internalNodes>
          <leafValues>
            -1.7166681587696075e-01 8.7305909395217896e-01</leafValues></_>
        <_>
          <internalNodes>
            0 -1 128 -6.0422171372920275e-04</internalNodes>
          <leafValues>
            7.1778380870819092e-01 -1.6839954257011414e-01</leafValues></_>
        <_>
          <internalNodes>
            0 -1 179 -2.2379500791430473e-02</internalNodes>
          <leafValues>
            6.3677114248275757e-01 -2.0980955660343170e-01</leafValues></_>
        <_>
          <internalNodes>
            0 -1 0 -9.3532333266921341e-05</internalNodes>
          <leafValues>
            -5.6003236770629883e-01 2.4875251948833466e-01</leafValues></_>
        <_>
          <internalNodes>
            0 -1 106 2.2628866136074066e-02</internalNodes>
          <leafValues>
            -2.1931333839893341e-01 7.3141473531723022e-01</leafValues></_>
        <_>
          <internalNodes>
            0 -1 239 8.6952735728118569e-05</internalNodes>
          <leafValues>
            2.4116528034210205e-01 -6.2971919775009155e-01</leafValues></_>
        <_>
          <internalNodes>
            0 -1 89 7.2027975693345070e-04</internalNodes>
          <leafValues>
            -3.0576857924461365e-01 4.7478595376014709e-01</leafValues></_>
        <_>
          <internalNodes>
            0 -1 34 6.2865932704880834e-05</internalNodes>
          <leafValues>
            2.0150887966156006e-01 -6.8864130973815918e-01</leafValues></_></weakClassifiers></_>
    <!-- stage 12 -->
    <_>
      <maxWeakCount>11</maxWeakCount>
      <stageThreshold>-8.8632649183273315e-01</stageThreshold>
      <weakClassifiers>
        <_>
          <internalNodes>
            0 -1 210 -3.2816105522215366e-04</internalNodes>
          <leafValues>
            -7.0802921056747437e-01 4.4796380400657654e-01</leafValues></_>
        <_>
          <internalNodes>
            0 -1 207 3.0391564359888434e-04</internalNodes>
          <leafValues>
            2.3533293604850769e-01 -7.4164295196533203e-01</leafValues></_>
        <_>
          <internalNodes>
            0 -1 82 2.0559269934892654e-02</internalNodes>
          <leafValues>
            -2.3041373491287231e-01 8.2080763578414917e-01</leafValues></_>
        <_>
          <internalNodes>
            0 -1 7 1.5136560250539333e-04</internalNodes>
          <leafValues>
            2.0989529788494110e-01 -7.5986063480377197e-01</leafValues></_>
        <_>
          <internalNodes>
            0 -1 127 -5.4551484063267708e-03</internalNodes>
          <leafValues>
            8.4215229749679565e-01 -2.2159753739833832e-01</leafValues></_>
        <_>
          <internalNodes>
            0 -1 222 -1.3857532758265734e-04</internalNodes>
          <leafValues>
            -5.3073418140411377e-01 3.0810758471488953e-01</leafValues></_>
        <_>
          <internalNodes>
            0 -1 155 -1.6386619536206126e-03</internalNodes>
          <leafValues>
            8.1670361757278442e-01 -2.1012432873249054e-01</leafValues></_>
        <_>
          <internalNodes>
            0 -1 160 7.1113184094429016e-04</internalNodes>
          <leafValues>
            -1.6949342191219330e-01 7.8126370906829834e-01</leafValues></_>
        <_>
          <internalNodes>
            0 -1 206 -3.3358047949150205e-04</internalNodes>
          <leafValues>
            -7.1476966142654419e-01 2.0706908404827118e-01</leafValues></_>
        <_>
          <internalNodes>
            0 -1 44 2.6884686201810837e-02</internalNodes>
          <leafValues>
            -1.7232318222522736e-01 8.0427634716033936e-01</leafValues></_>
        <_>
          <internalNodes>
            0 -1 91 1.5646977117285132e-03</internalNodes>
          <leafValues>
            -1.3474999368190765e-01 7.6314210891723633e-01</leafValues></_></weakClassifiers></_>
    <!-- stage 13 -->
    <_>
      <maxWeakCount>11</maxWeakCount>
      <stageThreshold>-8.4298682212829590e-01</stageThreshold>
      <weakClassifiers>
        <_>
          <internalNodes>
            0 -1 240 -2.3186916951090097e-04</internalNodes>
          <leafValues>
            -8.5000002384185791e-01 4.0714284777641296e-01</leafValues></_>
        <_>
          <internalNodes>
            0 -1 178 2.4762570858001709e-02</internalNodes>
          <leafValues>
            -2.8562352061271667e-01 6.3031190633773804e-01</leafValues></_>
        <_>
          <internalNodes>
            0 -1 79 1.6989166033454239e-04</internalNodes>
          <leafValues>
            -4.5131903886795044e-01 3.6176222562789917e-01</leafValues></_>
        <_>
          <internalNodes>
            0 -1 65 -7.7741248533129692e-03</internalNodes>
          <leafValues>
            -7.6062959432601929e-01 1.2903867661952972e-01</leafValues></_>
        <_>
          <internalNodes>
            0 -1 239 -9.8026546766050160e-05</internalNodes>
          <leafValues>
            -6.2897491455078125e-01 1.7419815063476562e-01</leafValues></_>
        <_>
          <internalNodes>
            0 -1 161 -1.0121922241523862e-03</internalNodes>
          <leafValues>
            5.5037736892700195e-01 -2.1729181706905365e-01</leafValues></_>
        <_>
          <internalNodes>
            0 -1 122 6.5122835803776979e-04</internalNodes>
          <leafValues>
            -2.4139715731143951e-01 5.8821731805801392e-01</leafValues></_>
        <_>
          <internalNodes>
            0 -1 203 2.2131345758680254e-04</internalNodes>
          <leafValues>
            1.3556750118732452e-01 -8.2029336690902710e-01</leafValues></_>
        <_>
          <internalNodes>
            0 -1 196 6.6392561420798302e-03</internalNodes>
          <leafValues>
            -1.6419580578804016e-01 8.2722824811935425e-01</leafValues></_>
        <_>
          <internalNodes>
            0 -1 217 3.9378512883558869e-04</internalNodes>
          <leafValues>
            1.3713508844375610e-01 -9.2180681228637695e-01</leafValues></_>
        <_>
          <internalNodes>
            0 -1 152 -1.2122775660827756e-04</internalNodes>
          <leafValues>
            5.2497589588165283e-01 -2.6340833306312561e-01</leafValues></_></weakClassifiers></_>
    <!-- stage 14 -->
    <_>
      <maxWeakCount>6</maxWeakCount>
      <stageThreshold>-1.0644066333770752e+00</stageThreshold>
      <weakClassifiers>
        <_>
          <internalNodes>
            0 -1 76 1.5534637495875359e-02</internalNodes>
          <leafValues>
            5.4003137350082397e-01 -8.8343560695648193e-01</leafValues></_>
        <_>
          <internalNodes>
            0 -1 1 -3.0187606811523438e-02</internalNodes>
          <leafValues>
            4.8780915141105652e-01 -5.3428715467453003e-01</leafValues></_>
        <_>
          <internalNodes>
            0 -1 81 -6.5889570396393538e-04</internalNodes>
          <leafValues>
            4.8885273933410645e-01 -4.0032199025154114e-01</leafValues></_>
        <_>
          <internalNodes>
            0 -1 193 -1.7053855583071709e-02</internalNodes>
          <leafValues>
            7.0214200019836426e-01 -2.0308946073055267e-01</leafValues></_>
        <_>
          <internalNodes>
            0 -1 197 7.5715072453022003e-03</internalNodes>
          <leafValues>
            -2.2604939341545105e-01 7.7294445037841797e-01</leafValues></_>
        <_>
          <internalNodes>
            0 -1 208 3.7645542761310935e-04</internalNodes>
          <leafValues>
            2.7754542231559753e-01 -7.4978423118591309e-01</leafValues></_></weakClassifiers></_>
    <!-- stage 15 -->
    <_>
      <maxWeakCount>16</maxWeakCount>
      <stageThreshold>-1.1328135728836060e+00</stageThreshold>
      <weakClassifiers>
        <_>
          <internalNodes>
            0 -1 131 -3.1560164643451571e-04</internalNodes>
          <leafValues>
            7.0474517345428467e-01 -9.6993212355300784e-04</leafValues></_>
        <_>
          <internalNodes>
            0 -1 64 -4.1493237949907780e-03</internalNodes>
          <leafValues>
            7.5508791208267212e-01 -1.3302388787269592e-01</leafValues></_>
        <_>
          <internalNodes>
            0 -1 173 -1.8832131172530353e-04</internalNodes>
          <leafValues>
            6.7464131116867065e-01 -1.8477673828601837e-01</leafValues></_>
        <_>
          <internalNodes>
            0 -1 86 -1.4369476120918989e-03</internalNodes>
          <leafValues>
            8.9897745847702026e-01 -1.3394403457641602e-01</leafValues></_>
        <_>
          <internalNodes>
            0 -1 73 -7.6131901005282998e-04</internalNodes>
          <leafValues>
            6.6645449399948120e-01 -1.5213270485401154e-01</leafValues></_>
        <_>
          <internalNodes>
            0 -1 188 1.5296404249966145e-02</internalNodes>
          <leafValues>
            -1.9259476661682129e-01 5.5345702171325684e-01</leafValues></_>
        <_>
          <internalNodes>
            0 -1 163 3.1237257644534111e-04</internalNodes>
          <leafValues>
            -1.9987709820270538e-01 6.4486736059188843e-01</leafValues></_>
        <_>
          <internalNodes>
            0 -1 4 8.9525477960705757e-04</internalNodes>
          <leafValues>
            -2.0423209667205811e-01 5.3987234830856323e-01</leafValues></_>
        <_>
          <internalNodes>
            0 -1 158 3.7219279329292476e-04</internalNodes>
          <leafValues>
            -2.1747854351997375e-01 5.1242405176162720e-01</leafValues></_>
        <_>
          <internalNodes>
            0 -1 75 -8.3874561823904514e-04</internalNodes>
          <leafValues>
            6.9514101743698120e-01 -1.5320053696632385e-01</leafValues></_>
        <_>
          <internalNodes>
            0 -1 88 -1.1438189540058374e-03</internalNodes>
          <leafValues>
            5.2371448278427124e-01 -2.3382776975631714e-01</leafValues></_>
        <_>
          <internalNodes>
            0 -1 242 -1.9238403183408082e-04</internalNodes>
          <leafValues>
            -9.0857118368148804e-01 1.5175643563270569e-01</leafValues></_>
        <_>
          <internalNodes>
            0 -1 102 5.3684820886701345e-04</internalNodes>
          <leafValues>
            -2.3511475324630737e-01 5.7952076196670532e-01</leafValues></_>
        <_>
          <internalNodes>
            0 -1 5 -1.0217444505542517e-03</internalNodes>
          <leafValues>
            4.9248743057250977e-01 -2.4024628102779388e-01</leafValues></_>
        <_>
          <internalNodes>
            0 -1 237 -2.2595500922761858e-04</internalNodes>
          <leafValues>
            -9.4469571113586426e-01 1.6246648132801056e-01</leafValues></_>
        <_>
          <internalNodes>
            0 -1 137 -6.3492613844573498e-04</internalNodes>
          <leafValues>
            3.1464955210685730e-01 -4.0315663814544678e-01</leafValues></_></weakClassifiers></_>
    <!-- stage 16 -->
    <_>
      <maxWeakCount>14</maxWeakCount>
      <stageThreshold>-1.0623595714569092e+00</stageThreshold>
      <weakClassifiers>
        <_>
          <internalNodes>
            0 -1 99 -2.8733186423778534e-02</internalNodes>
          <leafValues>
            -9.5767194032669067e-01 4.1176471114158630e-01</leafValues></_>
        <_>
          <internalNodes>
            0 -1 189 -2.7463715523481369e-02</internalNodes>
          <leafValues>
            6.9719278812408447e-01 -3.0609944462776184e-01</leafValues></_>
        <_>
          <internalNodes>
            0 -1 241 1.6650086035951972e-04</internalNodes>
          <leafValues>
            2.5642940402030945e-01 -7.5906312465667725e-01</leafValues></_>
        <_>
          <internalNodes>
            0 -1 14 -1.3643515296280384e-02</internalNodes>
          <leafValues>
            5.7773864269256592e-01 -2.5479987263679504e-01</leafValues></_>
        <_>
          <internalNodes>
            0 -1 22 1.5672788023948669e-02</internalNodes>
          <leafValues>
            -3.1777286529541016e-01 4.7580161690711975e-01</leafValues></_>
        <_>
          <internalNodes>
            0 -1 50 -4.5888251625001431e-03</internalNodes>
          <leafValues>
            6.9979757070541382e-01 -1.8096891045570374e-01</leafValues></_>
        <_>
          <internalNodes>
            0 -1 8 1.7941024270839989e-04</internalNodes>
          <leafValues>
            2.7004054188728333e-01 -7.3404639959335327e-01</leafValues></_>
        <_>
          <internalNodes>
            0 -1 145 -2.0810373825952411e-04</internalNodes>
          <leafValues>
            6.2072378396987915e-01 -2.4043735861778259e-01</leafValues></_>
        <_>
          <internalNodes>
            0 -1 202 -1.4473585179075599e-04</internalNodes>
          <leafValues>
            -7.4933379888534546e-01 1.7234779894351959e-01</leafValues></_>
        <_>
          <internalNodes>
            0 -1 157 6.3672492979094386e-04</internalNodes>
          <leafValues>
            -2.0847997069358826e-01 6.0699188709259033e-01</leafValues></_>
        <_>
          <internalNodes>
            0 -1 201 1.9842106848955154e-04</internalNodes>
          <leafValues>
            1.2771403789520264e-01 -8.9176899194717407e-01</leafValues></_>
        <_>
          <internalNodes>
            0 -1 159 -1.2183998478576541e-04</internalNodes>
          <leafValues>
            4.4398549199104309e-01 -2.9850083589553833e-01</leafValues></_>
        <_>
          <internalNodes>
            0 -1 213 5.3684331942349672e-04</internalNodes>
          <leafValues>
            1.5550702810287476e-01 -8.6935538053512573e-01</leafValues></_>
        <_>
          <internalNodes>
            0 -1 168 -7.8994780778884888e-04</internalNodes>
          <leafValues>
            6.6646957397460938e-01 -2.3200178146362305e-01</leafValues></_></weakClassifiers></_>
    <!-- stage 17 -->
    <_>
      <maxWeakCount>19</maxWeakCount>
      <stageThreshold>-1.3303922414779663e+00</stageThreshold>
      <weakClassifiers>
        <_>
          <internalNodes>
            0 -1 61 -1.0982884094119072e-02</internalNodes>
          <leafValues>
            -7.7777779102325439e-01 3.5164836049079895e-01</leafValues></_>
        <_>
          <internalNodes>
            0 -1 9 -2.1715086698532104e-01</internalNodes>
          <leafValues>
            7.2057139873504639e-01 -1.5801003575325012e-01</leafValues></_>
        <_>
          <internalNodes>
            0 -1 120 -6.9005461409687996e-04</internalNodes>
          <leafValues>
            6.5032273530960083e-01 -1.8365578353404999e-01</leafValues></_>
        <_>
          <internalNodes>
            0 -1 167 7.5904710683971643e-05</internalNodes>
          <leafValues>
            -1.7132379114627838e-01 5.4248285293579102e-01</leafValues></_>
        <_>
          <internalNodes>
            0 -1 204 -2.0460391533561051e-04</internalNodes>
          <leafValues>
            -7.0629638433456421e-01 1.1862139403820038e-01</leafValues></_>
        <_>
          <internalNodes>
            0 -1 200 -1.0466012172400951e-03</internalNodes>
          <leafValues>
            3.7145087122917175e-01 -2.8635862469673157e-01</leafValues></_>
        <_>
          <internalNodes>
            0 -1 66 1.7770761623978615e-03</internalNodes>
          <leafValues>
            -1.5161539614200592e-01 6.1253267526626587e-01</leafValues></_>
        <_>
          <internalNodes>
            0 -1 144 -1.1507601011544466e-03</internalNodes>
          <leafValues>
            5.2862316370010376e-01 -2.5262257456779480e-01</leafValues></_>
        <_>
          <internalNodes>
            0 -1 232 -6.2300860008690506e-05</internalNodes>
          <leafValues>
            -6.6155111789703369e-01 1.9162832200527191e-01</leafValues></_>
        <_>
          <internalNodes>
            0 -1 105 -5.3801113972440362e-04</internalNodes>
          <leafValues>
            5.3255677223205566e-01 -2.2780169546604156e-01</leafValues></_>
        <_>
          <internalNodes>
            0 -1 199 1.7230742378160357e-04</internalNodes>
          <leafValues>
            2.0887759327888489e-01 -6.6853058338165283e-01</leafValues></_>
        <_>
          <internalNodes>
            0 -1 177 -9.0216437820345163e-04</internalNodes>
          <leafValues>
            6.5571379661560059e-01 -2.2563767433166504e-01</leafValues></_>
        <_>
          <internalNodes>
            0 -1 2 -1.9333562522660941e-04</internalNodes>
          <leafValues>
            -7.7148765325546265e-01 1.8249316513538361e-01</leafValues></_>
        <_>
          <internalNodes>
            0 -1 190 1.1598403216339648e-04</internalNodes>
          <leafValues>
            -2.3266775906085968e-01 6.0009264945983887e-01</leafValues></_>
        <_>
          <internalNodes>
            0 -1 115 -4.3035860289819539e-04</internalNodes>
          <leafValues>
            5.3434282541275024e-01 -2.0187079906463623e-01</leafValues></_>
        <_>
          <internalNodes>
            0 -1 215 2.9517177608795464e-04</internalNodes>
          <leafValues>
            2.2117549180984497e-01 -6.7031091451644897e-01</leafValues></_>
        <_>
          <internalNodes>
            0 -1 190 -1.2447754852473736e-04</internalNodes>
          <leafValues>
            5.8792638778686523e-01 -2.2728966176509857e-01</leafValues></_>
        <_>
          <internalNodes>
            0 -1 15 1.4961186388973147e-04</internalNodes>
          <leafValues>
            1.6394278407096863e-01 -7.6551109552383423e-01</leafValues></_>
        <_>
          <internalNodes>
            0 -1 100 -8.1051897723227739e-04</internalNodes>
          <leafValues>
            5.7279211282730103e-01 -2.3032681643962860e-01</leafValues></_></weakClassifiers></_>
    <!-- stage 18 -->
    <_>
      <maxWeakCount>16</maxWeakCount>
      <stageThreshold>-9.0655094385147095e-01</stageThreshold>
      <weakClassifiers>
        <_>
          <internalNodes>
            0 -1 192 -3.1069189310073853e-02</internalNodes>
          <leafValues>
            6.8403363227844238e-01 -6.9651743397116661e-03</leafValues></_>
        <_>
          <internalNodes>
            0 -1 136 -5.9285771567374468e-04</internalNodes>
          <leafValues>
            6.5898585319519043e-01 -1.2853166460990906e-01</leafValues></_>
        <_>
          <internalNodes>
            0 -1 182 -7.4429309461265802e-04</internalNodes>
          <leafValues>
            6.7526888847351074e-01 -1.6558831930160522e-01</leafValues></_>
        <_>
          <internalNodes>
            0 -1 36 -7.4505028314888477e-03</internalNodes>
          <leafValues>
            5.6167590618133545e-01 -1.7016626894474030e-01</leafValues></_>
        <_>
          <internalNodes>
            0 -1 37 -1.5553764998912811e-02</internalNodes>
          <leafValues>
            5.9274733066558838e-01 -1.5360660851001740e-01</leafValues></_>
        <_>
          <internalNodes>
            0 -1 230 4.4272688683122396e-04</internalNodes>
          <leafValues>
            1.2863716483116150e-01 -8.4715622663497925e-01</leafValues></_>
        <_>
          <internalNodes>
            0 -1 116 9.0303702745586634e-04</internalNodes>
          <leafValues>
            -1.8869003653526306e-01 5.8315545320510864e-01</leafValues></_>
        <_>
          <internalNodes>
            0 -1 156 5.9313385281711817e-04</internalNodes>
          <leafValues>
            -2.1144814789295197e-01 5.0847494602203369e-01</leafValues></_>
        <_>
          <internalNodes>
            0 -1 162 -1.3051405549049377e-03</internalNodes>
          <leafValues>
            7.2516304254531860e-01 -1.8136364221572876e-01</leafValues></_>
        <_>
          <internalNodes>
            0 -1 223 4.8730015987530351e-04</internalNodes>
          <leafValues>
            1.6831275820732117e-01 -8.2217478752136230e-01</leafValues></_>
        <_>
          <internalNodes>
            0 -1 139 1.6839202493429184e-02</internalNodes>
          <leafValues>
            1.0671259462833405e-01 -9.0305656194686890e-01</leafValues></_>
        <_>
          <internalNodes>
            0 -1 60 -4.8095703125000000e-02</internalNodes>
          <leafValues>
            -7.8846150636672974e-01 1.2741772830486298e-01</leafValues></_>
        <_>
          <internalNodes>
            0 -1 112 -5.0984579138457775e-04</internalNodes>
          <leafValues>
            6.1375772953033447e-01 -2.2066695988178253e-01</leafValues></_>
        <_>
          <internalNodes>
            0 -1 92 5.2198878256604075e-04</internalNodes>
          <leafValues>
            -2.3947836458683014e-01 6.1497414112091064e-01</leafValues></_>
        <_>
          <internalNodes>
            0 -1 220 -2.2458672174252570e-04</internalNodes>
          <leafValues>
            -7.6886910200119019e-01 2.0125055313110352e-01</leafValues></_>
        <_>
          <internalNodes>
            0 -1 126 -1.2129156384617090e-03</internalNodes>
          <leafValues>
            3.9916086196899414e-01 -3.2236525416374207e-01</leafValues></_></weakClassifiers></_>
    <!-- stage 19 -->
    <_>
      <maxWeakCount>16</maxWeakCount>
      <stageThreshold>-9.9091529846191406e-01</stageThreshold>
      <weakClassifiers>
        <_>
          <internalNodes>
            0 -1 171 1.3223944231867790e-02</internalNodes>
          <leafValues>
            -2.1186441183090210e-02 6.4024388790130615e-01</leafValues></_>
        <_>
          <internalNodes>
            0 -1 69 1.9795063883066177e-02</internalNodes>
          <leafValues>
            -8.4536232054233551e-02 8.4318745136260986e-01</leafValues></_>
        <_>
          <internalNodes>
            0 -1 165 -2.8777646366506815e-04</internalNodes>
          <leafValues>
            5.0269293785095215e-01 -2.0845951139926910e-01</leafValues></_>
        <_>
          <internalNodes>
            0 -1 114 4.0233499021269381e-06</internalNodes>
          <leafValues>
            -4.4708526134490967e-01 2.4399159848690033e-01</leafValues></_>
        <_>
          <internalNodes>
            0 -1 123 -3.5431381547823548e-04</internalNodes>
          <leafValues>
            3.0342474579811096e-01 -3.2096338272094727e-01</leafValues></_>
        <_>
          <internalNodes>
            0 -1 149 -3.5634898813441396e-04</internalNodes>
          <leafValues>
            5.4749828577041626e-01 -2.0583193004131317e-01</leafValues></_>
        <_>
          <internalNodes>
            0 -1 205 5.9006607625633478e-04</internalNodes>
          <leafValues>
            1.4319817721843719e-01 -8.8607335090637207e-01</leafValues></_>
        <_>
          <internalNodes>
            0 -1 104 -9.7209136583842337e-05</internalNodes>
          <leafValues>
            5.0520062446594238e-01 -2.3546685278415680e-01</leafValues></_>
        <_>
          <internalNodes>
            0 -1 119 -3.7270239554345608e-03</internalNodes>
          <leafValues>
            8.3793443441390991e-01 -1.2450701743364334e-01</leafValues></_>
        <_>
          <internalNodes>
            0 -1 28 1.3270571798784658e-05</internalNodes>
          <leafValues>
            -2.5693759322166443e-01 4.2376384139060974e-01</leafValues></_>
        <_>
          <internalNodes>
            0 -1 54 3.6092445254325867e-02</internalNodes>
          <leafValues>
            -2.0201753079891205e-01 5.8212333917617798e-01</leafValues></_>
        <_>
          <internalNodes>
            0 -1 134 4.0567107498645782e-04</internalNodes>
          <leafValues>
            -1.8421034514904022e-01 5.6657385826110840e-01</leafValues></_>
        <_>
          <internalNodes>
            0 -1 216 1.2150348629802465e-04</internalNodes>
          <leafValues>
            1.7057979106903076e-01 -7.3278784751892090e-01</leafValues></_>
        <_>
          <internalNodes>
            0 -1 140 -3.5193149233236909e-04</internalNodes>
          <leafValues>
            4.7231286764144897e-01 -2.4706064164638519e-01</leafValues></_>
        <_>
          <internalNodes>
            0 -1 141 -6.0615560505539179e-04</internalNodes>
          <leafValues>
            5.0041133165359497e-01 -2.0175965130329132e-01</leafValues></_>
        <_>
          <internalNodes>
            0 -1 78 -2.7652140706777573e-03</internalNodes>
          <leafValues>
            -8.3458864688873291e-01 1.3023956120014191e-01</leafValues></_></weakClassifiers></_></stages>
  <features>
    <_>
      <rects>
        <_>
          0 31 4 4 -1.</_>
        <_>
          1 31 2 4 2.</_></rects>
      <tilted>0</tilted></_>
    <_>
      <rects>
        <_>
          2 3 77 24 -1.</_>
        <_>
          2 11 77 8 3.</_></rects>
      <tilted>0</tilted></_>
    <_>
      <rects>
        <_>
          3 6 3 3 -1.</_>
        <_>
          3 7 3 1 3.</_></rects>
      <tilted>0</tilted></_>
    <_>
      <rects>
        <_>
          7 12 27 25 -1.</_>
        <_>
          16 12 9 25 3.</_></rects>
      <tilted>0</tilted></_>
    <_>
      <rects>
        <_>
          8 24 40 3 -1.</_>
        <_>
          8 25 40 1 3.</_></rects>
      <tilted>0</tilted></_>
    <_>
      <rects>
        <_>
          9 15 43 3 -1.</_>
        <_>
          9 16 43 1 3.</_></rects>
      <tilted>0</tilted></_>
    <_>
      <rects>
        <_>
          10 13 24 15 -1.</_>
        <_>
          16 13 12 15 2.</_></rects>
      <tilted>0</tilted></_>
    <_>
      <rects>
        <_>
          11 24 3 3 -1.</_>
        <_>
          11 25 3 1 3.</_></rects>
      <tilted>0</tilted></_>
    <_>
      <rects>
        <_>
          12 23 3 3 -1.</_>
        <_>
          12 24 3 1 3.</_></rects>
      <tilted>0</tilted></_>
    <_>
      <rects>
        <_>
          15 9 52 23 -1.</_>
        <_>
          28 9 26 23 2.</_></rects>
      <tilted>0</tilted></_>
    <_>
      <rects>
        <_>
          16 7 48 26 -1.</_>
        <_>
          28 7 24 26 2.</_></rects>
      <tilted>0</tilted></_>
    <_>
      <rects>
        <_>
          16 24 26 16 -1.</_>
        <_>
          16 24 13 8 2.</_>
        <_>
          29 32 13 8 2.</_></rects>
      <tilted>0</tilted></_>
    <_>
      <rects>
        <_>
          17 21 44 9 -1.</_>
        <_>
          28 21 22 9 2.</_></rects>
      <tilted>0</tilted></_>
    <_>
      <rects>
        <_>
          18 1 42 16 -1.</_>
        <_>
          18 5 42 8 2.</_></rects>
      <tilted>0</tilted></_>
    <_>
      <rects>
        <_>
          19 6 45 9 -1.</_>
        <_>
          19 9 45 3 3.</_></rects>
      <tilted>0</tilted></_>
    <_>
      <rects>
        <_>
          22 1 2 4 -1.</_>
        <_>
          22 1 1 2 2.</_>
        <_>
          23 3 1 2 2.</_></rects>
      <tilted>0</tilted></_>
    <_>
      <rects>
        <_>
          22 10 58 29 -1.</_>
        <_>
          51 10 29 29 2.</_></rects>
      <tilted>0</tilted></_>
    <_>
      <rects>
        <_>
          22 22 14 3 -1.</_>
        <_>
          29 22 7 3 2.</_></rects>
      <tilted>0</tilted></_>
    <_>
      <rects>
        <_>
          23 0 34 16 -1.</_>
        <_>
          23 4 34 8 2.</_></rects>
      <tilted>0</tilted></_>
    <_>
      <rects>
        <_>
          23 18 8 7 -1.</_>
        <_>
          27 18 4 7 2.</_></rects>
      <tilted>0</tilted></_>
    <_>
      <rects>
        <_>
          23 18 30 12 -1.</_>
        <_>
          23 22 30 4 3.</_></rects>
      <tilted>0</tilted></_>
    <_>
      <rects>
        <_>
          23 22 30 18 -1.</_>
        <_>
          23 28 30 6 3.</_></rects>
      <tilted>0</tilted></_>
    <_>
      <rects>
        <_>
          24 1 56 16 -1.</_>
        <_>
          24 5 56 8 2.</_></rects>
      <tilted>0</tilted></_>
    <_>
      <rects>
        <_>
          24 2 27 12 -1.</_>
        <_>
          24 5 27 6 2.</_></rects>
      <tilted>0</tilted></_>
    <_>
      <rects>
        <_>
          24 4 26 12 -1.</_>
        <_>
          24 7 26 6 2.</_></rects>
      <tilted>0</tilted></_>
    <_>
      <rects>
        <_>
          25 3 43 24 -1.</_>
        <_>
          25 11 43 8 3.</_></rects>
      <tilted>0</tilted></_>
    <_>
      <rects>
        <_>
          25 26 22 14 -1.</_>
        <_>
          25 33 22 7 2.</_></rects>
      <tilted>0</tilted></_>
    <_>
      <rects>
        <_>
          26 3 37 12 -1.</_>
        <_>
          26 9 37 6 2.</_></rects>
      <tilted>0</tilted></_>
    <_>
      <rects>
        <_>
          26 4 35 4 -1.</_>
        <_>
          26 6 35 2 2.</_></rects>
      <tilted>0</tilted></_>
    <_>
      <rects>
        <_>
          26 12 38 12 -1.</_>
        <_>
          26 18 38 6 2.</_></rects>
      <tilted>0</tilted></_>
    <_>
      <rects>
        <_>
          26 13 12 10 -1.</_>
        <_>
          30 13 4 10 3.</_></rects>
      <tilted>0</tilted></_>
    <_>
      <rects>
        <_>
          26 18 9 5 -1.</_>
        <_>
          29 18 3 5 3.</_></rects>
      <tilted>0</tilted></_>
    <_>
      <rects>
        <_>
          26 19 6 5 -1.</_>
        <_>
          29 19 3 5 2.</_></rects>
      <tilted>0</tilted></_>
    <_>
      <rects>
        <_>
          26 19 15 1 -1.</_>
        <_>
          31 19 5 1 3.</_></rects>
      <tilted>0</tilted></_>
    <_>
      <rects>
        <_>
          27 1 4 1 -1.</_>
        <_>
          28 1 2 1 2.</_></rects>
      <tilted>0</tilted></_>
    <_>
      <rects>
        <_>
          27 7 8 3 -1.</_>
        <_>
          29 9 4 3 2.</_></rects>
      <tilted>1</tilted></_>
    <_>
      <rects>
        <_>
          27 9 23 6 -1.</_>
        <_>
          27 11 23 2 3.</_></rects>
      <tilted>0</tilted></_>
    <_>
      <rects>
        <_>
          27 14 14 12 -1.</_>
        <_>
          23 18 14 4 3.</_></rects>
      <tilted>1</tilted></_>
    <_>
      <rects>
        <_>
          27 19 6 3 -1.</_>
        <_>
          29 19 2 3 3.</_></rects>
      <tilted>0</tilted></_>
    <_>
      <rects>
        <_>
          28 3 18 12 -1.</_>
        <_>
          28 7 18 4 3.</_></rects>
      <tilted>0</tilted></_>
    <_>
      <rects>
        <_>
          28 3 23 12 -1.</_>
        <_>
          28 6 23 6 2.</_></rects>
      <tilted>0</tilted></_>
    <_>
      <rects>
        <_>
          28 3 25 24 -1.</_>
        <_>
          28 11 25 8 3.</_></rects>
      <tilted>0</tilted></_>
    <_>
      <rects>
        <_>
          28 8 13 9 -1.</_>
        <_>
          28 11 13 3 3.</_></rects>
      <tilted>0</tilted></_>
    <_>
      <rects>
        <_>
          28 10 13 6 -1.</_>
        <_>
          28 13 13 3 2.</_></rects>
      <tilted>0</tilted></_>
    <_>
      <rects>
        <_>
          29 4 16 12 -1.</_>
        <_>
          29 8 16 4 3.</_></rects>
      <tilted>0</tilted></_>
    <_>
      <rects>
        <_>
          29 4 21 24 -1.</_>
        <_>
          29 12 21 8 3.</_></rects>
      <tilted>0</tilted></_>
    <_>
      <rects>
        <_>
          29 6 20 9 -1.</_>
        <_>
          29 9 20 3 3.</_></rects>
      <tilted>0</tilted></_>
    <_>
      <rects>
        <_>
          30 0 9 20 -1.</_>
        <_>
          33 3 3 20 3.</_></rects>
      <tilted>1</tilted></_>
    <_>
      <rects>
        <_>
          30 2 48 14 -1.</_>
        <_>
          30 2 24 7 2.</_>
        <_>
          54 9 24 7 2.</_></rects>
      <tilted>0</tilted></_>
    <_>
      <rects>
        <_>
          30 3 18 12 -1.</_>
        <_>
          30 6 18 6 2.</_></rects>
      <tilted>0</tilted></_>
    <_>
      <rects>
        <_>
          30 4 15 6 -1.</_>
        <_>
          30 6 15 2 3.</_></rects>
      <tilted>0</tilted></_>
    <_>
      <rects>
        <_>
          30 4 16 9 -1.</_>
        <_>
          30 7 16 3 3.</_></rects>
      <tilted>0</tilted></_>
    <_>
      <rects>
        <_>
          30 11 48 10 -1.</_>
        <_>
          54 11 24 10 2.</_></rects>
      <tilted>0</tilted></_>
    <_>
      <rects>
        <_>
          30 20 16 5 -1.</_>
        <_>
          38 20 8 5 2.</_></rects>
      <tilted>0</tilted></_>
    <_>
      <rects>
        <_>
          30 24 20 16 -1.</_>
        <_>
          30 32 20 8 2.</_></rects>
      <tilted>0</tilted></_>
    <_>
      <rects>
        <_>
          31 0 2 14 -1.</_>
        <_>
          31 0 1 14 2.</_></rects>
      <tilted>1</tilted></_>
    <_>
      <rects>
        <_>
          31 0 9 6 -1.</_>
        <_>
          34 3 3 6 3.</_></rects>
      <tilted>1</tilted></_>
    <_>
      <rects>
        <_>
          31 2 20 12 -1.</_>
        <_>
          31 5 20 6 2.</_></rects>
      <tilted>0</tilted></_>
    <_>
      <rects>
        <_>
          31 3 8 12 -1.</_>
        <_>
          33 5 4 12 2.</_></rects>
      <tilted>1</tilted></_>
    <_>
      <rects>
        <_>
          31 5 12 12 -1.</_>
        <_>
          31 9 12 4 3.</_></rects>
      <tilted>0</tilted></_>
    <_>
      <rects>
        <_>
          31 13 24 15 -1.</_>
        <_>
          39 18 8 5 9.</_></rects>
      <tilted>0</tilted></_>
    <_>
      <rects>
        <_>
          31 15 20 9 -1.</_>
        <_>
          41 15 10 9 2.</_></rects>
      <tilted>0</tilted></_>
    <_>
      <rects>
        <_>
          31 25 15 3 -1.</_>
        <_>
          31 26 15 1 3.</_></rects>
      <tilted>0</tilted></_>
    <_>
      <rects>
        <_>
          32 4 17 8 -1.</_>
        <_>
          32 6 17 4 2.</_></rects>
      <tilted>0</tilted></_>
    <_>
      <rects>
        <_>
          32 6 8 6 -1.</_>
        <_>
          32 8 8 2 3.</_></rects>
      <tilted>0</tilted></_>
    <_>
      <rects>
        <_>
          32 11 5 22 -1.</_>
        <_>
          32 22 5 11 2.</_></rects>
      <tilted>0</tilted></_>
    <_>
      <rects>
        <_>
          32 15 22 3 -1.</_>
        <_>
          32 16 22 1 3.</_></rects>
      <tilted>0</tilted></_>
    <_>
      <rects>
        <_>
          32 20 16 4 -1.</_>
        <_>
          40 20 8 4 2.</_></rects>
      <tilted>0</tilted></_>
    <_>
      <rects>
        <_>
          32 22 21 3 -1.</_>
        <_>
          32 23 21 1 3.</_></rects>
      <tilted>0</tilted></_>
    <_>
      <rects>
        <_>
          33 1 16 9 -1.</_>
        <_>
          33 4 16 3 3.</_></rects>
      <tilted>0</tilted></_>
    <_>
      <rects>
        <_>
          33 2 17 12 -1.</_>
        <_>
          33 6 17 4 3.</_></rects>
      <tilted>0</tilted></_>
    <_>
      <rects>
        <_>
          33 3 13 9 -1.</_>
        <_>
          33 6 13 3 3.</_></rects>
      <tilted>0</tilted></_>
    <_>
      <rects>
        <_>
          33 4 8 8 -1.</_>
        <_>
          33 6 8 4 2.</_></rects>
      <tilted>0</tilted></_>
    <_>
      <rects>
        <_>
          33 10 3 2 -1.</_>
        <_>
          34 11 1 2 3.</_></rects>
      <tilted>1</tilted></_>
    <_>
      <rects>
        <_>
          33 10 17 4 -1.</_>
        <_>
          33 11 17 2 2.</_></rects>
      <tilted>0</tilted></_>
    <_>
      <rects>
        <_>
          33 12 4 3 -1.</_>
        <_>
          33 13 4 1 3.</_></rects>
      <tilted>0</tilted></_>
    <_>
      <rects>
        <_>
          33 13 9 14 -1.</_>
        <_>
          36 16 3 14 3.</_></rects>
      <tilted>1</tilted></_>
    <_>
      <rects>
        <_>
          33 13 8 3 -1.</_>
        <_>
          33 14 8 1 3.</_></rects>
      <tilted>0</tilted></_>
    <_>
      <rects>
        <_>
          33 18 9 4 -1.</_>
        <_>
          36 18 3 4 3.</_></rects>
      <tilted>0</tilted></_>
    <_>
      <rects>
        <_>
          33 20 12 5 -1.</_>
        <_>
          39 20 6 5 2.</_></rects>
      <tilted>0</tilted></_>
    <_>
      <rects>
        <_>
          33 20 30 14 -1.</_>
        <_>
          48 20 15 14 2.</_></rects>
      <tilted>0</tilted></_>
    <_>
      <rects>
        <_>
          33 24 11 6 -1.</_>
        <_>
          33 27 11 3 2.</_></rects>
      <tilted>0</tilted></_>
    <_>
      <rects>
        <_>
          34 0 13 12 -1.</_>
        <_>
          34 4 13 4 3.</_></rects>
      <tilted>0</tilted></_>
    <_>
      <rects>
        <_>
          34 1 6 12 -1.</_>
        <_>
          34 5 6 4 3.</_></rects>
      <tilted>0</tilted></_>
    <_>
      <rects>
        <_>
          34 1 17 12 -1.</_>
        <_>
          34 4 17 6 2.</_></rects>
      <tilted>0</tilted></_>
    <_>
      <rects>
        <_>
          34 4 5 8 -1.</_>
        <_>
          34 6 5 4 2.</_></rects>
      <tilted>0</tilted></_>
    <_>
      <rects>
        <_>
          34 5 8 3 -1.</_>
        <_>
          34 6 8 1 3.</_></rects>
      <tilted>0</tilted></_>
    <_>
      <rects>
        <_>
          34 5 11 12 -1.</_>
        <_>
          34 8 11 6 2.</_></rects>
      <tilted>0</tilted></_>
    <_>
      <rects>
        <_>
          34 8 3 6 -1.</_>
        <_>
          35 10 1 2 9.</_></rects>
      <tilted>0</tilted></_>
    <_>
      <rects>
        <_>
          34 9 11 4 -1.</_>
        <_>
          33 10 11 2 2.</_></rects>
      <tilted>1</tilted></_>
    <_>
      <rects>
        <_>
          34 12 12 3 -1.</_>
        <_>
          34 13 12 1 3.</_></rects>
      <tilted>0</tilted></_>
    <_>
      <rects>
        <_>
          34 13 15 3 -1.</_>
        <_>
          34 14 15 1 3.</_></rects>
      <tilted>0</tilted></_>
    <_>
      <rects>
        <_>
          34 16 5 3 -1.</_>
        <_>
          34 17 5 1 3.</_></rects>
      <tilted>0</tilted></_>
    <_>
      <rects>
        <_>
          34 18 9 4 -1.</_>
        <_>
          34 19 9 2 2.</_></rects>
      <tilted>0</tilted></_>
    <_>
      <rects>
        <_>
          34 18 11 4 -1.</_>
        <_>
          34 19 11 2 2.</_></rects>
      <tilted>0</tilted></_>
    <_>
      <rects>
        <_>
          34 21 16 9 -1.</_>
        <_>
          34 24 16 3 3.</_></rects>
      <tilted>0</tilted></_>
    <_>
      <rects>
        <_>
          34 24 14 16 -1.</_>
        <_>
          34 32 14 8 2.</_></rects>
      <tilted>0</tilted></_>
    <_>
      <rects>
        <_>
          34 25 15 12 -1.</_>
        <_>
          34 28 15 6 2.</_></rects>
      <tilted>0</tilted></_>
    <_>
      <rects>
        <_>
          35 7 8 9 -1.</_>
        <_>
          35 10 8 3 3.</_></rects>
      <tilted>0</tilted></_>
    <_>
      <rects>
        <_>
          35 9 18 4 -1.</_>
        <_>
          41 15 6 4 3.</_></rects>
      <tilted>1</tilted></_>
    <_>
      <rects>
        <_>
          35 12 6 3 -1.</_>
        <_>
          35 13 6 1 3.</_></rects>
      <tilted>0</tilted></_>
    <_>
      <rects>
        <_>
          35 14 12 3 -1.</_>
        <_>
          35 15 12 1 3.</_></rects>
      <tilted>0</tilted></_>
    <_>
      <rects>
        <_>
          35 15 4 3 -1.</_>
        <_>
          35 16 4 1 3.</_></rects>
      <tilted>0</tilted></_>
    <_>
      <rects>
        <_>
          35 15 5 3 -1.</_>
        <_>
          35 16 5 1 3.</_></rects>
      <tilted>0</tilted></_>
    <_>
      <rects>
        <_>
          35 22 1 3 -1.</_>
        <_>
          35 23 1 1 3.</_></rects>
      <tilted>0</tilted></_>
    <_>
      <rects>
        <_>
          35 22 3 3 -1.</_>
        <_>
          36 23 1 1 9.</_></rects>
      <tilted>0</tilted></_>
    <_>
      <rects>
        <_>
          35 22 34 18 -1.</_>
        <_>
          35 22 17 9 2.</_>
        <_>
          52 31 17 9 2.</_></rects>
      <tilted>0</tilted></_>
    <_>
      <rects>
        <_>
          36 1 8 8 -1.</_>
        <_>
          36 3 8 4 2.</_></rects>
      <tilted>0</tilted></_>
    <_>
      <rects>
        <_>
          36 4 3 8 -1.</_>
        <_>
          36 6 3 4 2.</_></rects>
      <tilted>0</tilted></_>
    <_>
      <rects>
        <_>
          36 5 6 6 -1.</_>
        <_>
          36 7 6 2 3.</_></rects>
      <tilted>0</tilted></_>
    <_>
      <rects>
        <_>
          36 7 6 8 -1.</_>
        <_>
          36 9 6 4 2.</_></rects>
      <tilted>0</tilted></_>
    <_>
      <rects>
        <_>
          36 8 5 4 -1.</_>
        <_>
          36 9 5 2 2.</_></rects>
      <tilted>0</tilted></_>
    <_>
      <rects>
        <_>
          36 16 3 3 -1.</_>
        <_>
          36 17 3 1 3.</_></rects>
      <tilted>0</tilted></_>
    <_>
      <rects>
        <_>
          36 17 8 2 -1.</_>
        <_>
          36 17 4 2 2.</_></rects>
      <tilted>1</tilted></_>
    <_>
      <rects>
        <_>
          36 19 4 1 -1.</_>
        <_>
          38 19 2 1 2.</_></rects>
      <tilted>0</tilted></_>
    <_>
      <rects>
        <_>
          36 23 7 3 -1.</_>
        <_>
          36 24 7 1 3.</_></rects>
      <tilted>0</tilted></_>
    <_>
      <rects>
        <_>
          36 23 11 3 -1.</_>
        <_>
          36 24 11 1 3.</_></rects>
      <tilted>0</tilted></_>
    <_>
      <rects>
        <_>
          36 24 8 6 -1.</_>
        <_>
          36 27 8 3 2.</_></rects>
      <tilted>0</tilted></_>
    <_>
      <rects>
        <_>
          36 24 10 6 -1.</_>
        <_>
          36 27 10 3 2.</_></rects>
      <tilted>0</tilted></_>
    <_>
      <rects>
        <_>
          37 3 6 6 -1.</_>
        <_>
          37 5 6 2 3.</_></rects>
      <tilted>0</tilted></_>
    <_>
      <rects>
        <_>
          37 11 3 3 -1.</_>
        <_>
          37 12 3 1 3.</_></rects>
      <tilted>0</tilted></_>
    <_>
      <rects>
        <_>
          37 14 6 3 -1.</_>
        <_>
          37 15 6 1 3.</_></rects>
      <tilted>0</tilted></_>
    <_>
      <rects>
        <_>
          37 15 12 2 -1.</_>
        <_>
          37 15 6 1 2.</_>
        <_>
          43 16 6 1 2.</_></rects>
      <tilted>0</tilted></_>
    <_>
      <rects>
        <_>
          37 17 6 6 -1.</_>
        <_>
          39 19 2 2 9.</_></rects>
      <tilted>0</tilted></_>
    <_>
      <rects>
        <_>
          37 20 1 3 -1.</_>
        <_>
          37 21 1 1 3.</_></rects>
      <tilted>0</tilted></_>
    <_>
      <rects>
        <_>
          37 25 9 8 -1.</_>
        <_>
          37 29 9 4 2.</_></rects>
      <tilted>0</tilted></_>
    <_>
      <rects>
        <_>
          38 4 4 9 -1.</_>
        <_>
          39 5 2 9 2.</_></rects>
      <tilted>1</tilted></_>
    <_>
      <rects>
        <_>
          38 4 7 6 -1.</_>
        <_>
          38 6 7 2 3.</_></rects>
      <tilted>0</tilted></_>
    <_>
      <rects>
        <_>
          38 17 4 3 -1.</_>
        <_>
          38 18 4 1 3.</_></rects>
      <tilted>0</tilted></_>
    <_>
      <rects>
        <_>
          38 18 4 4 -1.</_>
        <_>
          38 19 4 2 2.</_></rects>
      <tilted>0</tilted></_>
    <_>
      <rects>
        <_>
          38 19 3 3 -1.</_>
        <_>
          39 20 1 1 9.</_></rects>
      <tilted>0</tilted></_>
    <_>
      <rects>
        <_>
          38 19 2 3 -1.</_>
        <_>
          38 20 2 1 3.</_></rects>
      <tilted>0</tilted></_>
    <_>
      <rects>
        <_>
          38 19 4 3 -1.</_>
        <_>
          38 20 4 1 3.</_></rects>
      <tilted>0</tilted></_>
    <_>
      <rects>
        <_>
          38 19 10 2 -1.</_>
        <_>
          38 19 5 1 2.</_>
        <_>
          43 20 5 1 2.</_></rects>
      <tilted>0</tilted></_>
    <_>
      <rects>
        <_>
          38 20 6 2 -1.</_>
        <_>
          38 20 3 1 2.</_>
        <_>
          41 21 3 1 2.</_></rects>
      <tilted>0</tilted></_>
    <_>
      <rects>
        <_>
          38 20 8 9 -1.</_>
        <_>
          38 23 8 3 3.</_></rects>
      <tilted>0</tilted></_>
    <_>
      <rects>
        <_>
          38 25 5 3 -1.</_>
        <_>
          38 26 5 1 3.</_></rects>
      <tilted>0</tilted></_>
    <_>
      <rects>
        <_>
          38 25 6 6 -1.</_>
        <_>
          38 28 6 3 2.</_></rects>
      <tilted>0</tilted></_>
    <_>
      <rects>
        <_>
          39 7 12 7 -1.</_>
        <_>
          39 7 6 7 2.</_></rects>
      <tilted>1</tilted></_>
    <_>
      <rects>
        <_>
          39 11 6 18 -1.</_>
        <_>
          41 17 2 6 9.</_></rects>
      <tilted>0</tilted></_>
    <_>
      <rects>
        <_>
          39 11 3 3 -1.</_>
        <_>
          39 12 3 1 3.</_></rects>
      <tilted>0</tilted></_>
    <_>
      <rects>
        <_>
          39 12 3 3 -1.</_>
        <_>
          40 13 1 1 9.</_></rects>
      <tilted>0</tilted></_>
    <_>
      <rects>
        <_>
          39 12 8 2 -1.</_>
        <_>
          39 12 4 1 2.</_>
        <_>
          43 13 4 1 2.</_></rects>
      <tilted>0</tilted></_>
    <_>
      <rects>
        <_>
          39 14 8 3 -1.</_>
        <_>
          39 15 8 1 3.</_></rects>
      <tilted>0</tilted></_>
    <_>
      <rects>
        <_>
          39 15 13 3 -1.</_>
        <_>
          39 16 13 1 3.</_></rects>
      <tilted>0</tilted></_>
    <_>
      <rects>
        <_>
          39 23 1 3 -1.</_>
        <_>
          39 24 1 1 3.</_></rects>
      <tilted>0</tilted></_>
    <_>
      <rects>
        <_>
          39 25 4 6 -1.</_>
        <_>
          39 28 4 3 2.</_></rects>
      <tilted>0</tilted></_>
    <_>
      <rects>
        <_>
          40 10 6 4 -1.</_>
        <_>
          40 11 6 2 2.</_></rects>
      <tilted>0</tilted></_>
    <_>
      <rects>
        <_>
          40 15 4 3 -1.</_>
        <_>
          40 16 4 1 3.</_></rects>
      <tilted>0</tilted></_>
    <_>
      <rects>
        <_>
          40 17 2 3 -1.</_>
        <_>
          40 18 2 1 3.</_></rects>
      <tilted>0</tilted></_>
    <_>
      <rects>
        <_>
          40 19 1 3 -1.</_>
        <_>
          40 20 1 1 3.</_></rects>
      <tilted>0</tilted></_>
    <_>
      <rects>
        <_>
          40 19 3 3 -1.</_>
        <_>
          41 20 1 1 9.</_></rects>
      <tilted>0</tilted></_>
    <_>
      <rects>
        <_>
          40 21 1 3 -1.</_>
        <_>
          40 22 1 1 3.</_></rects>
      <tilted>0</tilted></_>
    <_>
      <rects>
        <_>
          41 11 5 3 -1.</_>
        <_>
          41 12 5 1 3.</_></rects>
      <tilted>0</tilted></_>
    <_>
      <rects>
        <_>
          41 15 4 3 -1.</_>
        <_>
          41 16 4 1 3.</_></rects>
      <tilted>0</tilted></_>
    <_>
      <rects>
        <_>
          41 15 5 3 -1.</_>
        <_>
          41 16 5 1 3.</_></rects>
      <tilted>0</tilted></_>
    <_>
      <rects>
        <_>
          41 16 7 3 -1.</_>
        <_>
          41 17 7 1 3.</_></rects>
      <tilted>0</tilted></_>
    <_>
      <rects>
        <_>
          41 17 6 3 -1.</_>
        <_>
          41 18 6 1 3.</_></rects>
      <tilted>0</tilted></_>
    <_>
      <rects>
        <_>
          41 18 6 2 -1.</_>
        <_>
          41 18 3 1 2.</_>
        <_>
          44 19 3 1 2.</_></rects>
      <tilted>0</tilted></_>
    <_>
      <rects>
        <_>
          41 21 3 3 -1.</_>
        <_>
          41 22 3 1 3.</_></rects>
      <tilted>0</tilted></_>
    <_>
      <rects>
        <_>
          42 15 3 3 -1.</_>
        <_>
          42 16 3 1 3.</_></rects>
      <tilted>0</tilted></_>
    <_>
      <rects>
        <_>
          42 15 6 4 -1.</_>
        <_>
          42 16 6 2 2.</_></rects>
      <tilted>0</tilted></_>
    <_>
      <rects>
        <_>
          42 16 6 3 -1.</_>
        <_>
          42 17 6 1 3.</_></rects>
      <tilted>0</tilted></_>
    <_>
      <rects>
        <_>
          42 17 4 2 -1.</_>
        <_>
          42 17 2 1 2.</_>
        <_>
          44 18 2 1 2.</_></rects>
      <tilted>0</tilted></_>
    <_>
      <rects>
        <_>
          42 17 6 4 -1.</_>
        <_>
          42 17 3 4 2.</_></rects>
      <tilted>1</tilted></_>
    <_>
      <rects>
        <_>
          42 18 2 3 -1.</_>
        <_>
          42 19 2 1 3.</_></rects>
      <tilted>0</tilted></_>
    <_>
      <rects>
        <_>
          42 21 3 1 -1.</_>
        <_>
          43 21 1 1 3.</_></rects>
      <tilted>0</tilted></_>
    <_>
      <rects>
        <_>
          42 21 2 2 -1.</_>
        <_>
          42 21 1 1 2.</_>
        <_>
          43 22 1 1 2.</_></rects>
      <tilted>0</tilted></_>
    <_>
      <rects>
        <_>
          42 22 3 3 -1.</_>
        <_>
          43 23 1 1 9.</_></rects>
      <tilted>0</tilted></_>
    <_>
      <rects>
        <_>
          43 15 4 3 -1.</_>
        <_>
          44 16 2 3 2.</_></rects>
      <tilted>1</tilted></_>
    <_>
      <rects>
        <_>
          43 15 6 4 -1.</_>
        <_>
          43 16 6 2 2.</_></rects>
      <tilted>0</tilted></_>
    <_>
      <rects>
        <_>
          44 1 13 6 -1.</_>
        <_>
          44 1 13 3 2.</_></rects>
      <tilted>1</tilted></_>
    <_>
      <rects>
        <_>
          44 14 5 3 -1.</_>
        <_>
          44 15 5 1 3.</_></rects>
      <tilted>0</tilted></_>
    <_>
      <rects>
        <_>
          44 24 1 3 -1.</_>
        <_>
          44 25 1 1 3.</_></rects>
      <tilted>0</tilted></_>
    <_>
      <rects>
        <_>
          45 14 18 7 -1.</_>
        <_>
          54 14 9 7 2.</_></rects>
      <tilted>0</tilted></_>
    <_>
      <rects>
        <_>
          45 20 1 3 -1.</_>
        <_>
          45 21 1 1 3.</_></rects>
      <tilted>0</tilted></_>
    <_>
      <rects>
        <_>
          45 21 1 2 -1.</_>
        <_>
          45 22 1 1 2.</_></rects>
      <tilted>0</tilted></_>
    <_>
      <rects>
        <_>
          45 21 3 3 -1.</_>
        <_>
          46 22 1 1 9.</_></rects>
      <tilted>0</tilted></_>
    <_>
      <rects>
        <_>
          46 0 13 8 -1.</_>
        <_>
          46 0 13 4 2.</_></rects>
      <tilted>1</tilted></_>
    <_>
      <rects>
        <_>
          46 2 12 12 -1.</_>
        <_>
          42 6 12 4 3.</_></rects>
      <tilted>1</tilted></_>
    <_>
      <rects>
        <_>
          46 5 10 9 -1.</_>
        <_>
          43 8 10 3 3.</_></rects>
      <tilted>1</tilted></_>
    <_>
      <rects>
        <_>
          46 9 3 10 -1.</_>
        <_>
          47 10 1 10 3.</_></rects>
      <tilted>1</tilted></_>
    <_>
      <rects>
        <_>
          46 13 3 3 -1.</_>
        <_>
          46 14 3 1 3.</_></rects>
      <tilted>0</tilted></_>
    <_>
      <rects>
        <_>
          47 8 7 18 -1.</_>
        <_>
          47 8 7 9 2.</_></rects>
      <tilted>1</tilted></_>
    <_>
      <rects>
        <_>
          47 12 3 8 -1.</_>
        <_>
          48 13 1 8 3.</_></rects>
      <tilted>1</tilted></_>
    <_>
      <rects>
        <_>
          47 12 8 19 -1.</_>
        <_>
          51 12 4 19 2.</_></rects>
      <tilted>0</tilted></_>
    <_>
      <rects>
        <_>
          48 12 3 11 -1.</_>
        <_>
          49 13 1 11 3.</_></rects>
      <tilted>1</tilted></_>
    <_>
      <rects>
        <_>
          48 14 8 11 -1.</_>
        <_>
          52 14 4 11 2.</_></rects>
      <tilted>0</tilted></_>
    <_>
      <rects>
        <_>
          48 14 12 11 -1.</_>
        <_>
          54 14 6 11 2.</_></rects>
      <tilted>0</tilted></_>
    <_>
      <rects>
        <_>
          48 17 12 11 -1.</_>
        <_>
          48 17 6 11 2.</_></rects>
      <tilted>1</tilted></_>
    <_>
      <rects>
        <_>
          48 21 2 2 -1.</_>
        <_>
          48 21 1 1 2.</_>
        <_>
          49 22 1 1 2.</_></rects>
      <tilted>0</tilted></_>
    <_>
      <rects>
        <_>
          50 11 8 11 -1.</_>
        <_>
          52 13 4 11 2.</_></rects>
      <tilted>1</tilted></_>
    <_>
      <rects>
        <_>
          50 16 14 10 -1.</_>
        <_>
          50 16 7 10 2.</_></rects>
      <tilted>1</tilted></_>
    <_>
      <rects>
        <_>
          50 17 12 7 -1.</_>
        <_>
          50 17 6 7 2.</_></rects>
      <tilted>1</tilted></_>
    <_>
      <rects>
        <_>
          51 35 16 2 -1.</_>
        <_>
          51 36 16 1 2.</_></rects>
      <tilted>0</tilted></_>
    <_>
      <rects>
        <_>
          52 7 3 12 -1.</_>
        <_>
          53 8 1 12 3.</_></rects>
      <tilted>1</tilted></_>
    <_>
      <rects>
        <_>
          52 17 6 6 -1.</_>
        <_>
          54 19 2 6 3.</_></rects>
      <tilted>1</tilted></_>
    <_>
      <rects>
        <_>
          53 18 8 14 -1.</_>
        <_>
          53 18 4 14 2.</_></rects>
      <tilted>1</tilted></_>
    <_>
      <rects>
        <_>
          54 3 4 2 -1.</_>
        <_>
          54 3 2 1 2.</_>
        <_>
          56 4 2 1 2.</_></rects>
      <tilted>0</tilted></_>
    <_>
      <rects>
        <_>
          54 35 1 3 -1.</_>
        <_>
          53 36 1 1 3.</_></rects>
      <tilted>1</tilted></_>
    <_>
      <rects>
        <_>
          55 4 3 16 -1.</_>
        <_>
          56 5 1 16 3.</_></rects>
      <tilted>1</tilted></_>
    <_>
      <rects>
        <_>
          57 0 2 3 -1.</_>
        <_>
          57 1 2 1 3.</_></rects>
      <tilted>0</tilted></_>
    <_>
      <rects>
        <_>
          57 3 3 3 -1.</_>
        <_>
          57 4 3 1 3.</_></rects>
      <tilted>0</tilted></_>
    <_>
      <rects>
        <_>
          58 1 4 3 -1.</_>
        <_>
          58 2 4 1 3.</_></rects>
      <tilted>0</tilted></_>
    <_>
      <rects>
        <_>
          58 25 6 2 -1.</_>
        <_>
          58 26 6 1 2.</_></rects>
      <tilted>0</tilted></_>
    <_>
      <rects>
        <_>
          58 25 13 3 -1.</_>
        <_>
          58 26 13 1 3.</_></rects>
      <tilted>0</tilted></_>
    <_>
      <rects>
        <_>
          58 30 16 3 -1.</_>
        <_>
          58 31 16 1 3.</_></rects>
      <tilted>0</tilted></_>
    <_>
      <rects>
        <_>
          60 0 14 3 -1.</_>
        <_>
          60 1 14 1 3.</_></rects>
      <tilted>0</tilted></_>
    <_>
      <rects>
        <_>
          60 3 8 4 -1.</_>
        <_>
          60 4 8 2 2.</_></rects>
      <tilted>0</tilted></_>
    <_>
      <rects>
        <_>
          60 8 2 3 -1.</_>
        <_>
          60 9 2 1 3.</_></rects>
      <tilted>0</tilted></_>
    <_>
      <rects>
        <_>
          61 0 12 3 -1.</_>
        <_>
          61 1 12 1 3.</_></rects>
      <tilted>0</tilted></_>
    <_>
      <rects>
        <_>
          61 6 8 3 -1.</_>
        <_>
          61 7 8 1 3.</_></rects>
      <tilted>0</tilted></_>
    <_>
      <rects>
        <_>
          61 8 7 3 -1.</_>
        <_>
          61 9 7 1 3.</_></rects>
      <tilted>0</tilted></_>
    <_>
      <rects>
        <_>
          62 7 11 3 -1.</_>
        <_>
          62 8 11 1 3.</_></rects>
      <tilted>0</tilted></_>
    <_>
      <rects>
        <_>
          62 28 8 2 -1.</_>
        <_>
          62 28 4 1 2.</_>
        <_>
          66 29 4 1 2.</_></rects>
      <tilted>0</tilted></_>
    <_>
      <rects>
        <_>
          62 30 18 3 -1.</_>
        <_>
          62 31 18 1 3.</_></rects>
      <tilted>0</tilted></_>
    <_>
      <rects>
        <_>
          62 36 2 4 -1.</_>
        <_>
          62 36 1 2 2.</_>
        <_>
          63 38 1 2 2.</_></rects>
      <tilted>0</tilted></_>
    <_>
      <rects>
        <_>
          64 5 4 3 -1.</_>
        <_>
          64 6 4 1 3.</_></rects>
      <tilted>0</tilted></_>
    <_>
      <rects>
        <_>
          64 8 2 3 -1.</_>
        <_>
          64 9 2 1 3.</_></rects>
      <tilted>0</tilted></_>
    <_>
      <rects>
        <_>
          65 6 4 20 -1.</_>
        <_>
          66 7 2 20 2.</_></rects>
      <tilted>1</tilted></_>
    <_>
      <rects>
        <_>
          65 18 6 3 -1.</_>
        <_>
          65 19 6 1 3.</_></rects>
      <tilted>0</tilted></_>
    <_>
      <rects>
        <_>
          66 10 4 3 -1.</_>
        <_>
          66 11 4 1 3.</_></rects>
      <tilted>0</tilted></_>
    <_>
      <rects>
        <_>
          66 17 9 3 -1.</_>
        <_>
          66 18 9 1 3.</_></rects>
      <tilted>0</tilted></_>
    <_>
      <rects>
        <_>
          67 4 13 3 -1.</_>
        <_>
          67 5 13 1 3.</_></rects>
      <tilted>0</tilted></_>
    <_>
      <rects>
        <_>
          67 10 6 3 -1.</_>
        <_>
          67 11 6 1 3.</_></rects>
      <tilted>0</tilted></_>
    <_>
      <rects>
        <_>
          67 17 12 3 -1.</_>
        <_>
          67 18 12 1 3.</_></rects>
      <tilted>0</tilted></_>
    <_>
      <rects>
        <_>
          68 8 12 4 -1.</_>
        <_>
          68 8 12 2 2.</_></rects>
      <tilted>1</tilted></_>
    <_>
      <rects>
        <_>
          68 17 8 3 -1.</_>
        <_>
          68 18 8 1 3.</_></rects>
      <tilted>0</tilted></_>
    <_>
      <rects>
        <_>
          69 8 11 3 -1.</_>
        <_>
          69 9 11 1 3.</_></rects>
      <tilted>0</tilted></_>
    <_>
      <rects>
        <_>
          71 8 5 3 -1.</_>
        <_>
          71 9 5 1 3.</_></rects>
      <tilted>0</tilted></_>
    <_>
      <rects>
        <_>
          71 20 8 3 -1.</_>
        <_>
          71 21 8 1 3.</_></rects>
      <tilted>0</tilted></_>
    <_>
      <rects>
        <_>
          71 26 5 3 -1.</_>
        <_>
          71 27 5 1 3.</_></rects>
      <tilted>0</tilted></_>
    <_>
      <rects>
        <_>
          72 0 2 3 -1.</_>
        <_>
          72 1 2 1 3.</_></rects>
      <tilted>0</tilted></_>
    <_>
      <rects>
        <_>
          73 7 3 3 -1.</_>
        <_>
          74 8 1 1 9.</_></rects>
      <tilted>0</tilted></_>
    <_>
      <rects>
        <_>
          73 25 7 3 -1.</_>
        <_>
          72 26 7 1 3.</_></rects>
      <tilted>1</tilted></_>
    <_>
      <rects>
        <_>
          74 3 2 3 -1.</_>
        <_>
          74 4 2 1 3.</_></rects>
      <tilted>0</tilted></_>
    <_>
      <rects>
        <_>
          74 26 2 3 -1.</_>
        <_>
          74 27 2 1 3.</_></rects>
      <tilted>0</tilted></_>
    <_>
      <rects>
        <_>
          75 4 3 3 -1.</_>
        <_>
          75 5 3 1 3.</_></rects>
      <tilted>0</tilted></_>
    <_>
      <rects>
        <_>
          75 20 3 3 -1.</_>
        <_>
          75 21 3 1 3.</_></rects>
      <tilted>0</tilted></_>
    <_>
      <rects>
        <_>
          75 30 4 3 -1.</_>
        <_>
          75 31 4 1 3.</_></rects>
      <tilted>0</tilted></_>
    <_>
      <rects>
        <_>
          76 8 2 3 -1.</_>
        <_>
          76 9 2 1 3.</_></rects>
      <tilted>0</tilted></_>
    <_>
      <rects>
        <_>
          76 8 4 3 -1.</_>
        <_>
          76 9 4 1 3.</_></rects>
      <tilted>0</tilted></_>
    <_>
      <rects>
        <_>
          77 19 2 3 -1.</_>
        <_>
          77 20 2 1 3.</_></rects>
      <tilted>0</tilted></_></features></cascade>
</opencv_storage>
