<?xml version="1.0"?>
<opencv_storage>
<cascade>
  <stageType>BOOST</stageType>
  <featureType>LBP</featureType>
  <height>90</height>
  <width>40</width>
  <stageParams>
    <boostType>GAB</boostType>
    <minHitRate>9.9900001287460327e-01</minHitRate>
    <maxFalseAlarm>5.0000000000000000e-01</maxFalseAlarm>
    <weightTrimRate>9.4999999999999996e-01</weightTrimRate>
    <maxDepth>1</maxDepth>
    <maxWeakCount>100</maxWeakCount></stageParams>
  <featureParams>
    <maxCatCount>256</maxCatCount>
    <featSize>1</featSize></featureParams>
  <stageNum>20</stageNum>
  <stages>
    <!-- stage 0 -->
    <_>
      <maxWeakCount>3</maxWeakCount>
      <stageThreshold>-8.6954301595687866e-01</stageThreshold>
      <weakClassifiers>
        <_>
          <internalNodes>
            0 -1 6 -1326454 -981735934 1337174026 36110339 -2013248511
            124716887 257377543 1096222023</internalNodes>
          <leafValues>
            -7.7924215793609619e-01 8.7915408611297607e-01</leafValues></_>
        <_>
          <internalNodes>
            0 -1 51 -801062912 -1056947968 1073741824 -1073512448 770048
            65536 -2147303424 1361563659</internalNodes>
          <leafValues>
            -9.1085654497146606e-01 7.6969361305236816e-01</leafValues></_>
        <_>
          <internalNodes>
            0 -1 3 -687486838 -1056849920 0 1157709824 1073741834 0
            -2147475454 1124155401</internalNodes>
          <leafValues>
            -8.0051314830780029e-01 8.2055568695068359e-01</leafValues></_></weakClassifiers></_>
    <!-- stage 1 -->
    <_>
      <maxWeakCount>5</maxWeakCount>
      <stageThreshold>-8.7341606616973877e-01</stageThreshold>
      <weakClassifiers>
        <_>
          <internalNodes>
            0 -1 44 -566177792 1073750016 268468228 1090732049
            -938967020 1073807376 1342226497 -721169461</internalNodes>
          <leafValues>
            -8.5140562057495117e-01 7.4773138761520386e-01</leafValues></_>
        <_>
          <internalNodes>
            0 -1 13 2138034875 872873984 402653185 318967809 1073741834
            262272 10 923738171</internalNodes>
          <leafValues>
            -7.3623257875442505e-01 7.4498325586318970e-01</leafValues></_>
        <_>
          <internalNodes>
            0 -1 28 -112470019 -63012086 -636779189 -830973873
            -1802695677 -2117934589 -123059872 -321636508</internalNodes>
          <leafValues>
            -8.0050063133239746e-01 7.0256435871124268e-01</leafValues></_>
        <_>
          <internalNodes>
            0 -1 4 -350490485 17448960 -2013200384 -920944639 1073790985
            0 -2147450869 1460093259</internalNodes>
          <leafValues>
            -6.7950373888015747e-01 7.4549347162246704e-01</leafValues></_>
        <_>
          <internalNodes>
            0 -1 74 -208537293 -297446141 -780103264 -434863861
            -1597470579 -1501413244 -2096524780 -51868272</internalNodes>
          <leafValues>
            -7.7021354436874390e-01 7.1301066875457764e-01</leafValues></_></weakClassifiers></_>
    <!-- stage 2 -->
    <_>
      <maxWeakCount>5</maxWeakCount>
      <stageThreshold>-9.2130386829376221e-01</stageThreshold>
      <weakClassifiers>
        <_>
          <internalNodes>
            0 -1 88 -1025 -285278209 -32770 -419496195 -139 -268435526
            -8552588 -520819232</internalNodes>
          <leafValues>
            -7.0110702514648438e-01 7.3724007606506348e-01</leafValues></_>
        <_>
          <internalNodes>
            0 -1 79 -1422203413 131217 512 -2147336187 16974025 196609
            4456581 197855755</internalNodes>
          <leafValues>
            -7.8130561113357544e-01 6.2612599134445190e-01</leafValues></_>
        <_>
          <internalNodes>
            0 -1 36 -107088417 -359617369 1419485222 -420064502
            -1618810252 1921216867 -1153916144 -18555168</internalNodes>
          <leafValues>
            -7.9060739278793335e-01 6.4489459991455078e-01</leafValues></_>
        <_>
          <internalNodes>
            0 -1 54 -458131973 -1035696827 -780054261 -523612014
            -475942794 -970309316 -341800908 -425430032</internalNodes>
          <leafValues>
            -6.9331306219100952e-01 7.6013350486755371e-01</leafValues></_>
        <_>
          <internalNodes>
            0 -1 10 -70530112 -1027473335 231424 -234749951 -1056923648
            1610842691 -1073657461 -150740757</internalNodes>
          <leafValues>
            -7.7287864685058594e-01 6.3759756088256836e-01</leafValues></_></weakClassifiers></_>
    <!-- stage 3 -->
    <_>
      <maxWeakCount>5</maxWeakCount>
      <stageThreshold>-1.0193343162536621e+00</stageThreshold>
      <weakClassifiers>
        <_>
          <internalNodes>
            0 -1 19 -671748225 -355088373 -1515196162 -285953625
            -1590829481 -116383528 -2049857008 -860836284</internalNodes>
          <leafValues>
            -7.7690804004669189e-01 7.3186409473419189e-01</leafValues></_>
        <_>
          <internalNodes>
            0 -1 91 -10487841 -887110715 -803104451 -291325644
            -1072877003 -1403135375 -884819200 -320062924</internalNodes>
          <leafValues>
            -7.4147760868072510e-01 6.3273221254348755e-01</leafValues></_>
        <_>
          <internalNodes>
            0 -1 40 -167118422 -1071427455 1078233091 1359200291
            -528379885 539688963 16850951 50565755</internalNodes>
          <leafValues>
            -7.5403791666030884e-01 6.0116106271743774e-01</leafValues></_>
        <_>
          <internalNodes>
            0 -1 75 -1653484041 -1374804127 -784248396 -359524200
            -2147384521 -1383036376 -2112912891 -252916640</internalNodes>
          <leafValues>
            -8.0336529016494751e-01 5.7863897085189819e-01</leafValues></_>
        <_>
          <internalNodes>
            0 -1 57 -5244673 -1644223268 670806782 1090458683 -17347330
            -1124127361 368910394 70979759</internalNodes>
          <leafValues>
            -6.5549588203430176e-01 7.0125555992126465e-01</leafValues></_></weakClassifiers></_>
    <!-- stage 4 -->
    <_>
      <maxWeakCount>3</maxWeakCount>
      <stageThreshold>-7.6834625005722046e-01</stageThreshold>
      <weakClassifiers>
        <_>
          <internalNodes>
            0 -1 89 -4194369 -285278209 -16777218 -318963722 -164491
            -590858 -8587403 -288292880</internalNodes>
          <leafValues>
            -6.8347823619842529e-01 7.7365851402282715e-01</leafValues></_>
        <_>
          <internalNodes>
            0 -1 29 -170524673 -1063860813 -1056853541 -387005170
            -234143435 -356285570 -1632110316 -320070124</internalNodes>
          <leafValues>
            -7.6939725875854492e-01 6.9992071390151978e-01</leafValues></_>
        <_>
          <internalNodes>
            0 -1 46 -606143489 -1035275406 -652636829 -1471496310
            1811446643 -444335902 -287663823 -1158109068</internalNodes>
          <leafValues>
            -7.4102205038070679e-01 6.8452924489974976e-01</leafValues></_></weakClassifiers></_>
    <!-- stage 5 -->
    <_>
      <maxWeakCount>2</maxWeakCount>
      <stageThreshold>-2.3173052817583084e-02</stageThreshold>
      <weakClassifiers>
        <_>
          <internalNodes>
            0 -1 67 -1073791137 -285278209 -67108865 -289488897 -32907
            -134217729 -34078860 -131027212</internalNodes>
          <leafValues>
            -7.0420169830322266e-01 8.1492537260055542e-01</leafValues></_>
        <_>
          <internalNodes>
            0 -1 26 35536903 859021587 51577089 587792659 554310499
            38998279 143534371 939466523</internalNodes>
          <leafValues>
            -8.3380275964736938e-01 6.8102860450744629e-01</leafValues></_></weakClassifiers></_>
    <!-- stage 6 -->
    <_>
      <maxWeakCount>5</maxWeakCount>
      <stageThreshold>-9.1770738363265991e-01</stageThreshold>
      <weakClassifiers>
        <_>
          <internalNodes>
            0 -1 81 -1813143241 -929313186 1494993178 1753125260
            -659318764 -108277629 1260049008 -55530960</internalNodes>
          <leafValues>
            -7.2972971200942993e-01 6.7113494873046875e-01</leafValues></_>
        <_>
          <internalNodes>
            0 -1 37 -12528736 -998240692 -2075967403 -229373165
            -939489008 50463232 -2147450793 -752094293</internalNodes>
          <leafValues>
            -8.0077505111694336e-01 5.1820963621139526e-01</leafValues></_>
        <_>
          <internalNodes>
            0 -1 2 -383856785 -23555558 1372651967 -824796713 -383942297
            -260014015 -831654284 -1125103376</internalNodes>
          <leafValues>
            -7.5323319435119629e-01 5.8530938625335693e-01</leafValues></_>
        <_>
          <internalNodes>
            0 -1 16 -399675392 -291024914 1977628929 -520507675
            -432635904 1081506687 -808143821 -136346535</internalNodes>
          <leafValues>
            -6.0913139581680298e-01 6.9825828075408936e-01</leafValues></_>
        <_>
          <internalNodes>
            0 -1 70 -2144804256 1283915840 1073938690 -743226880
            -2144300670 1644183680 -1601535485 -2084894503</internalNodes>
          <leafValues>
            -6.5121352672576904e-01 6.5617728233337402e-01</leafValues></_></weakClassifiers></_>
    <!-- stage 7 -->
    <_>
      <maxWeakCount>5</maxWeakCount>
      <stageThreshold>-3.7871265411376953e-01</stageThreshold>
      <weakClassifiers>
        <_>
          <internalNodes>
            0 -1 21 -268447861 -1071460566 -1911641600 1141367311
            2008009993 151113226 1333239553 1090770439</internalNodes>
          <leafValues>
            -6.5896981954574585e-01 7.4349081516265869e-01</leafValues></_>
        <_>
          <internalNodes>
            0 -1 7 -822098226 1074463242 18972672 217475 147464
            1073807362 164133 1111478615</internalNodes>
          <leafValues>
            -6.1781191825866699e-01 6.5615475177764893e-01</leafValues></_>
        <_>
          <internalNodes>
            0 -1 87 -335544833 -319029569 -301994502 -285249555 -3055
            -855638025 -680112127 1421860343</internalNodes>
          <leafValues>
            -5.6243306398391724e-01 7.2894519567489624e-01</leafValues></_>
        <_>
          <internalNodes>
            0 -1 34 -54789349 -905711954 1192104448 1158901641
            1400357915 388145034 1837057811 -687091949</internalNodes>
          <leafValues>
            -5.1452791690826416e-01 8.1238001585006714e-01</leafValues></_>
        <_>
          <internalNodes>
            0 -1 83 -51133171 70696979 -989834724 -1067954172
            -1039613950 537020690 -293152759 -1573146209</internalNodes>
          <leafValues>
            -5.9031486511230469e-01 7.4336558580398560e-01</leafValues></_></weakClassifiers></_>
    <!-- stage 8 -->
    <_>
      <maxWeakCount>5</maxWeakCount>
      <stageThreshold>-4.7358906269073486e-01</stageThreshold>
      <weakClassifiers>
        <_>
          <internalNodes>
            0 -1 14 -50897353 -1436385417 -151879821 36863858 -159680715
            376946559 -1221069565 645133683</internalNodes>
          <leafValues>
            -5.1663750410079956e-01 6.7541301250457764e-01</leafValues></_>
        <_>
          <internalNodes>
            0 -1 62 -1996716928 -525189384 237939936 -793035011
            -1214790286 -1999343108 -1869879833 -89422612</internalNodes>
          <leafValues>
            -5.1155805587768555e-01 7.3673427104949951e-01</leafValues></_>
        <_>
          <internalNodes>
            0 -1 24 -589107480 -487690578 -293667098 -492294486
            -201919680 87490383 -1968244800 -87370242</internalNodes>
          <leafValues>
            -5.2305114269256592e-01 6.9215679168701172e-01</leafValues></_>
        <_>
          <internalNodes>
            0 -1 61 -75761801 -1052579274 -1039150770 -1462474368
            -1970804447 -146226921 -498152448 -1912334224</internalNodes>
          <leafValues>
            -7.3783302307128906e-01 5.3164637088775635e-01</leafValues></_>
        <_>
          <internalNodes>
            0 -1 53 -1081519936 -420542968 520027408 -548432779
            -1719730512 -1052901892 -1268197479 -1409645142</internalNodes>
          <leafValues>
            -5.9176778793334961e-01 7.0888710021972656e-01</leafValues></_></weakClassifiers></_>
    <!-- stage 9 -->
    <_>
      <maxWeakCount>5</maxWeakCount>
      <stageThreshold>-6.3470661640167236e-01</stageThreshold>
      <weakClassifiers>
        <_>
          <internalNodes>
            0 -1 80 -1360269393 -1912864769 -286261334 -285217539
            2012577380 100528127 1970738212 1157101055</internalNodes>
          <leafValues>
            -5.4814815521240234e-01 6.5660375356674194e-01</leafValues></_>
        <_>
          <internalNodes>
            0 -1 64 -212864510 1090562560 1518387712 1403070536
            -524206047 -805208064 1208729633 -681851121</internalNodes>
          <leafValues>
            -5.7673364877700806e-01 6.4726215600967407e-01</leafValues></_>
        <_>
          <internalNodes>
            0 -1 17 -76284645 215533649 1367523456 -1609907680
            -1056947945 2805795 -1403793407 2003303779</internalNodes>
          <leafValues>
            -6.7191904783248901e-01 5.8300805091857910e-01</leafValues></_>
        <_>
          <internalNodes>
            0 -1 22 -79174966 -519968761 1228947458 -1878867902
            159474177 -2130477040 1087897664 -1025779885</internalNodes>
          <leafValues>
            -5.9731292724609375e-01 6.4768069982528687e-01</leafValues></_>
        <_>
          <internalNodes>
            0 -1 5 -79174845 -1073495664 -1065151422 -502464511
            -1061043200 33554579 302923779 1397445971</internalNodes>
          <leafValues>
            -6.6834896802902222e-01 5.5465525388717651e-01</leafValues></_></weakClassifiers></_>
    <!-- stage 10 -->
    <_>
      <maxWeakCount>7</maxWeakCount>
      <stageThreshold>-5.1985412836074829e-01</stageThreshold>
      <weakClassifiers>
        <_>
          <internalNodes>
            0 -1 82 -1073741825 -385974276 -2 -331448578 -1073742219
            -134217736 -2632332 -65471472</internalNodes>
          <leafValues>
            -5.1785713434219360e-01 6.6346156597137451e-01</leafValues></_>
        <_>
          <internalNodes>
            0 -1 84 -285214749 -1358991373 -50397706 -1358991873
            -956336576 1081999223 1426047092 -989862411</internalNodes>
          <leafValues>
            -5.4355585575103760e-01 6.9122910499572754e-01</leafValues></_>
        <_>
          <internalNodes>
            0 -1 15 -70315361 -366260238 876593023 -2040010765
            -1149356282 87261054 -1207959786 -414208169</internalNodes>
          <leafValues>
            -4.9798083305358887e-01 7.7871555089950562e-01</leafValues></_>
        <_>
          <internalNodes>
            0 -1 9 -470290910 -1055005566 33669640 -1065101311
            1107345426 1262081 1342193728 1359210327</internalNodes>
          <leafValues>
            -6.5892565250396729e-01 6.1429488658905029e-01</leafValues></_>
        <_>
          <internalNodes>
            0 -1 50 -208936914 -511672256 24576 -2127445568 -527711423
            1350664704 1610752132 -446179973</internalNodes>
          <leafValues>
            -6.0566335916519165e-01 6.2986510992050171e-01</leafValues></_>
        <_>
          <internalNodes>
            0 -1 69 -848576376 -855471422 323063562 1242423320
            1074106368 -191887344 278651217 1434143187</internalNodes>
          <leafValues>
            -7.5398582220077515e-01 5.5141252279281616e-01</leafValues></_>
        <_>
          <internalNodes>
            0 -1 96 -484720608 -514817408 -800472508 -766607296
            -2061205376 -2013265920 -1870479328 -1185969854</internalNodes>
          <leafValues>
            -6.3468551635742188e-01 6.5516400337219238e-01</leafValues></_></weakClassifiers></_>
    <!-- stage 11 -->
    <_>
      <maxWeakCount>6</maxWeakCount>
      <stageThreshold>-1.2606834173202515e+00</stageThreshold>
      <weakClassifiers>
        <_>
          <internalNodes>
            0 -1 78 -68159041 -58472333 185176456 -938679286 -74926795
            -1442799454 -1466254588 -264180464</internalNodes>
          <leafValues>
            -7.3267328739166260e-01 5.8193981647491455e-01</leafValues></_>
        <_>
          <internalNodes>
            0 -1 18 -821695249 1246187983 -984596314 -492674934
            -56448925 269715739 -1136142158 -202920045</internalNodes>
          <leafValues>
            -5.5096280574798584e-01 6.1402612924575806e-01</leafValues></_>
        <_>
          <internalNodes>
            0 -1 86 -142874633 -1543138341 21075212 -358170285
            -945829577 120816459 1074201936 1173353271</internalNodes>
          <leafValues>
            -6.1013621091842651e-01 6.0800439119338989e-01</leafValues></_>
        <_>
          <internalNodes>
            0 -1 23 38785746 -1023176304 16793605 51494913 -1677473599
            -2147483648 268509329 1346834658</internalNodes>
          <leafValues>
            -6.7966306209564209e-01 5.6920653581619263e-01</leafValues></_>
        <_>
          <internalNodes>
            0 -1 20 -299630613 -1571630970 411353159 -494378846
            -1702117180 -1834844158 -500970704 -185301104</internalNodes>
          <leafValues>
            -6.8902534246444702e-01 5.7318454980850220e-01</leafValues></_>
        <_>
          <internalNodes>
            0 -1 8 -30151837 2004876955 -263174 1802600446 1043707255
            884061048 -1917733020 1395115631</internalNodes>
          <leafValues>
            -5.7504564523696899e-01 7.1871662139892578e-01</leafValues></_></weakClassifiers></_>
    <!-- stage 12 -->
    <_>
      <maxWeakCount>5</maxWeakCount>
      <stageThreshold>-4.8470598459243774e-01</stageThreshold>
      <weakClassifiers>
        <_>
          <internalNodes>
            0 -1 1 -366965208 -428282178 -134234305 1744682985
            -796269889 1044232 -148503 1095091456</internalNodes>
          <leafValues>
            -5.6952381134033203e-01 6.5023255348205566e-01</leafValues></_>
        <_>
          <internalNodes>
            0 -1 31 1484904447 -335036253 -875440882 -389150650
            -1416976315 -259915751 -622054656 -291723040</internalNodes>
          <leafValues>
            -7.0270758867263794e-01 5.0345313549041748e-01</leafValues></_>
        <_>
          <internalNodes>
            0 -1 55 -2136980928 -456933248 -1002401760 -503199727
            -1576865663 1115717632 -1191182304 -1545893184</internalNodes>
          <leafValues>
            -5.9168684482574463e-01 5.9129804372787476e-01</leafValues></_>
        <_>
          <internalNodes>
            0 -1 12 -1628559744 -286443671 -16794444 -387240457
            2146907904 -990003374 -1751648448 -20786424</internalNodes>
          <leafValues>
            -5.5035221576690674e-01 6.5807366371154785e-01</leafValues></_>
        <_>
          <internalNodes>
            0 -1 94 -1346376769 -1527792195 -54612307 -469917699
            -1342448301 100638719 -537045756 -142606649</internalNodes>
          <leafValues>
            -4.5958113670349121e-01 7.7733296155929565e-01</leafValues></_></weakClassifiers></_>
    <!-- stage 13 -->
    <_>
      <maxWeakCount>7</maxWeakCount>
      <stageThreshold>-6.6258782148361206e-01</stageThreshold>
      <weakClassifiers>
        <_>
          <internalNodes>
            0 -1 42 744222327 469743615 -1140872450 167740671 1073690367
            1073741823 1073676795 869219839</internalNodes>
          <leafValues>
            -5.4779410362243652e-01 6.6098487377166748e-01</leafValues></_>
        <_>
          <internalNodes>
            0 -1 48 -183045121 -899942158 -754868922 -359874112
            -133906540 -763363248 -1509386236 -293568444</internalNodes>
          <leafValues>
            -7.2797977924346924e-01 4.9572446942329407e-01</leafValues></_>
        <_>
          <internalNodes>
            0 -1 0 -869538817 -2113887998 -2147123192 -1064843186
            1376559105 864714754 -917528316 -733705628</internalNodes>
          <leafValues>
            -8.2090282440185547e-01 4.1468521952629089e-01</leafValues></_>
        <_>
          <internalNodes>
            0 -1 93 -1346371585 -1376866308 -16466 -1100260746
            -1367867641 -1879085193 636818772 1191181623</internalNodes>
          <leafValues>
            -5.8582079410552979e-01 6.3068544864654541e-01</leafValues></_>
        <_>
          <internalNodes>
            0 -1 68 -817044822 1077946883 -2143191029 1916043781
            -1341541821 -2145288186 51372039 -747120573</internalNodes>
          <leafValues>
            -6.2411624193191528e-01 6.0420072078704834e-01</leafValues></_>
        <_>
          <internalNodes>
            0 -1 66 -1414652736 1713659196 936967186 -1644167811
            -1073809411 -166019 -2064324656 -73716515</internalNodes>
          <leafValues>
            -5.7545763254165649e-01 6.9241154193878174e-01</leafValues></_>
        <_>
          <internalNodes>
            0 -1 11 -80223357 -495194197 -352649555 -231518737
            1081140803 83322431 -2124970939 -1040721947</internalNodes>
          <leafValues>
            -4.4131669402122498e-01 7.9617357254028320e-01</leafValues></_></weakClassifiers></_>
    <!-- stage 14 -->
    <_>
      <maxWeakCount>5</maxWeakCount>
      <stageThreshold>-7.2567707300186157e-01</stageThreshold>
      <weakClassifiers>
        <_>
          <internalNodes>
            0 -1 35 33561393 839484304 388038989 165486721 105722811
            432309498 32179416 300875947</internalNodes>
          <leafValues>
            -8.1499999761581421e-01 6.0500001907348633e-01</leafValues></_>
        <_>
          <internalNodes>
            0 -1 85 -1346912261 -1531969547 -32773 -268468227 1073741431
            83754327 75040288 1098906805</internalNodes>
          <leafValues>
            -6.1684131622314453e-01 6.4331048727035522e-01</leafValues></_>
        <_>
          <internalNodes>
            0 -1 32 -1146472523 -269553921 -1 -1169746 2147483645
            -134742043 95934453 -1514928956</internalNodes>
          <leafValues>
            -4.9991157650947571e-01 7.1299606561660767e-01</leafValues></_>
        <_>
          <internalNodes>
            0 -1 72 343960371 201512081 18907331 -946912991 -1484735499
            -1968658270 96526735 -1914830684</internalNodes>
          <leafValues>
            -5.3207319974899292e-01 6.5592139959335327e-01</leafValues></_>
        <_>
          <internalNodes>
            0 -1 65 -1271533148 1090561568 -2055108344 -208678427
            -1845383231 50364457 -1819835999 -705713971</internalNodes>
          <leafValues>
            -6.6275322437286377e-01 5.8394253253936768e-01</leafValues></_></weakClassifiers></_>
    <!-- stage 15 -->
    <_>
      <maxWeakCount>5</maxWeakCount>
      <stageThreshold>-8.7452840805053711e-01</stageThreshold>
      <weakClassifiers>
        <_>
          <internalNodes>
            0 -1 77 1069530111 -1342193924 1040171007 -1342177281
            805249021 268386111 1073687679 232732151</internalNodes>
          <leafValues>
            -6.5779465436935425e-01 6.9459962844848633e-01</leafValues></_>
        <_>
          <internalNodes>
            0 -1 45 512785395 -910065512 1562451021 -1613955063
            -1063718403 -1863073630 260309002 990577184</internalNodes>
          <leafValues>
            -5.5958241224288940e-01 6.5718781948089600e-01</leafValues></_>
        <_>
          <internalNodes>
            0 -1 90 -75238449 -2130407413 16891904 -251014976
            -2130065997 -1836916657 1933805605 -40584288</internalNodes>
          <leafValues>
            -6.5663337707519531e-01 6.0977345705032349e-01</leafValues></_>
        <_>
          <internalNodes>
            0 -1 38 553681216 -887783399 -721399493 -285146720
            1644204215 210338432 545853882 122095651</internalNodes>
          <leafValues>
            -6.7936182022094727e-01 5.3604030609130859e-01</leafValues></_>
        <_>
          <internalNodes>
            0 -1 47 285289383 -329711231 352342409 -1903033088
            -2144228973 -376045432 9089440 -2145363836</internalNodes>
          <leafValues>
            -8.0433320999145508e-01 4.7190925478935242e-01</leafValues></_></weakClassifiers></_>
    <!-- stage 16 -->
    <_>
      <maxWeakCount>4</maxWeakCount>
      <stageThreshold>-1.4029455184936523e+00</stageThreshold>
      <weakClassifiers>
        <_>
          <internalNodes>
            0 -1 33 671613232 423231702 356516699 -1652031471 713300985
            -343391592 402655403 713687170</internalNodes>
          <leafValues>
            -7.0020532608032227e-01 6.6576820611953735e-01</leafValues></_>
        <_>
          <internalNodes>
            0 -1 71 335780191 -139458543 286327129 -130019119
            -1879005463 -1149230936 -2121760080 -1666178824</internalNodes>
          <leafValues>
            -6.6105085611343384e-01 6.3038337230682373e-01</leafValues></_>
        <_>
          <internalNodes>
            0 -1 52 33656631 -1659788928 486870297 -1652227056 521193723
            -1312774848 26028455 462227848</internalNodes>
          <leafValues>
            -7.6161241531372070e-01 5.3144687414169312e-01</leafValues></_>
        <_>
          <internalNodes>
            0 -1 43 -1996484528 -672021759 889286963 -1190910976
            -1744654081 -376831991 -2130540403 499126272</internalNodes>
          <leafValues>
            -6.4605051279067993e-01 5.9959650039672852e-01</leafValues></_></weakClassifiers></_>
    <!-- stage 17 -->
    <_>
      <maxWeakCount>6</maxWeakCount>
      <stageThreshold>-9.5625966787338257e-01</stageThreshold>
      <weakClassifiers>
        <_>
          <internalNodes>
            0 -1 39 -1 -68157445 -9 -21303618 -32771 -35 -16 -1675338640</internalNodes>
          <leafValues>
            -4.8356807231903076e-01 7.3777318000793457e-01</leafValues></_>
        <_>
          <internalNodes>
            0 -1 49 -721227308 -644313071 419962263 -581549806
            -2130670601 -293531469 -1677688651 -1442052796</internalNodes>
          <leafValues>
            -5.9758615493774414e-01 5.8624070882797241e-01</leafValues></_>
        <_>
          <internalNodes>
            0 -1 97 -186129442 -217382234 -652148704 -45231855
            -901121141 -796883832 -746331957 -730535540</internalNodes>
          <leafValues>
            -6.5118622779846191e-01 5.3795784711837769e-01</leafValues></_>
        <_>
          <internalNodes>
            0 -1 27 673710839 2138783353 536848123 -12632199 529816765
            -1075937315 1065058045 -1079445515</internalNodes>
          <leafValues>
            -5.0782388448715210e-01 7.0427668094635010e-01</leafValues></_>
        <_>
          <internalNodes>
            0 -1 95 2110825092 -940717369 1476837891 -582141194
            -1268732228 -1823198544 -935543333 -69528354</internalNodes>
          <leafValues>
            -4.8382338881492615e-01 7.9036504030227661e-01</leafValues></_>
        <_>
          <internalNodes>
            0 -1 63 -1862266699 722485573 -738127815 1606488072
            -1199472471 -853507944 570425432 428408960</internalNodes>
          <leafValues>
            -6.0524290800094604e-01 6.0217696428298950e-01</leafValues></_></weakClassifiers></_>
    <!-- stage 18 -->
    <_>
      <maxWeakCount>5</maxWeakCount>
      <stageThreshold>-5.1760435104370117e-01</stageThreshold>
      <weakClassifiers>
        <_>
          <internalNodes>
            0 -1 41 -286204716 -553779331 -268500993 -491061253
            -165609491 -545915011 -27729970 -1160762352</internalNodes>
          <leafValues>
            -5.0179213285446167e-01 6.5259116888046265e-01</leafValues></_>
        <_>
          <internalNodes>
            0 -1 92 -250743809 -662666985 268574739 -1147090790
            -671055151 -2130444151 -911501431 -1214729344</internalNodes>
          <leafValues>
            -6.3731580972671509e-01 5.4481720924377441e-01</leafValues></_>
        <_>
          <internalNodes>
            0 -1 59 33591605 498794805 -180272303 -49790823 -1459570453
            -1189052272 142803131 262933129</internalNodes>
          <leafValues>
            -5.1402741670608521e-01 6.3346004486083984e-01</leafValues></_>
        <_>
          <internalNodes>
            0 -1 60 1896542432 -788233496 1392936197 1998024581
            318870072 -936992597 419506429 -660924277</internalNodes>
          <leafValues>
            -5.7024353742599487e-01 5.7856094837188721e-01</leafValues></_>
        <_>
          <internalNodes>
            0 -1 56 286498256 -754892408 1954651485 -1660354284
            -2080341528 -1087368440 -1425536552 759695384</internalNodes>
          <leafValues>
            -5.9051740169525146e-01 5.7512003183364868e-01</leafValues></_></weakClassifiers></_>
    <!-- stage 19 -->
    <_>
      <maxWeakCount>5</maxWeakCount>
      <stageThreshold>-6.4219826459884644e-01</stageThreshold>
      <weakClassifiers>
        <_>
          <internalNodes>
            0 -1 76 1071471957 -201363459 -1074823171 316309502 -98
            -65539 -596 -1204806096</internalNodes>
          <leafValues>
            -4.7626841068267822e-01 6.9868552684783936e-01</leafValues></_>
        <_>
          <internalNodes>
            0 -1 25 134223701 -1718023723 1702897311 422938207
            2021799196 2031232070 -626914626 1070021547</internalNodes>
          <leafValues>
            -7.5667250156402588e-01 4.8538622260093689e-01</leafValues></_>
        <_>
          <internalNodes>
            0 -1 30 -1819246091 -784285547 403231069 -166833966
            -936664937 -75267570 -2004582014 -1130610504</internalNodes>
          <leafValues>
            -5.6586915254592896e-01 5.4240369796752930e-01</leafValues></_>
        <_>
          <internalNodes>
            0 -1 73 -1205714736 -710075360 707111392 -52094480
            -1776577112 3528628 908501678 -542504274</internalNodes>
          <leafValues>
            -4.3145421147346497e-01 7.8635871410369873e-01</leafValues></_>
        <_>
          <internalNodes>
            0 -1 58 422117620 -101428208 -1811916428 -137341676
            -131470920 -1700265575 -1946097252 277352480</internalNodes>
          <leafValues>
            -6.9516074657440186e-01 5.2288252115249634e-01</leafValues></_></weakClassifiers></_></stages>
  <features>
    <_>
      <rect>
        0 0 2 4</rect></_>
    <_>
      <rect>
        0 1 13 16</rect></_>
    <_>
      <rect>
        0 4 3 3</rect></_>
    <_>
      <rect>
        0 12 13 14</rect></_>
    <_>
      <rect>
        0 15 11 13</rect></_>
    <_>
      <rect>
        0 20 9 10</rect></_>
    <_>
      <rect>
        0 21 9 10</rect></_>
    <_>
      <rect>
        0 22 6 11</rect></_>
    <_>
      <rect>
        0 23 5 16</rect></_>
    <_>
      <rect>
        0 26 6 11</rect></_>
    <_>
      <rect>
        0 29 11 11</rect></_>
    <_>
      <rect>
        0 32 5 8</rect></_>
    <_>
      <rect>
        0 37 1 1</rect></_>
    <_>
      <rect>
        0 42 12 16</rect></_>
    <_>
      <rect>
        0 47 3 5</rect></_>
    <_>
      <rect>
        0 51 1 2</rect></_>
    <_>
      <rect>
        0 52 1 1</rect></_>
    <_>
      <rect>
        0 53 4 3</rect></_>
    <_>
      <rect>
        0 54 4 2</rect></_>
    <_>
      <rect>
        1 0 3 3</rect></_>
    <_>
      <rect>
        1 6 2 3</rect></_>
    <_>
      <rect>
        1 24 13 10</rect></_>
    <_>
      <rect>
        1 25 6 10</rect></_>
    <_>
      <rect>
        1 35 13 15</rect></_>
    <_>
      <rect>
        1 46 1 1</rect></_>
    <_>
      <rect>
        1 57 7 11</rect></_>
    <_>
      <rect>
        1 63 10 9</rect></_>
    <_>
      <rect>
        1 78 8 4</rect></_>
    <_>
      <rect>
        2 0 2 3</rect></_>
    <_>
      <rect>
        2 0 2 4</rect></_>
    <_>
      <rect>
        2 5 5 3</rect></_>
    <_>
      <rect>
        3 1 3 2</rect></_>
    <_>
      <rect>
        3 4 8 4</rect></_>
    <_>
      <rect>
        3 69 9 7</rect></_>
    <_>
      <rect>
        4 23 12 11</rect></_>
    <_>
      <rect>
        4 60 12 10</rect></_>
    <_>
      <rect>
        5 1 3 2</rect></_>
    <_>
      <rect>
        5 32 10 10</rect></_>
    <_>
      <rect>
        6 33 5 4</rect></_>
    <_>
      <rect>
        7 0 11 3</rect></_>
    <_>
      <rect>
        7 19 11 11</rect></_>
    <_>
      <rect>
        7 45 6 6</rect></_>
    <_>
      <rect>
        7 54 11 12</rect></_>
    <_>
      <rect>
        8 8 7 6</rect></_>
    <_>
      <rect>
        8 30 10 11</rect></_>
    <_>
      <rect>
        8 69 7 6</rect></_>
    <_>
      <rect>
        9 0 2 3</rect></_>
    <_>
      <rect>
        10 1 6 4</rect></_>
    <_>
      <rect>
        12 0 3 2</rect></_>
    <_>
      <rect>
        12 44 7 7</rect></_>
    <_>
      <rect>
        13 22 9 13</rect></_>
    <_>
      <rect>
        13 33 8 10</rect></_>
    <_>
      <rect>
        13 48 9 14</rect></_>
    <_>
      <rect>
        14 45 1 1</rect></_>
    <_>
      <rect>
        15 1 2 2</rect></_>
    <_>
      <rect>
        15 44 1 1</rect></_>
    <_>
      <rect>
        15 71 4 3</rect></_>
    <_>
      <rect>
        16 12 8 26</rect></_>
    <_>
      <rect>
        16 68 6 4</rect></_>
    <_>
      <rect>
        16 73 8 5</rect></_>
    <_>
      <rect>
        17 41 3 3</rect></_>
    <_>
      <rect>
        17 52 2 3</rect></_>
    <_>
      <rect>
        18 44 1 1</rect></_>
    <_>
      <rect>
        18 68 7 5</rect></_>
    <_>
      <rect>
        19 31 7 9</rect></_>
    <_>
      <rect>
        19 35 7 8</rect></_>
    <_>
      <rect>
        20 44 1 1</rect></_>
    <_>
      <rect>
        21 0 3 3</rect></_>
    <_>
      <rect>
        21 30 6 8</rect></_>
    <_>
      <rect>
        21 42 4 3</rect></_>
    <_>
      <rect>
        21 43 1 1</rect></_>
    <_>
      <rect>
        22 1 5 3</rect></_>
    <_>
      <rect>
        22 74 6 3</rect></_>
    <_>
      <rect>
        23 47 1 1</rect></_>
    <_>
      <rect>
        24 2 3 2</rect></_>
    <_>
      <rect>
        25 0 4 2</rect></_>
    <_>
      <rect>
        25 6 5 3</rect></_>
    <_>
      <rect>
        25 39 5 17</rect></_>
    <_>
      <rect>
        28 0 4 2</rect></_>
    <_>
      <rect>
        28 41 4 16</rect></_>
    <_>
      <rect>
        28 54 4 3</rect></_>
    <_>
      <rect>
        29 1 3 3</rect></_>
    <_>
      <rect>
        31 7 3 2</rect></_>
    <_>
      <rect>
        31 32 3 3</rect></_>
    <_>
      <rect>
        31 49 3 3</rect></_>
    <_>
      <rect>
        31 49 3 6</rect></_>
    <_>
      <rect>
        31 50 3 3</rect></_>
    <_>
      <rect>
        31 53 3 3</rect></_>
    <_>
      <rect>
        33 0 2 3</rect></_>
    <_>
      <rect>
        34 0 2 3</rect></_>
    <_>
      <rect>
        34 0 2 4</rect></_>
    <_>
      <rect>
        34 3 2 3</rect></_>
    <_>
      <rect>
        34 3 2 4</rect></_>
    <_>
      <rect>
        34 47 2 6</rect></_>
    <_>
      <rect>
        34 53 2 3</rect></_>
    <_>
      <rect>
        34 86 1 1</rect></_>
    <_>
      <rect>
        35 48 1 1</rect></_>
    <_>
      <rect>
        37 1 1 3</rect></_></features></cascade>
</opencv_storage>
