<?xml version="1.0"?>
<opencv_storage>
<cascade>
  <stageType>BOOST</stageType>
  <featureType>LBP</featureType>
  <height>90</height>
  <width>40</width>
  <stageParams>
    <boostType>GAB</boostType>
    <minHitRate>9.9900001287460327e-01</minHitRate>
    <maxFalseAlarm>5.0000000000000000e-01</maxFalseAlarm>
    <weightTrimRate>9.4999999999999996e-01</weightTrimRate>
    <maxDepth>1</maxDepth>
    <maxWeakCount>100</maxWeakCount></stageParams>
  <featureParams>
    <maxCatCount>256</maxCatCount>
    <featSize>1</featSize></featureParams>
  <stageNum>20</stageNum>
  <stages>
    <!-- stage 0 -->
    <_>
      <maxWeakCount>2</maxWeakCount>
      <stageThreshold>-2.7402015402913094e-02</stageThreshold>
      <weakClassifiers>
        <_>
          <internalNodes>
            0 -1 0 -747910261 1073938434 0 1073938432 131072 0 1
            1359151107</internalNodes>
          <leafValues>
            -9.5966386795043945e-01 9.6616917848587036e-01</leafValues></_>
        <_>
          <internalNodes>
            0 -1 5 -37498369 1396817937 134217728 285413521 1074299032 0
            16810122 294342863</internalNodes>
          <leafValues>
            -9.7629487514495850e-01 9.3226182460784912e-01</leafValues></_></weakClassifiers></_>
    <!-- stage 1 -->
    <_>
      <maxWeakCount>2</maxWeakCount>
      <stageThreshold>-2.8227287530899048e-01</stageThreshold>
      <weakClassifiers>
        <_>
          <internalNodes>
            0 -1 3 -136844321 1359708169 49152 1090641923 -1610448885
            131073 -1073692671 822593999</internalNodes>
          <leafValues>
            -9.5384615659713745e-01 8.2962960004806519e-01</leafValues></_>
        <_>
          <internalNodes>
            0 -1 7 -6556929 2123997315 -1593686931 1503347587 1191380683
            590020738 33612511 1070561915</internalNodes>
          <leafValues>
            -9.6749579906463623e-01 6.7157328128814697e-01</leafValues></_></weakClassifiers></_>
    <!-- stage 2 -->
    <_>
      <maxWeakCount>3</maxWeakCount>
      <stageThreshold>-9.8025876283645630e-01</stageThreshold>
      <weakClassifiers>
        <_>
          <internalNodes>
            0 -1 51 -195046441 67325960 1078001664 -2113684991
            -1073231665 134758401 -2130483125 -1428163585</internalNodes>
          <leafValues>
            -8.2456141710281372e-01 8.4466022253036499e-01</leafValues></_>
        <_>
          <internalNodes>
            0 -1 40 1283473663 176816722 -2130225065 -12328909
            -913649218 -275799911 -2105435989 -4470581</internalNodes>
          <leafValues>
            -8.8674080371856689e-01 6.8909192085266113e-01</leafValues></_>
        <_>
          <internalNodes>
            0 -1 43 -394215256 -1030515641 1342275589 -745025275
            -1020620597 -485783293 -2146205669 -71568209</internalNodes>
          <leafValues>
            -7.1930342912673950e-01 7.3104351758956909e-01</leafValues></_></weakClassifiers></_>
    <!-- stage 3 -->
    <_>
      <maxWeakCount>4</maxWeakCount>
      <stageThreshold>-1.6797165870666504e+00</stageThreshold>
      <weakClassifiers>
        <_>
          <internalNodes>
            0 -1 1 -162794017 -2013069306 -905408511 1367494787
            -788307069 1074413571 -138296445 1972595967</internalNodes>
          <leafValues>
            -8.8510638475418091e-01 7.2212392091751099e-01</leafValues></_>
        <_>
          <internalNodes>
            0 -1 58 17515791 593095983 -1001016869 -1345068721 59349481
            -1162919516 -1769610170 -272893457</internalNodes>
          <leafValues>
            -8.4293007850646973e-01 7.2864061594009399e-01</leafValues></_>
        <_>
          <internalNodes>
            0 -1 35 -2144286469 -1592556845 1092129072 -1022775229
            -2142580715 -2003599345 -771002237 -3409769</internalNodes>
          <leafValues>
            -8.0708193778991699e-01 6.5577095746994019e-01</leafValues></_>
        <_>
          <internalNodes>
            0 -1 18 -583697417 1716519938 -1736274804 -385091439
            -2010027995 80185362 -908590495 -146697706</internalNodes>
          <leafValues>
            -7.1616882085800171e-01 6.7524492740631104e-01</leafValues></_></weakClassifiers></_>
    <!-- stage 4 -->
    <_>
      <maxWeakCount>3</maxWeakCount>
      <stageThreshold>-9.4282793998718262e-01</stageThreshold>
      <weakClassifiers>
        <_>
          <internalNodes>
            0 -1 4 -49941221 1137119489 -1339981563 324489217
            -1845460837 457312939 -2100627717 1006631935</internalNodes>
          <leafValues>
            -8.5185188055038452e-01 7.3070019483566284e-01</leafValues></_>
        <_>
          <internalNodes>
            0 -1 64 -2099778085 -1598733309 -1610543101 -1174421373
            67224715 553715718 -2013146325 798740939</internalNodes>
          <leafValues>
            -7.2349202632904053e-01 7.1816313266754150e-01</leafValues></_>
        <_>
          <internalNodes>
            0 -1 42 1074432255 678306892 -576359617 -11230889 1078424543
            -5713663 -134053237 -156541</internalNodes>
          <leafValues>
            -8.6104613542556763e-01 6.3251596689224243e-01</leafValues></_></weakClassifiers></_>
    <!-- stage 5 -->
    <_>
      <maxWeakCount>5</maxWeakCount>
      <stageThreshold>-9.6643042564392090e-01</stageThreshold>
      <weakClassifiers>
        <_>
          <internalNodes>
            0 -1 2 -74712113 268656643 81930 1107430162 1631781379
            143261697 1612857441 2135388679</internalNodes>
          <leafValues>
            -8.6046510934829712e-01 6.5811967849731445e-01</leafValues></_>
        <_>
          <internalNodes>
            0 -1 10 -79435297 932417616 285253785 -140918720 319030415
            127107119 -2105503476 -6569773</internalNodes>
          <leafValues>
            -7.5138580799102783e-01 6.0885059833526611e-01</leafValues></_>
        <_>
          <internalNodes>
            0 -1 20 -262145 -1360003201 -265 -285212673 2004844391
            133693296 -134222477 -2623661</internalNodes>
          <leafValues>
            -5.9495157003402710e-01 7.9307693243026733e-01</leafValues></_>
        <_>
          <internalNodes>
            0 -1 85 -1115947057 -1594885649 -33898964 1861615612 -2057
            -421003278 -1073741851 -989860104</internalNodes>
          <leafValues>
            -6.6940242052078247e-01 6.9730556011199951e-01</leafValues></_>
        <_>
          <internalNodes>
            0 -1 41 -2139052854 1251172367 -1000337406 -15351803
            -1065295225 1133428737 -938833912 -5508625</internalNodes>
          <leafValues>
            -8.1273466348648071e-01 5.4306650161743164e-01</leafValues></_></weakClassifiers></_>
    <!-- stage 6 -->
    <_>
      <maxWeakCount>5</maxWeakCount>
      <stageThreshold>-8.5452008247375488e-01</stageThreshold>
      <weakClassifiers>
        <_>
          <internalNodes>
            0 -1 23 671078875 244527119 131585 290451595 -536657782
            596607635 165889 1068458427</internalNodes>
          <leafValues>
            -8.3758699893951416e-01 6.5098375082015991e-01</leafValues></_>
        <_>
          <internalNodes>
            0 -1 72 -1844954982 -222084976 -737113950 1896153104
            -268397935 -1064828928 -1194678133 -1428282744</internalNodes>
          <leafValues>
            -6.6879397630691528e-01 6.6236895322799683e-01</leafValues></_>
        <_>
          <internalNodes>
            0 -1 8 -8423085 16793776 -1878994621 -1048522623 17055745
            536887808 1083229024 -645807071</internalNodes>
          <leafValues>
            -7.4666404724121094e-01 6.0435992479324341e-01</leafValues></_>
        <_>
          <internalNodes>
            0 -1 46 -657754789 139088643 81936 245765 1493237761
            537280514 269586433 -451686253</internalNodes>
          <leafValues>
            -6.2273037433624268e-01 6.8689924478530884e-01</leafValues></_>
        <_>
          <internalNodes>
            0 -1 83 -1308569432 -1061093248 268501120 -115931007
            -2113322880 -2013265792 -2013134445 -104132407</internalNodes>
          <leafValues>
            -6.1953723430633545e-01 7.0511782169342041e-01</leafValues></_></weakClassifiers></_>
    <!-- stage 7 -->
    <_>
      <maxWeakCount>5</maxWeakCount>
      <stageThreshold>-6.2343877553939819e-01</stageThreshold>
      <weakClassifiers>
        <_>
          <internalNodes>
            0 -1 11 -25690257 -1 2147483638 -1 1147502340 1996488702
            1970567029 351600639</internalNodes>
          <leafValues>
            -6.0942763090133667e-01 7.5745528936386108e-01</leafValues></_>
        <_>
          <internalNodes>
            0 -1 12 1863041791 858996803 272711696 -788528896 114699
            1669529746 -1073180662 -552871285</internalNodes>
          <leafValues>
            -7.7377581596374512e-01 5.9556722640991211e-01</leafValues></_>
        <_>
          <internalNodes>
            0 -1 15 -277872965 -1091633281 -1042 -1073807362 1693905475
            1895759871 -671615117 -691536009</internalNodes>
          <leafValues>
            -6.1314082145690918e-01 7.3735225200653076e-01</leafValues></_>
        <_>
          <internalNodes>
            0 -1 31 -22315049 4831298 -779828864 -519061481 710429190
            460739 1755761728 -413667577</internalNodes>
          <leafValues>
            -6.7010676860809326e-01 6.9597870111465454e-01</leafValues></_>
        <_>
          <internalNodes>
            0 -1 50 -140316241 -830291934 -268238777 2013462560 17535307
            -1558724573 1074270346 -1846727677</internalNodes>
          <leafValues>
            -6.3489282131195068e-01 6.9251918792724609e-01</leafValues></_></weakClassifiers></_>
    <!-- stage 8 -->
    <_>
      <maxWeakCount>5</maxWeakCount>
      <stageThreshold>-5.4057985544204712e-01</stageThreshold>
      <weakClassifiers>
        <_>
          <internalNodes>
            0 -1 86 -2014318617 -2130839633 788508646 1157627883 -137
            1325399927 -134217739 -1056964609</internalNodes>
          <leafValues>
            -5.7432430982589722e-01 7.3412698507308960e-01</leafValues></_>
        <_>
          <internalNodes>
            0 -1 22 -741607489 1074529984 1208222722 1879312768
            1099059434 1350582274 659185923 932175755</internalNodes>
          <leafValues>
            -7.5498336553573608e-01 5.9294843673706055e-01</leafValues></_>
        <_>
          <internalNodes>
            0 -1 19 -33554437 -286261265 -16779669 -289407041 -33005
            1660911543 -135037583 -524331</internalNodes>
          <leafValues>
            -5.7390141487121582e-01 7.7769881486892700e-01</leafValues></_>
        <_>
          <internalNodes>
            0 -1 30 -402694145 1862205423 -134283679 -1359020289
            -402688189 -1476657180 -17390032 -143141033</internalNodes>
          <leafValues>
            -5.7145845890045166e-01 7.3515921831130981e-01</leafValues></_>
        <_>
          <internalNodes>
            0 -1 13 -24123182 -511586043 1091211271 -586868205
            -2004058085 8554625 838975489 -68451933</internalNodes>
          <leafValues>
            -6.8098133802413940e-01 7.0318150520324707e-01</leafValues></_></weakClassifiers></_>
    <!-- stage 9 -->
    <_>
      <maxWeakCount>5</maxWeakCount>
      <stageThreshold>-5.1632779836654663e-01</stageThreshold>
      <weakClassifiers>
        <_>
          <internalNodes>
            0 -1 53 58807295 595755654 -468124199 -339248587 948195531
            1946431824 -2038370165 -69754775</internalNodes>
          <leafValues>
            -7.0292884111404419e-01 6.5597146749496460e-01</leafValues></_>
        <_>
          <internalNodes>
            0 -1 14 -10494601 -273678337 -20971590 -1114116 1299663873
            -8388737 -689457872 -839387273</internalNodes>
          <leafValues>
            -5.5426996946334839e-01 6.9521373510360718e-01</leafValues></_>
        <_>
          <internalNodes>
            0 -1 79 -1467823702 -1896936284 937342512 -55311 -1618113360
            -1574044673 -1614687084 -268454663</internalNodes>
          <leafValues>
            -5.1044172048568726e-01 7.3946064710617065e-01</leafValues></_>
        <_>
          <internalNodes>
            0 -1 89 260038631 150960891 -17924576 -2131886338 -176162953
            1203764671 -33645087 -16777345</internalNodes>
          <leafValues>
            -5.9480476379394531e-01 6.3721913099288940e-01</leafValues></_>
        <_>
          <internalNodes>
            0 -1 34 -86020385 -1500293952 -394166076 -535047356
            1359890790 -998323960 -477307414 -436749485</internalNodes>
          <leafValues>
            -6.3539004325866699e-01 6.3489168882369995e-01</leafValues></_></weakClassifiers></_>
    <!-- stage 10 -->
    <_>
      <maxWeakCount>5</maxWeakCount>
      <stageThreshold>-8.8304293155670166e-01</stageThreshold>
      <weakClassifiers>
        <_>
          <internalNodes>
            0 -1 57 34256895 41989970 12445 600814543 -1878932285
            -2143256429 -1073704960 -70262137</internalNodes>
          <leafValues>
            -8.0141842365264893e-01 6.2786746025085449e-01</leafValues></_>
        <_>
          <internalNodes>
            0 -1 27 1000075247 994173861 -2147481599 897558223 868254625
            180552354 1616756939 533719951</internalNodes>
          <leafValues>
            -7.4154466390609741e-01 5.4114514589309692e-01</leafValues></_>
        <_>
          <internalNodes>
            0 -1 67 -1560149797 -473759680 -1050591167 -251424568
            952276995 -1339719680 -363820917 -8367974</internalNodes>
          <leafValues>
            -6.1166077852249146e-01 7.0478212833404541e-01</leafValues></_>
        <_>
          <internalNodes>
            0 -1 84 -1182221872 -400422840 -269193632 -625344779
            -1103324126 -1144225867 -1701350030 -1079310860</internalNodes>
          <leafValues>
            -6.0081040859222412e-01 7.2974956035614014e-01</leafValues></_>
        <_>
          <internalNodes>
            0 -1 61 957413600 992695405 18367392 398291063 -2063357037
            -2071811576 -536291199 -7364285</internalNodes>
          <leafValues>
            -7.2674137353897095e-01 5.8961200714111328e-01</leafValues></_></weakClassifiers></_>
    <!-- stage 11 -->
    <_>
      <maxWeakCount>4</maxWeakCount>
      <stageThreshold>-4.7478634119033813e-01</stageThreshold>
      <weakClassifiers>
        <_>
          <internalNodes>
            0 -1 80 -2032142357 101023821 -2125954559 8691983 675780933
            49286 538157123 80082847</internalNodes>
          <leafValues>
            -8.7735849618911743e-01 6.5646260976791382e-01</leafValues></_>
        <_>
          <internalNodes>
            0 -1 33 11571967 -1463767619 218923393 -472940085
            -2026666065 -942814831 -1392156351 -540303358</internalNodes>
          <leafValues>
            -7.7806115150451660e-01 5.6141567230224609e-01</leafValues></_>
        <_>
          <internalNodes>
            0 -1 88 -2130204733 -1520844447 -905740288 -1379552562
            -1294876025 66187 -1849616763 -2063601185</internalNodes>
          <leafValues>
            -6.8002176284790039e-01 6.2044674158096313e-01</leafValues></_>
        <_>
          <internalNodes>
            0 -1 6 1641151775 1672658826 360775808 -36993792 102401
            69435555 1562378243 1992631177</internalNodes>
          <leafValues>
            -7.3042136430740356e-01 5.6018656492233276e-01</leafValues></_></weakClassifiers></_>
    <!-- stage 12 -->
    <_>
      <maxWeakCount>4</maxWeakCount>
      <stageThreshold>-1.4864767789840698e+00</stageThreshold>
      <weakClassifiers>
        <_>
          <internalNodes>
            0 -1 38 -57412619 -113395449 491848979 -44726490 -531513497
            -1409253239 -188644215 82584578</internalNodes>
          <leafValues>
            -8.9447236061096191e-01 6.2895172834396362e-01</leafValues></_>
        <_>
          <internalNodes>
            0 -1 65 340239351 -1913797533 -2130357871 -3161983 306566197
            -2084372348 -1251490677 -1342201787</internalNodes>
          <leafValues>
            -6.3634258508682251e-01 6.4323180913925171e-01</leafValues></_>
        <_>
          <internalNodes>
            0 -1 36 -1602186803 -1416382513 -855572457 -208727664
            -662189253 -1074812685 -473481207 -7748476</internalNodes>
          <leafValues>
            -7.1356147527694702e-01 6.0834538936614990e-01</leafValues></_>
        <_>
          <internalNodes>
            0 -1 78 1460402410 -641084247 1141903616 -749613055 35946647
            25723011 1094039 768934963</internalNodes>
          <leafValues>
            -7.6552450656890869e-01 5.9963667392730713e-01</leafValues></_></weakClassifiers></_>
    <!-- stage 13 -->
    <_>
      <maxWeakCount>5</maxWeakCount>
      <stageThreshold>-1.1193323135375977e+00</stageThreshold>
      <weakClassifiers>
        <_>
          <internalNodes>
            0 -1 55 1460796755 1905348931 -1792453681 -682147573
            -703756919 -778476012 -1274752831 14950521</internalNodes>
          <leafValues>
            -8.5411763191223145e-01 6.4936172962188721e-01</leafValues></_>
        <_>
          <internalNodes>
            0 -1 37 -2139056646 937152787 1228935189 -141817695
            -1347556421 -806575999 -276527736 -7700280</internalNodes>
          <leafValues>
            -6.3693863153457642e-01 6.7139452695846558e-01</leafValues></_>
        <_>
          <internalNodes>
            0 -1 68 -83167000 -209112669 -1860055024 1437683992 98749
            591635586 675393611 719262953</internalNodes>
          <leafValues>
            -7.2240555286407471e-01 5.4111593961715698e-01</leafValues></_>
        <_>
          <internalNodes>
            0 -1 59 772897239 205862278 859885585 708923614 -1308589411
            724054176 -1042248820 1067289241</internalNodes>
          <leafValues>
            -9.0789842605590820e-01 4.7469231486320496e-01</leafValues></_>
        <_>
          <internalNodes>
            0 -1 62 -1601137456 -468643839 -671069807 1368719490
            -2113236854 -1333223296 -1837071741 -3997567</internalNodes>
          <leafValues>
            -6.6618716716766357e-01 6.1943721771240234e-01</leafValues></_></weakClassifiers></_>
    <!-- stage 14 -->
    <_>
      <maxWeakCount>5</maxWeakCount>
      <stageThreshold>-1.0544971227645874e+00</stageThreshold>
      <weakClassifiers>
        <_>
          <internalNodes>
            0 -1 54 -254683817 -582971131 357126935 -117173695
            1376080791 -155160399 -962796913 788414099</internalNodes>
          <leafValues>
            -7.9910713434219360e-01 6.5798610448837280e-01</leafValues></_>
        <_>
          <internalNodes>
            0 -1 72 -2054675270 -784285568 -243142374 1469563016
            -637491062 -1307967488 -1610045010 -1433523574</internalNodes>
          <leafValues>
            -6.8184691667556763e-01 6.3517111539840698e-01</leafValues></_>
        <_>
          <internalNodes>
            0 -1 16 848583669 2002523293 -1862204659 931725441
            2061195951 -74946406 210540973 1067843742</internalNodes>
          <leafValues>
            -7.1980309486389160e-01 5.3240013122558594e-01</leafValues></_>
        <_>
          <internalNodes>
            0 -1 48 411063513 -116829935 -2013241299 1829867523
            503382463 -116389727 1217470875 2139146379</internalNodes>
          <leafValues>
            -6.7127448320388794e-01 6.0239225625991821e-01</leafValues></_>
        <_>
          <internalNodes>
            0 -1 74 1493225962 -586739264 -498007862 -686075029
            330346639 11010184 537037519 478677211</internalNodes>
          <leafValues>
            -7.7315032482147217e-01 5.2442157268524170e-01</leafValues></_></weakClassifiers></_>
    <!-- stage 15 -->
    <_>
      <maxWeakCount>6</maxWeakCount>
      <stageThreshold>-4.0240550041198730e-01</stageThreshold>
      <weakClassifiers>
        <_>
          <internalNodes>
            0 -1 9 1966111680 2147483647 -1 -1 1953803436 2147483647 -1
            -1</internalNodes>
          <leafValues>
            -5.8464223146438599e-01 7.1567672491073608e-01</leafValues></_>
        <_>
          <internalNodes>
            0 -1 56 -984091345 -1790634379 -2002548707 117940485
            -247371827 -1308503984 -717120122 -1392540863</internalNodes>
          <leafValues>
            -7.6855427026748657e-01 5.2544957399368286e-01</leafValues></_>
        <_>
          <internalNodes>
            0 -1 69 1109393536 -222293886 1610678547 -203882363
            -764763256 -805174782 -1568486774 -539033572</internalNodes>
          <leafValues>
            -5.9992414712905884e-01 5.9319347143173218e-01</leafValues></_>
        <_>
          <internalNodes>
            0 -1 47 894182301 998310407 67129557 1040253953 763459018
            2080382144 -92125558 1056976302</internalNodes>
          <leafValues>
            -9.0840828418731689e-01 4.4857320189476013e-01</leafValues></_>
        <_>
          <internalNodes>
            0 -1 76 -1257712392 1619026176 -1071284088 -1551554362
            -1308065708 -1425932286 -1876782958 -1884616566</internalNodes>
          <leafValues>
            -6.5828573703765869e-01 5.7350611686706543e-01</leafValues></_>
        <_>
          <internalNodes>
            0 -1 73 -506973556 -170573435 -1071365118 -1180727859
            -502562590 -1879048192 -1413315965 -1446281080</internalNodes>
          <leafValues>
            -6.0150408744812012e-01 6.6981381177902222e-01</leafValues></_></weakClassifiers></_>
    <!-- stage 16 -->
    <_>
      <maxWeakCount>5</maxWeakCount>
      <stageThreshold>-4.8534587025642395e-01</stageThreshold>
      <weakClassifiers>
        <_>
          <internalNodes>
            0 -1 17 1761509245 1056848795 -1073741825 1073201151
            2147319799 1006598143 -536903681 1073709055</internalNodes>
          <leafValues>
            -6.0707271099090576e-01 6.4986252784729004e-01</leafValues></_>
        <_>
          <internalNodes>
            0 -1 26 -765920 -419495943 -150999842 -220991650 -184628224
            -947986594 -117463534 -1171713</internalNodes>
          <leafValues>
            -5.0529408454895020e-01 6.8910276889801025e-01</leafValues></_>
        <_>
          <internalNodes>
            0 -1 45 -202420371 -318881811 -1358954505 -362115073
            -8489124 108986196 -886988 -128825773</internalNodes>
          <leafValues>
            -5.1372218132019043e-01 6.8547993898391724e-01</leafValues></_>
        <_>
          <internalNodes>
            0 -1 63 -676294488 -70840320 -1728007721 -1311702511
            271096485 -1790951160 -2147469942 -2135900022</internalNodes>
          <leafValues>
            -6.4688491821289062e-01 6.2989836931228638e-01</leafValues></_>
        <_>
          <internalNodes>
            0 -1 25 -431009237 -2130689854 32768 -2076114814 -903657408
            557120 -939036154 -72391645</internalNodes>
          <leafValues>
            -6.0597097873687744e-01 6.6830468177795410e-01</leafValues></_></weakClassifiers></_>
    <!-- stage 17 -->
    <_>
      <maxWeakCount>6</maxWeakCount>
      <stageThreshold>-1.1721103191375732e+00</stageThreshold>
      <weakClassifiers>
        <_>
          <internalNodes>
            0 -1 44 -1069542210 -488570896 -38638 -67108865 -17048065
            -49153 -2 -769</internalNodes>
          <leafValues>
            -5.8823531866073608e-01 6.4220184087753296e-01</leafValues></_>
        <_>
          <internalNodes>
            0 -1 66 -963214280 -420874272 -270341 -587275011 -1623871302
            -2050656281 -1082460169 -340788068</internalNodes>
          <leafValues>
            -4.8073574900627136e-01 7.0263195037841797e-01</leafValues></_>
        <_>
          <internalNodes>
            0 -1 87 -1298101558 -844128824 -1417890064 -33697880
            -1892757343 -908593752 -1757698651 -73460595</internalNodes>
          <leafValues>
            -4.6327361464500427e-01 7.7436327934265137e-01</leafValues></_>
        <_>
          <internalNodes>
            0 -1 81 833261760 1653202976 1426162124 -1977756973
            -1434415040 -528482296 -1820153328 -2018541376</internalNodes>
          <leafValues>
            -6.9137638807296753e-01 5.8318907022476196e-01</leafValues></_>
        <_>
          <internalNodes>
            0 -1 24 -9123104 -1426227252 2012110368 -269681229
            -176898475 -276930585 -1526931664 -2441223</internalNodes>
          <leafValues>
            -5.7941812276840210e-01 7.2330927848815918e-01</leafValues></_>
        <_>
          <internalNodes>
            0 -1 52 -43322976 659502850 -183451376 491999232 -1576873829
            1686178304 8458441 1563099656</internalNodes>
          <leafValues>
            -7.8287601470947266e-01 5.8201307058334351e-01</leafValues></_></weakClassifiers></_>
    <!-- stage 18 -->
    <_>
      <maxWeakCount>6</maxWeakCount>
      <stageThreshold>-1.4171204566955566e+00</stageThreshold>
      <weakClassifiers>
        <_>
          <internalNodes>
            0 -1 71 -1461698119 -1467989981 -2129652427 -2008932344
            -1182756679 -1439952894 -1727993173 212510924</internalNodes>
          <leafValues>
            -7.8362572193145752e-01 5.3100156784057617e-01</leafValues></_>
        <_>
          <internalNodes>
            0 -1 82 -1146357064 -336662816 1836296736 -639636899
            -1251415673 -2051277313 -862661149 -808081979</internalNodes>
          <leafValues>
            -4.9127912521362305e-01 6.2919867038726807e-01</leafValues></_>
        <_>
          <internalNodes>
            0 -1 49 189729178 -279636597 -1976516607 -656113660
            -1560216430 -50296695 -1258287104 -83775481</internalNodes>
          <leafValues>
            -7.5608044862747192e-01 4.4540697336196899e-01</leafValues></_>
        <_>
          <internalNodes>
            0 -1 32 -8136498 -1760423807 1090551810 -1360887799
            -924602229 1963163656 -1065320381 -410875773</internalNodes>
          <leafValues>
            -5.8327227830886841e-01 6.1627131700515747e-01</leafValues></_>
        <_>
          <internalNodes>
            0 -1 21 35011581 905715717 134275357 -91815865 2080918300
            1804337283 654968081 -273710909</internalNodes>
          <leafValues>
            -6.8600821495056152e-01 4.8050734400749207e-01</leafValues></_>
        <_>
          <internalNodes>
            0 -1 70 -2130120256 -981168084 -1303146304 -1982647844
            -1342128110 -1499987968 436388739 -1145436275</internalNodes>
          <leafValues>
            -6.3296943902969360e-01 5.5864650011062622e-01</leafValues></_></weakClassifiers></_>
    <!-- stage 19 -->
    <_>
      <maxWeakCount>6</maxWeakCount>
      <stageThreshold>-1.0499187707901001e+00</stageThreshold>
      <weakClassifiers>
        <_>
          <internalNodes>
            0 -1 29 -1897093150 846364531 -285278209 -1342275714
            -327881137 1148485231 888471551 552665082</internalNodes>
          <leafValues>
            -6.0888886451721191e-01 7.2097212076187134e-01</leafValues></_>
        <_>
          <internalNodes>
            0 -1 75 -259395608 -1316990591 -1006469120 -1190852025
            916754907 541791360 -1006590838 382183563</internalNodes>
          <leafValues>
            -6.0633856058120728e-01 6.1044973134994507e-01</leafValues></_>
        <_>
          <internalNodes>
            0 -1 60 -1877978936 -1863769719 -1341844925 -1719664576
            -2013263799 -1597439992 -394245120 -134135665</internalNodes>
          <leafValues>
            -6.8383109569549561e-01 5.7500278949737549e-01</leafValues></_>
        <_>
          <internalNodes>
            0 -1 77 -551930704 -945946643 -1092976645 -1162249167
            -1238845506 -2097284099 -1757497725 -1275879267</internalNodes>
          <leafValues>
            -5.0270038843154907e-01 7.5722914934158325e-01</leafValues></_>
        <_>
          <internalNodes>
            0 -1 28 1056048541 2145255125 -4325761 -1560500500
            -277547048 -681189386 -8929963 -1265629148</internalNodes>
          <leafValues>
            -5.8105289936065674e-01 6.5371018648147583e-01</leafValues></_>
        <_>
          <internalNodes>
            0 -1 39 -922632186 -599769080 134316445 1361182744
            -2147319440 -1056931839 -2113762150 925802414</internalNodes>
          <leafValues>
            -6.5580177307128906e-01 6.0444664955139160e-01</leafValues></_></weakClassifiers></_></stages>
  <features>
    <_>
      <rect>
        0 0 8 30</rect></_>
    <_>
      <rect>
        0 0 11 30</rect></_>
    <_>
      <rect>
        0 6 6 28</rect></_>
    <_>
      <rect>
        0 9 12 27</rect></_>
    <_>
      <rect>
        0 20 13 13</rect></_>
    <_>
      <rect>
        0 29 12 7</rect></_>
    <_>
      <rect>
        0 29 13 13</rect></_>
    <_>
      <rect>
        0 33 11 6</rect></_>
    <_>
      <rect>
        0 35 3 10</rect></_>
    <_>
      <rect>
        0 35 9 10</rect></_>
    <_>
      <rect>
        0 39 12 4</rect></_>
    <_>
      <rect>
        0 40 5 8</rect></_>
    <_>
      <rect>
        0 41 12 4</rect></_>
    <_>
      <rect>
        0 41 13 7</rect></_>
    <_>
      <rect>
        0 43 3 4</rect></_>
    <_>
      <rect>
        0 46 4 4</rect></_>
    <_>
      <rect>
        0 51 9 13</rect></_>
    <_>
      <rect>
        0 51 12 12</rect></_>
    <_>
      <rect>
        0 53 4 3</rect></_>
    <_>
      <rect>
        0 54 3 3</rect></_>
    <_>
      <rect>
        0 54 4 3</rect></_>
    <_>
      <rect>
        0 65 9 8</rect></_>
    <_>
      <rect>
        1 34 7 7</rect></_>
    <_>
      <rect>
        1 41 13 16</rect></_>
    <_>
      <rect>
        1 45 1 1</rect></_>
    <_>
      <rect>
        1 45 2 12</rect></_>
    <_>
      <rect>
        1 47 1 1</rect></_>
    <_>
      <rect>
        1 48 13 14</rect></_>
    <_>
      <rect>
        3 3 5 3</rect></_>
    <_>
      <rect>
        3 43 7 7</rect></_>
    <_>
      <rect>
        3 53 3 3</rect></_>
    <_>
      <rect>
        3 56 4 3</rect></_>
    <_>
      <rect>
        4 45 6 4</rect></_>
    <_>
      <rect>
        5 36 9 8</rect></_>
    <_>
      <rect>
        5 54 4 3</rect></_>
    <_>
      <rect>
        6 32 9 11</rect></_>
    <_>
      <rect>
        6 33 9 11</rect></_>
    <_>
      <rect>
        6 35 7 9</rect></_>
    <_>
      <rect>
        7 1 11 20</rect></_>
    <_>
      <rect>
        7 29 6 5</rect></_>
    <_>
      <rect>
        7 39 11 6</rect></_>
    <_>
      <rect>
        7 42 6 5</rect></_>
    <_>
      <rect>
        7 42 9 3</rect></_>
    <_>
      <rect>
        8 33 7 11</rect></_>
    <_>
      <rect>
        8 40 7 7</rect></_>
    <_>
      <rect>
        8 54 2 3</rect></_>
    <_>
      <rect>
        10 27 10 13</rect></_>
    <_>
      <rect>
        10 36 4 4</rect></_>
    <_>
      <rect>
        10 42 3 2</rect></_>
    <_>
      <rect>
        11 38 5 5</rect></_>
    <_>
      <rect>
        12 44 4 3</rect></_>
    <_>
      <rect>
        13 5 9 28</rect></_>
    <_>
      <rect>
        13 45 3 3</rect></_>
    <_>
      <rect>
        14 41 5 2</rect></_>
    <_>
      <rect>
        15 2 8 26</rect></_>
    <_>
      <rect>
        15 6 8 20</rect></_>
    <_>
      <rect>
        16 6 8 28</rect></_>
    <_>
      <rect>
        16 34 8 8</rect></_>
    <_>
      <rect>
        16 40 3 3</rect></_>
    <_>
      <rect>
        18 40 2 2</rect></_>
    <_>
      <rect>
        18 42 3 2</rect></_>
    <_>
      <rect>
        18 43 3 2</rect></_>
    <_>
      <rect>
        18 44 1 1</rect></_>
    <_>
      <rect>
        18 44 2 1</rect></_>
    <_>
      <rect>
        18 44 7 15</rect></_>
    <_>
      <rect>
        18 45 7 14</rect></_>
    <_>
      <rect>
        18 46 1 1</rect></_>
    <_>
      <rect>
        19 44 1 1</rect></_>
    <_>
      <rect>
        19 45 3 3</rect></_>
    <_>
      <rect>
        19 46 1 1</rect></_>
    <_>
      <rect>
        19 47 1 1</rect></_>
    <_>
      <rect>
        20 40 2 1</rect></_>
    <_>
      <rect>
        20 44 1 1</rect></_>
    <_>
      <rect>
        20 45 1 1</rect></_>
    <_>
      <rect>
        20 45 3 2</rect></_>
    <_>
      <rect>
        20 45 3 3</rect></_>
    <_>
      <rect>
        20 47 1 1</rect></_>
    <_>
      <rect>
        21 45 1 1</rect></_>
    <_>
      <rect>
        21 45 2 2</rect></_>
    <_>
      <rect>
        21 49 1 1</rect></_>
    <_>
      <rect>
        22 7 6 27</rect></_>
    <_>
      <rect>
        22 45 1 1</rect></_>
    <_>
      <rect>
        22 47 1 1</rect></_>
    <_>
      <rect>
        22 48 1 1</rect></_>
    <_>
      <rect>
        22 49 1 1</rect></_>
    <_>
      <rect>
        22 55 6 3</rect></_>
    <_>
      <rect>
        22 56 6 4</rect></_>
    <_>
      <rect>
        23 48 1 1</rect></_>
    <_>
      <rect>
        25 57 5 7</rect></_>
    <_>
      <rect>
        27 61 4 3</rect></_></features></cascade>
</opencv_storage>
