<?xml version="1.0"?>
<opencv_storage>
<cascade>
  <stageType>BOOST</stageType>
  <featureType>LBP</featureType>
  <height>90</height>
  <width>40</width>
  <stageParams>
    <boostType>GAB</boostType>
    <minHitRate>9.9900001287460327e-01</minHitRate>
    <maxFalseAlarm>5.0000000000000000e-01</maxFalseAlarm>
    <weightTrimRate>9.4999999999999996e-01</weightTrimRate>
    <maxDepth>1</maxDepth>
    <maxWeakCount>100</maxWeakCount></stageParams>
  <featureParams>
    <maxCatCount>256</maxCatCount>
    <featSize>1</featSize></featureParams>
  <stageNum>20</stageNum>
  <stages>
    <!-- stage 0 -->
    <_>
      <maxWeakCount>3</maxWeakCount>
      <stageThreshold>-9.6902596950531006e-01</stageThreshold>
      <weakClassifiers>
        <_>
          <internalNodes>
            0 -1 6 -170143281 1342242816 0 1076035584 163850 0 32768
            1359151115</internalNodes>
          <leafValues>
            -9.8653197288513184e-01 9.8011928796768188e-01</leafValues></_>
        <_>
          <internalNodes>
            0 -1 11 -100925441 -34375809 2013265791 1945337727
            -570425345 -1778681985 -1073741825 1442052095</internalNodes>
          <leafValues>
            -8.7791401147842407e-01 9.8195958137512207e-01</leafValues></_>
        <_>
          <internalNodes>
            0 -1 12 -170133653 -787398655 65538 1493255169 -2147483264 0
            1132462090 50577923</internalNodes>
          <leafValues>
            -9.6853309869766235e-01 8.9542001485824585e-01</leafValues></_></weakClassifiers></_>
    <!-- stage 1 -->
    <_>
      <maxWeakCount>3</maxWeakCount>
      <stageThreshold>-9.7123211622238159e-01</stageThreshold>
      <weakClassifiers>
        <_>
          <internalNodes>
            0 -1 10 -1 -1056735227 -55 -235440257 -1 1082390527 -5
            1911814143</internalNodes>
          <leafValues>
            -8.4949833154678345e-01 9.0618765354156494e-01</leafValues></_>
        <_>
          <internalNodes>
            0 -1 63 -1903436289 2265091 1343324163 541212673 421740751
            229643 -1853109557 -408946037</internalNodes>
          <leafValues>
            -8.5511058568954468e-01 7.5189435482025146e-01</leafValues></_>
        <_>
          <internalNodes>
            0 -1 15 -11152013 1964195843 16957519 -788413787 2154583
            67309571 1377948035 -139734549</internalNodes>
          <leafValues>
            -7.4745357036590576e-01 7.3337686061859131e-01</leafValues></_></weakClassifiers></_>
    <!-- stage 2 -->
    <_>
      <maxWeakCount>2</maxWeakCount>
      <stageThreshold>-2.6749378442764282e-01</stageThreshold>
      <weakClassifiers>
        <_>
          <internalNodes>
            0 -1 51 -104078849 -553418750 -1069514558 -1852325873
            -536362865 470220802 -2124701557 1006369215</internalNodes>
          <leafValues>
            -9.5202952623367310e-01 8.6578452587127686e-01</leafValues></_>
        <_>
          <internalNodes>
            0 -1 13 -40903753 -11550713 -1325348065 -682376883
            -670381921 2001404803 16810239 2009022875</internalNodes>
          <leafValues>
            -8.3926182985305786e-01 6.8453574180603027e-01</leafValues></_></weakClassifiers></_>
    <!-- stage 3 -->
    <_>
      <maxWeakCount>2</maxWeakCount>
      <stageThreshold>-3.0739250779151917e-01</stageThreshold>
      <weakClassifiers>
        <_>
          <internalNodes>
            0 -1 6 -72876085 -2147229182 -2146922456 -83345279
            -802436957 -243142206 -473775997 2079293435</internalNodes>
          <leafValues>
            -9.4444441795349121e-01 6.9178080558776855e-01</leafValues></_>
        <_>
          <internalNodes>
            0 -1 87 1040088541 -816326757 -197564426 -360011686
            -576028575 -1022840653 -1954421168 -1372574384</internalNodes>
          <leafValues>
            -7.5484281778335571e-01 6.3705193996429443e-01</leafValues></_></weakClassifiers></_>
    <!-- stage 4 -->
    <_>
      <maxWeakCount>5</maxWeakCount>
      <stageThreshold>-6.6622924804687500e-01</stageThreshold>
      <weakClassifiers>
        <_>
          <internalNodes>
            0 -1 17 -112921227 1393672661 1368564048 -787939312 4468832
            1695779722 1627551203 -7345154</internalNodes>
          <leafValues>
            -7.6447105407714844e-01 7.1246588230133057e-01</leafValues></_>
        <_>
          <internalNodes>
            0 -1 4 301800319 -1103441479 899937770 -23800680 957444949
            -247557989 -905008384 -185323276</internalNodes>
          <leafValues>
            -7.2027957439422607e-01 6.7081642150878906e-01</leafValues></_>
        <_>
          <internalNodes>
            0 -1 28 -33587329 -114825 -13 -1090635915 -8422025 -4341953
            2142666613 -1094828683</internalNodes>
          <leafValues>
            -6.0070365667343140e-01 7.5078839063644409e-01</leafValues></_>
        <_>
          <internalNodes>
            0 -1 80 1073626621 -318832641 -1 -353566721 -167772219
            -1099038794 -1092747408 -1129804556</internalNodes>
          <leafValues>
            -6.3875561952590942e-01 7.4024653434753418e-01</leafValues></_>
        <_>
          <internalNodes>
            0 -1 16 -44106753 1429852247 -788528763 -784236479
            -2008878645 77299723 -1022860273 -6584169</internalNodes>
          <leafValues>
            -6.4836347103118896e-01 7.0648860931396484e-01</leafValues></_></weakClassifiers></_>
    <!-- stage 5 -->
    <_>
      <maxWeakCount>5</maxWeakCount>
      <stageThreshold>-7.7058619260787964e-01</stageThreshold>
      <weakClassifiers>
        <_>
          <internalNodes>
            0 -1 60 -1343230513 773838211 -2147368959 306954311 33828867
            409124865 -520019966 -540544609</internalNodes>
          <leafValues>
            -7.0479702949523926e-01 7.3913043737411499e-01</leafValues></_>
        <_>
          <internalNodes>
            0 -1 21 -74451085 -535485883 -737426416 -799752189 4202528
            1895923721 271544515 -22619142</internalNodes>
          <leafValues>
            -7.8204315900802612e-01 6.3785892724990845e-01</leafValues></_>
        <_>
          <internalNodes>
            0 -1 30 -571473953 -1055796958 -169814846 -872249742
            -519968672 4554799 -1551591424 -146361594</internalNodes>
          <leafValues>
            -6.6335433721542358e-01 6.8948674201965332e-01</leafValues></_>
        <_>
          <internalNodes>
            0 -1 36 -70035893 620843265 -905904128 -1038499258 715810847
            293855360 -536688634 -541400421</internalNodes>
          <leafValues>
            -6.6596508026123047e-01 6.5266776084899902e-01</leafValues></_>
        <_>
          <internalNodes>
            0 -1 20 -25793961 -1073626109 -2147254015 1904492544
            -1744777112 -394079997 -2147270624 -16749536</internalNodes>
          <leafValues>
            -6.0351109504699707e-01 6.9273239374160767e-01</leafValues></_></weakClassifiers></_>
    <!-- stage 6 -->
    <_>
      <maxWeakCount>5</maxWeakCount>
      <stageThreshold>-8.4314531087875366e-01</stageThreshold>
      <weakClassifiers>
        <_>
          <internalNodes>
            0 -1 62 -1369451521 4216076 -2146922471 550748677 1654498571
            35328013 -536807397 -139730269</internalNodes>
          <leafValues>
            -7.4642127752304077e-01 6.8856883049011230e-01</leafValues></_>
        <_>
          <internalNodes>
            0 -1 82 -1084230194 -2146876538 33556032 -1601895160
            -1044198803 537889923 -771652479 -1056972917</internalNodes>
          <leafValues>
            -7.3334604501724243e-01 5.7617938518524170e-01</leafValues></_>
        <_>
          <internalNodes>
            0 -1 22 -807142565 -581723965 -770998077 -518978808 10542171
            1728266408 1121477203 -83117109</internalNodes>
          <leafValues>
            -6.7248409986495972e-01 6.0134911537170410e-01</leafValues></_>
        <_>
          <internalNodes>
            0 -1 49 -1294732293 -637320939 -1072529388 -369093799
            1484956674 -1568505726 4382768 -1262186428</internalNodes>
          <leafValues>
            -6.9579178094863892e-01 6.1218541860580444e-01</leafValues></_>
        <_>
          <internalNodes>
            0 -1 23 -1 -939526153 -16777217 2013200375 -889257993
            1155530623 -134219777 -134348809</internalNodes>
          <leafValues>
            -5.7691252231597900e-01 7.4154776334762573e-01</leafValues></_></weakClassifiers></_>
    <!-- stage 7 -->
    <_>
      <maxWeakCount>5</maxWeakCount>
      <stageThreshold>-7.9757100343704224e-01</stageThreshold>
      <weakClassifiers>
        <_>
          <internalNodes>
            0 -1 18 -268435489 110098423 -2147401727 -247246784
            -1500794357 80846944 1183449153 -74719157</internalNodes>
          <leafValues>
            -5.7606840133666992e-01 7.2610837221145630e-01</leafValues></_>
        <_>
          <internalNodes>
            0 -1 19 1341913639 2005238029 -1711226622 -754384743 65555
            898465929 1217041125 2146159355</internalNodes>
          <leafValues>
            -8.3435899019241333e-01 5.0199389457702637e-01</leafValues></_>
        <_>
          <internalNodes>
            0 -1 64 -1 -924057857 -285278209 -956367112 -1208008073
            1434417143 -1 -402718722</internalNodes>
          <leafValues>
            -6.0754060745239258e-01 6.2654268741607666e-01</leafValues></_>
        <_>
          <internalNodes>
            0 -1 38 -648326685 1771143337 1208486154 1713115144
            -1986348077 -1859581784 -1601713663 -469555007</internalNodes>
          <leafValues>
            -6.6271287202835083e-01 6.1392265558242798e-01</leafValues></_>
        <_>
          <internalNodes>
            0 -1 35 -670075573 1073872896 -1073725424 -1056964606
            -2147335158 180226 1610613027 -641506845</internalNodes>
          <leafValues>
            -6.5315026044845581e-01 6.2198734283447266e-01</leafValues></_></weakClassifiers></_>
    <!-- stage 8 -->
    <_>
      <maxWeakCount>5</maxWeakCount>
      <stageThreshold>-1.0343446731567383e+00</stageThreshold>
      <weakClassifiers>
        <_>
          <internalNodes>
            0 -1 9 -128995889 -888733566 -536311552 -737474419
            -805067639 -1534557184 -2012503933 1909973023</internalNodes>
          <leafValues>
            -6.8611669540405273e-01 6.7180418968200684e-01</leafValues></_>
        <_>
          <internalNodes>
            0 -1 52 920649727 1065603083 -1606188544 436453379
            1619738753 58970241 -1073642877 865060938</internalNodes>
          <leafValues>
            -8.4381175041198730e-01 5.1129776239395142e-01</leafValues></_>
        <_>
          <internalNodes>
            0 -1 29 -1848705 -1709080576 -1071983518 93307136
            -1052378332 55084046 -963122960 -178200622</internalNodes>
          <leafValues>
            -6.3410824537277222e-01 5.9007412195205688e-01</leafValues></_>
        <_>
          <internalNodes>
            0 -1 34 -598911529 -469249728 -788419392 -892305340
            -1970883869 -530407232 -1918113680 -457119100</internalNodes>
          <leafValues>
            -6.8229854106903076e-01 6.0022157430648804e-01</leafValues></_>
        <_>
          <internalNodes>
            0 -1 65 -209717253 -1475741947 -1069465183 1691463960
            -1840537381 1074299018 -150470007 -191510144</internalNodes>
          <leafValues>
            -7.1887397766113281e-01 5.2947044372558594e-01</leafValues></_></weakClassifiers></_>
    <!-- stage 9 -->
    <_>
      <maxWeakCount>6</maxWeakCount>
      <stageThreshold>-7.0260715484619141e-01</stageThreshold>
      <weakClassifiers>
        <_>
          <internalNodes>
            0 -1 59 -140647797 -1873047414 196609 388087817 -650010584
            301989888 -1589329768 936370051</internalNodes>
          <leafValues>
            -7.9891306161880493e-01 5.6331169605255127e-01</leafValues></_>
        <_>
          <internalNodes>
            0 -1 3 -250755121 -889126261 16782086 84517147 -2105474359
            -2130640888 167972363 1158127631</internalNodes>
          <leafValues>
            -6.8529158830642700e-01 5.0043100118637085e-01</leafValues></_>
        <_>
          <internalNodes>
            0 -1 40 -1511734821 -200191477 -1711030272 -329875126
            -352212057 -1425373080 -1609848320 -185280316</internalNodes>
          <leafValues>
            -6.9553077220916748e-01 5.7837080955505371e-01</leafValues></_>
        <_>
          <internalNodes>
            0 -1 77 1562113907 637789495 -1840216992 -523120631
            -695891573 9011210 -1534998400 -991849976</internalNodes>
          <leafValues>
            -7.3950117826461792e-01 4.6996971964836121e-01</leafValues></_>
        <_>
          <internalNodes>
            0 -1 54 -2099084506 -1389912055 -2146336633 -1459552239
            862930815 730497026 805988103 -159135574</internalNodes>
          <leafValues>
            -6.9851076602935791e-01 5.2264153957366943e-01</leafValues></_>
        <_>
          <internalNodes>
            0 -1 66 -1558982025 -1623182763 -2063335035 1029022662
            -1869158043 -683633272 830782407 600828527</internalNodes>
          <leafValues>
            -7.0686346292495728e-01 5.0826537609100342e-01</leafValues></_></weakClassifiers></_>
    <!-- stage 10 -->
    <_>
      <maxWeakCount>5</maxWeakCount>
      <stageThreshold>-6.6936355829238892e-01</stageThreshold>
      <weakClassifiers>
        <_>
          <internalNodes>
            0 -1 69 -1496847537 34202506 1880113156 1084020104
            1535363215 50905217 -335314560 -418403704</internalNodes>
          <leafValues>
            -6.8710356950759888e-01 6.4330077171325684e-01</leafValues></_>
        <_>
          <internalNodes>
            0 -1 14 520223591 1067558607 -1069547392 -177102195
            1460373379 1631617154 -314529650 2123342793</internalNodes>
          <leafValues>
            -8.0832922458648682e-01 4.3786767125129700e-01</leafValues></_>
        <_>
          <internalNodes>
            0 -1 37 -1709165920 -778737215 985661190 1406373296
            -1482625520 -283886170 -1558913118 -1214640992</internalNodes>
          <leafValues>
            -5.4287743568420410e-01 6.2302464246749878e-01</leafValues></_>
        <_>
          <internalNodes>
            0 -1 84 -1151769609 1610924318 17140820 -1073561565
            -1609875291 -2050949111 -2114863003 -361172656</internalNodes>
          <leafValues>
            -5.9165275096893311e-01 6.0471498966217041e-01</leafValues></_>
        <_>
          <internalNodes>
            0 -1 81 -1818715968 -2068961560 -217788252 -570942064
            -2019510896 -1451202675 -1223653898 -74477062</internalNodes>
          <leafValues>
            -4.5149955153465271e-01 7.7373629808425903e-01</leafValues></_></weakClassifiers></_>
    <!-- stage 11 -->
    <_>
      <maxWeakCount>4</maxWeakCount>
      <stageThreshold>-1.3373874425888062e+00</stageThreshold>
      <weakClassifiers>
        <_>
          <internalNodes>
            0 -1 43 630194175 667214290 -805109760 -1521881072
            2064121839 516172940 -1903722368 800059633</internalNodes>
          <leafValues>
            -7.2557175159454346e-01 6.6934764385223389e-01</leafValues></_>
        <_>
          <internalNodes>
            0 -1 86 -1324280331 -1808201582 621347240 -493055613
            -1450515465 -385318784 -1718973952 -54224156</internalNodes>
          <leafValues>
            -6.2249732017517090e-01 5.7560634613037109e-01</leafValues></_>
        <_>
          <internalNodes>
            0 -1 56 -1352794137 651100034 25182336 -1413119872
            2030649739 363692190 -1953116160 -269626675</internalNodes>
          <leafValues>
            -7.6458078622817993e-01 4.8145458102226257e-01</leafValues></_>
        <_>
          <internalNodes>
            0 -1 48 553648633 42016917 -1862204523 -292290304 830513334
            -1312258024 -1559592960 -1885265840</internalNodes>
          <leafValues>
            -6.1965698003768921e-01 5.8179962635040283e-01</leafValues></_></weakClassifiers></_>
    <!-- stage 12 -->
    <_>
      <maxWeakCount>6</maxWeakCount>
      <stageThreshold>-7.8217756748199463e-01</stageThreshold>
      <weakClassifiers>
        <_>
          <internalNodes>
            0 -1 25 570291155 226787999 -1995898425 -1248354176
            818429951 682188969 1238976131 1071366558</internalNodes>
          <leafValues>
            -8.0045354366302490e-01 6.4969801902770996e-01</leafValues></_>
        <_>
          <internalNodes>
            0 -1 61 -1375666265 179452876 625349909 -2121638 1510326715
            109126826 -1727360636 -538146808</internalNodes>
          <leafValues>
            -7.1984976530075073e-01 5.8141505718231201e-01</leafValues></_>
        <_>
          <internalNodes>
            0 -1 7 989903744 -656820411 654673677 -272138044 -1978947163
            -2138275349 -1748653823 -12468220</internalNodes>
          <leafValues>
            -7.2672390937805176e-01 5.1274055242538452e-01</leafValues></_>
        <_>
          <internalNodes>
            0 -1 33 -1840893561 -634306283 -788462247 -392427499
            -1593802575 -2087157748 822182752 -335238256</internalNodes>
          <leafValues>
            -6.4974522590637207e-01 6.1596691608428955e-01</leafValues></_>
        <_>
          <internalNodes>
            0 -1 72 572962 -1482345533 -1786642165 1027987561 -603717661
            1962967393 -251536211 998475659</internalNodes>
          <leafValues>
            -8.2540947198867798e-01 4.4332709908485413e-01</leafValues></_>
        <_>
          <internalNodes>
            0 -1 44 981734746 645669376 268731798 -1714486626 631386554
            11436464 -2013232767 -527941384</internalNodes>
          <leafValues>
            -8.4367281198501587e-01 4.3180325627326965e-01</leafValues></_></weakClassifiers></_>
    <!-- stage 13 -->
    <_>
      <maxWeakCount>4</maxWeakCount>
      <stageThreshold>-4.0345177054405212e-01</stageThreshold>
      <weakClassifiers>
        <_>
          <internalNodes>
            0 -1 0 -1547228177 -2133808213 -2147218745 -393940790
            -1878940769 -1018105342 -1601730071 2060151514</internalNodes>
          <leafValues>
            -7.9487180709838867e-01 6.3279247283935547e-01</leafValues></_>
        <_>
          <internalNodes>
            0 -1 68 268505301 -249327593 285234655 -1710734958 671676859
            -1146584951 -1524949932 -1092605788</internalNodes>
          <leafValues>
            -6.5458333492279053e-01 5.7197695970535278e-01</leafValues></_>
        <_>
          <internalNodes>
            0 -1 53 -530541508 1564779305 621285651 -6844155 -2071538761
            -1104606831 -1890640615 -39569144</internalNodes>
          <leafValues>
            -7.1308112144470215e-01 5.0340181589126587e-01</leafValues></_>
        <_>
          <internalNodes>
            0 -1 78 86034720 1158512648 -805240779 893716225 -243208807
            -1442653182 -2130521976 -1114519934</internalNodes>
          <leafValues>
            -6.8183797597885132e-01 5.4260158538818359e-01</leafValues></_></weakClassifiers></_>
    <!-- stage 14 -->
    <_>
      <maxWeakCount>5</maxWeakCount>
      <stageThreshold>-9.6986097097396851e-01</stageThreshold>
      <weakClassifiers>
        <_>
          <internalNodes>
            0 -1 8 -1988058992 265570360 219154941 -854718320 222829487
            -1450375107 -821818724 -1625257856</internalNodes>
          <leafValues>
            -7.6168227195739746e-01 6.1945390701293945e-01</leafValues></_>
        <_>
          <internalNodes>
            0 -1 42 17831121 -2129592238 16783839 -896925414 -2011518277
            -880082270 -1820261791 -58720128</internalNodes>
          <leafValues>
            -6.6314005851745605e-01 6.0777223110198975e-01</leafValues></_>
        <_>
          <internalNodes>
            0 -1 31 872426133 -132808703 -2063072875 219710224 747665339
            411567240 -351609686 -7593847</internalNodes>
          <leafValues>
            -6.7419105768203735e-01 5.0893783569335938e-01</leafValues></_>
        <_>
          <internalNodes>
            0 -1 39 280515285 -104103477 1367470530 -524550122
            -1182740432 -1056929661 -2121646012 -603975616</internalNodes>
          <leafValues>
            -7.4317771196365356e-01 4.7977241873741150e-01</leafValues></_>
        <_>
          <internalNodes>
            0 -1 26 -666859328 -72336372 -2593430 -786338254 -605625120
            -1758171288 -234832206 -138796408</internalNodes>
          <leafValues>
            -5.3374892473220825e-01 6.8725574016571045e-01</leafValues></_></weakClassifiers></_>
    <!-- stage 15 -->
    <_>
      <maxWeakCount>5</maxWeakCount>
      <stageThreshold>-1.0288014411926270e+00</stageThreshold>
      <weakClassifiers>
        <_>
          <internalNodes>
            0 -1 58 -738092281 -581914559 -1073409788 -594146867
            -251605321 -245200767 -500938997 687663257</internalNodes>
          <leafValues>
            -8.1914895772933960e-01 5.7843136787414551e-01</leafValues></_>
        <_>
          <internalNodes>
            0 -1 41 203035952 1024858389 -721272427 -595591159
            1007688950 767204544 -2139062136 -1163392888</internalNodes>
          <leafValues>
            -7.9635971784591675e-01 4.5482382178306580e-01</leafValues></_>
        <_>
          <internalNodes>
            0 -1 57 -1531907924 1946030527 -65537 -134217729 -476250209
            -18443 1182332919 -2132129</internalNodes>
          <leafValues>
            -5.0735199451446533e-01 6.7584717273712158e-01</leafValues></_>
        <_>
          <internalNodes>
            0 -1 46 83887292 -587186175 184879517 -1090255858
            -1979610198 -1618410622 -1691875189 -660602616</internalNodes>
          <leafValues>
            -6.8685418367385864e-01 4.7729948163032532e-01</leafValues></_>
        <_>
          <internalNodes>
            0 -1 73 -2147479522 -1581230078 1560461725 2139694473
            -1660779593 2013449312 -2105350005 784391326</internalNodes>
          <leafValues>
            -8.3504152297973633e-01 3.8333311676979065e-01</leafValues></_></weakClassifiers></_>
    <!-- stage 16 -->
    <_>
      <maxWeakCount>6</maxWeakCount>
      <stageThreshold>-1.1341100931167603e+00</stageThreshold>
      <weakClassifiers>
        <_>
          <internalNodes>
            0 -1 5 1647750927 -913275121 -2069822369 -452756657
            -888909937 -937950080 -874115569 86061831</internalNodes>
          <leafValues>
            -9.0697675943374634e-01 5.1809084415435791e-01</leafValues></_>
        <_>
          <internalNodes>
            0 -1 32 282333429 1918108017 1552693663 -1272971264
            551184575 -74939998 135892152 -1201143808</internalNodes>
          <leafValues>
            -5.4559010267257690e-01 5.8803755044937134e-01</leafValues></_>
        <_>
          <internalNodes>
            0 -1 71 957617557 1551042003 -1653600035 987632479
            -133631333 -1147434709 -795238172 -1408229180</internalNodes>
          <leafValues>
            -5.9681779146194458e-01 5.2917134761810303e-01</leafValues></_>
        <_>
          <internalNodes>
            0 -1 93 -580878168 -475951800 -1296297312 -139417915
            -1359332903 -826344072 -1275658244 -1277555582</internalNodes>
          <leafValues>
            -4.5790651440620422e-01 7.2059458494186401e-01</leafValues></_>
        <_>
          <internalNodes>
            0 -1 91 -696248952 -83948344 212657881 -777435940
            -1398493495 -1813504139 -1055856674 -1147631188</internalNodes>
          <leafValues>
            -4.2358466982841492e-01 7.3529314994812012e-01</leafValues></_>
        <_>
          <internalNodes>
            0 -1 76 269242850 890259797 -1048526776 -1487781291
            -268375657 1942159363 -2147439717 938192027</internalNodes>
          <leafValues>
            -7.5429099798202515e-01 4.5555332303047180e-01</leafValues></_></weakClassifiers></_>
    <!-- stage 17 -->
    <_>
      <maxWeakCount>7</maxWeakCount>
      <stageThreshold>-8.2001930475234985e-01</stageThreshold>
      <weakClassifiers>
        <_>
          <internalNodes>
            0 -1 50 -233781056 -699119598 1342242956 -1407045630
            -266928896 1881154081 1916928532 551562794</internalNodes>
          <leafValues>
            -7.1921181678771973e-01 5.7956451177597046e-01</leafValues></_>
        <_>
          <internalNodes>
            0 -1 85 347881471 -721682433 -65538 -385974274 -1094713345
            -671121412 -126 -50545288</internalNodes>
          <leafValues>
            -5.5239981412887573e-01 5.8753740787506104e-01</leafValues></_>
        <_>
          <internalNodes>
            0 -1 92 -794786592 -659794848 1006501077 -206219824
            -1934218012 -2071183792 -309795400 -1147530082</internalNodes>
          <leafValues>
            -4.5302700996398926e-01 7.1894222497940063e-01</leafValues></_>
        <_>
          <internalNodes>
            0 -1 2 -770340093 -1476349430 524546 -2138669045 537761807
            -1878259198 -2004868733 642095651</internalNodes>
          <leafValues>
            -6.5060657262802124e-01 5.4518014192581177e-01</leafValues></_>
        <_>
          <internalNodes>
            0 -1 90 -1201629016 -819102174 -402653446 -505582163
            -2014523398 -1540393282 -567085313 -1430579060</internalNodes>
          <leafValues>
            -5.4911714792251587e-01 6.3750338554382324e-01</leafValues></_>
        <_>
          <internalNodes>
            0 -1 70 -1000812346 -565546852 -805285888 -2136850412
            537485409 1627525762 1636305032 -1998525567</internalNodes>
          <leafValues>
            -6.9403570890426636e-01 5.3436994552612305e-01</leafValues></_>
        <_>
          <internalNodes>
            0 -1 75 -611183524 924647709 -1719548153 37947403
            -1559715649 -1504050686 -70743409 538127595</internalNodes>
          <leafValues>
            -7.2396570444107056e-01 5.0353747606277466e-01</leafValues></_></weakClassifiers></_>
    <!-- stage 18 -->
    <_>
      <maxWeakCount>8</maxWeakCount>
      <stageThreshold>-5.5559760332107544e-01</stageThreshold>
      <weakClassifiers>
        <_>
          <internalNodes>
            0 -1 89 -1442267008 -2006308320 -899582750 -2131620412
            -1441744294 -2110589988 -1539651649 -1548052999</internalNodes>
          <leafValues>
            -3.7367624044418335e-01 6.8903088569641113e-01</leafValues></_>
        <_>
          <internalNodes>
            0 -1 27 -724861569 -1869395884 -862398299 -1673232122
            -320160426 -1591050170 -259973056 -212844176</internalNodes>
          <leafValues>
            -5.8975440263748169e-01 5.3161263465881348e-01</leafValues></_>
        <_>
          <internalNodes>
            0 -1 55 -794263392 -323295038 -1981362571 -604187120
            -1138871184 1207772624 124826914 -88430594</internalNodes>
          <leafValues>
            -4.7822338342666626e-01 6.6831672191619873e-01</leafValues></_>
        <_>
          <internalNodes>
            0 -1 88 -456994208 -1608782104 -358744712 -253071871
            -1296390442 -1943289894 1975450602 -1075868203</internalNodes>
          <leafValues>
            -4.3903884291648865e-01 7.2960603237152100e-01</leafValues></_>
        <_>
          <internalNodes>
            0 -1 95 -1800879896 -2115565460 1509846944 -219209488
            -1964706056 -1673646156 -1432174602 -1178992440</internalNodes>
          <leafValues>
            -5.0015264749526978e-01 6.4594686031341553e-01</leafValues></_>
        <_>
          <internalNodes>
            0 -1 83 -205983542 1814652714 866220065 -487776419
            -1724254056 -1384366385 926652090 -1413498388</internalNodes>
          <leafValues>
            -3.9369747042655945e-01 8.1396234035491943e-01</leafValues></_>
        <_>
          <internalNodes>
            0 -1 47 -1607952232 -1600094046 -1073508350 -2112192128
            -1507810784 1107837000 -108355584 -1293418310</internalNodes>
          <leafValues>
            -5.5726099014282227e-01 6.1440509557723999e-01</leafValues></_>
        <_>
          <internalNodes>
            0 -1 1 1877867495 -151257345 -24593 -18940162 -1074266139
            -167903364 -134250649 -959664804</internalNodes>
          <leafValues>
            -5.5396723747253418e-01 6.4865034818649292e-01</leafValues></_></weakClassifiers></_>
    <!-- stage 19 -->
    <_>
      <maxWeakCount>7</maxWeakCount>
      <stageThreshold>-1.2701110839843750e+00</stageThreshold>
      <weakClassifiers>
        <_>
          <internalNodes>
            0 -1 74 411844 1359003735 541067347 1024798913 -2142989945
            998277456 109056699 601820107</internalNodes>
          <leafValues>
            -7.0414203405380249e-01 5.0554674863815308e-01</leafValues></_>
        <_>
          <internalNodes>
            0 -1 94 -653780784 -976676664 -118956826 -639694339
            -2085052877 -1936077825 -1117078088 -13893480</internalNodes>
          <leafValues>
            -4.1833141446113586e-01 6.9239163398742676e-01</leafValues></_>
        <_>
          <internalNodes>
            0 -1 45 -559903016 -1490940820 -1911227400 -33698639
            -1263531906 -1744994954 -1507018346 -1147366264</internalNodes>
          <leafValues>
            -4.2305254936218262e-01 6.7988198995590210e-01</leafValues></_>
        <_>
          <internalNodes>
            0 -1 24 -1074757396 -571445299 -1118556 -624488848
            -1931157816 1712152410 -711411823 -1145564780</internalNodes>
          <leafValues>
            -4.2437258362770081e-01 6.6679769754409790e-01</leafValues></_>
        <_>
          <internalNodes>
            0 -1 67 708324401 -1901154892 -496042317 1748415869
            -1853966593 -1880850572 -1215537165 -1145141032</internalNodes>
          <leafValues>
            -4.5357117056846619e-01 6.6869050264358521e-01</leafValues></_>
        <_>
          <internalNodes>
            0 -1 96 -1805630272 -1460795816 -85028981 -739666884
            -290260324 -2072512516 -1371548355 -1078382338</internalNodes>
          <leafValues>
            -4.8803877830505371e-01 6.4160853624343872e-01</leafValues></_>
        <_>
          <internalNodes>
            0 -1 79 -73355264 -1113350136 -922646220 1544798786
            -1065049968 -1065353088 1498341526 1373620363</internalNodes>
          <leafValues>
            -6.9055300951004028e-01 4.8748204112052917e-01</leafValues></_></weakClassifiers></_></stages>
  <features>
    <_>
      <rect>
        0 0 8 30</rect></_>
    <_>
      <rect>
        0 1 4 2</rect></_>
    <_>
      <rect>
        0 1 8 21</rect></_>
    <_>
      <rect>
        0 1 12 21</rect></_>
    <_>
      <rect>
        0 2 6 3</rect></_>
    <_>
      <rect>
        0 3 11 22</rect></_>
    <_>
      <rect>
        0 3 12 29</rect></_>
    <_>
      <rect>
        0 9 10 12</rect></_>
    <_>
      <rect>
        0 11 10 11</rect></_>
    <_>
      <rect>
        0 11 13 16</rect></_>
    <_>
      <rect>
        0 14 13 20</rect></_>
    <_>
      <rect>
        0 18 13 19</rect></_>
    <_>
      <rect>
        0 24 13 11</rect></_>
    <_>
      <rect>
        0 26 12 9</rect></_>
    <_>
      <rect>
        0 33 12 8</rect></_>
    <_>
      <rect>
        0 36 11 10</rect></_>
    <_>
      <rect>
        0 36 13 11</rect></_>
    <_>
      <rect>
        0 38 10 9</rect></_>
    <_>
      <rect>
        0 38 13 11</rect></_>
    <_>
      <rect>
        0 39 9 4</rect></_>
    <_>
      <rect>
        0 40 2 7</rect></_>
    <_>
      <rect>
        0 41 9 8</rect></_>
    <_>
      <rect>
        0 41 10 6</rect></_>
    <_>
      <rect>
        0 42 13 8</rect></_>
    <_>
      <rect>
        0 44 1 1</rect></_>
    <_>
      <rect>
        0 46 12 12</rect></_>
    <_>
      <rect>
        0 47 1 1</rect></_>
    <_>
      <rect>
        0 47 3 4</rect></_>
    <_>
      <rect>
        0 47 3 8</rect></_>
    <_>
      <rect>
        0 47 5 4</rect></_>
    <_>
      <rect>
        0 48 5 4</rect></_>
    <_>
      <rect>
        0 58 7 10</rect></_>
    <_>
      <rect>
        0 63 11 7</rect></_>
    <_>
      <rect>
        1 0 6 2</rect></_>
    <_>
      <rect>
        1 8 4 2</rect></_>
    <_>
      <rect>
        1 30 3 19</rect></_>
    <_>
      <rect>
        1 33 12 14</rect></_>
    <_>
      <rect>
        1 49 1 1</rect></_>
    <_>
      <rect>
        2 0 12 2</rect></_>
    <_>
      <rect>
        2 1 3 3</rect></_>
    <_>
      <rect>
        2 3 6 3</rect></_>
    <_>
      <rect>
        2 59 12 8</rect></_>
    <_>
      <rect>
        3 0 11 5</rect></_>
    <_>
      <rect>
        3 48 12 11</rect></_>
    <_>
      <rect>
        3 61 12 7</rect></_>
    <_>
      <rect>
        4 50 1 1</rect></_>
    <_>
      <rect>
        5 10 11 10</rect></_>
    <_>
      <rect>
        5 41 1 1</rect></_>
    <_>
      <rect>
        6 0 8 2</rect></_>
    <_>
      <rect>
        6 4 4 3</rect></_>
    <_>
      <rect>
        6 47 6 5</rect></_>
    <_>
      <rect>
        7 9 11 27</rect></_>
    <_>
      <rect>
        7 40 10 16</rect></_>
    <_>
      <rect>
        8 2 10 13</rect></_>
    <_>
      <rect>
        8 37 6 7</rect></_>
    <_>
      <rect>
        8 51 1 1</rect></_>
    <_>
      <rect>
        9 36 10 13</rect></_>
    <_>
      <rect>
        9 40 5 7</rect></_>
    <_>
      <rect>
        10 15 10 20</rect></_>
    <_>
      <rect>
        10 17 9 24</rect></_>
    <_>
      <rect>
        10 34 10 17</rect></_>
    <_>
      <rect>
        10 35 10 10</rect></_>
    <_>
      <rect>
        10 36 10 9</rect></_>
    <_>
      <rect>
        10 37 10 13</rect></_>
    <_>
      <rect>
        10 48 9 4</rect></_>
    <_>
      <rect>
        10 50 10 3</rect></_>
    <_>
      <rect>
        11 38 5 4</rect></_>
    <_>
      <rect>
        12 28 1 1</rect></_>
    <_>
      <rect>
        13 0 9 5</rect></_>
    <_>
      <rect>
        13 37 9 10</rect></_>
    <_>
      <rect>
        13 47 4 5</rect></_>
    <_>
      <rect>
        14 0 5 3</rect></_>
    <_>
      <rect>
        14 40 4 4</rect></_>
    <_>
      <rect>
        14 41 4 3</rect></_>
    <_>
      <rect>
        15 35 4 5</rect></_>
    <_>
      <rect>
        16 39 3 2</rect></_>
    <_>
      <rect>
        16 40 3 3</rect></_>
    <_>
      <rect>
        16 52 8 3</rect></_>
    <_>
      <rect>
        18 40 3 4</rect></_>
    <_>
      <rect>
        18 42 1 2</rect></_>
    <_>
      <rect>
        19 0 3 3</rect></_>
    <_>
      <rect>
        19 50 1 1</rect></_>
    <_>
      <rect>
        19 51 7 5</rect></_>
    <_>
      <rect>
        20 48 1 1</rect></_>
    <_>
      <rect>
        21 6 3 3</rect></_>
    <_>
      <rect>
        22 1 6 3</rect></_>
    <_>
      <rect>
        25 0 5 3</rect></_>
    <_>
      <rect>
        26 2 3 4</rect></_>
    <_>
      <rect>
        28 45 1 1</rect></_>
    <_>
      <rect>
        28 47 1 1</rect></_>
    <_>
      <rect>
        30 44 1 1</rect></_>
    <_>
      <rect>
        31 48 1 1</rect></_>
    <_>
      <rect>
        31 49 1 1</rect></_>
    <_>
      <rect>
        32 44 1 1</rect></_>
    <_>
      <rect>
        32 47 1 1</rect></_>
    <_>
      <rect>
        34 50 1 1</rect></_>
    <_>
      <rect>
        36 45 1 1</rect></_></features></cascade>
</opencv_storage>
