<?xml version="1.0"?>
<opencv_storage>
<cascade>
  <stageType>BOOST</stageType>
  <featureType>LBP</featureType>
  <height>90</height>
  <width>40</width>
  <stageParams>
    <boostType>GAB</boostType>
    <minHitRate>9.9900001287460327e-01</minHitRate>
    <maxFalseAlarm>5.0000000000000000e-01</maxFalseAlarm>
    <weightTrimRate>9.4999999999999996e-01</weightTrimRate>
    <maxDepth>1</maxDepth>
    <maxWeakCount>100</maxWeakCount></stageParams>
  <featureParams>
    <maxCatCount>256</maxCatCount>
    <featSize>1</featSize></featureParams>
  <stageNum>20</stageNum>
  <stages>
    <!-- stage 0 -->
    <_>
      <maxWeakCount>2</maxWeakCount>
      <stageThreshold>-3.1974554061889648e-02</stageThreshold>
      <weakClassifiers>
        <_>
          <internalNodes>
            0 -1 4 -2049 -805177345 -32799 2147483647 2145353727
            2147448831 0 1359167499</internalNodes>
          <leafValues>
            -9.5673877000808716e-01 9.7597599029541016e-01</leafValues></_>
        <_>
          <internalNodes>
            0 -1 7 -11536085 -721354751 402653312 285282369 1082261528
            1073741826 266 1204502779</internalNodes>
          <leafValues>
            -8.9400023221969604e-01 9.2476421594619751e-01</leafValues></_></weakClassifiers></_>
    <!-- stage 1 -->
    <_>
      <maxWeakCount>3</maxWeakCount>
      <stageThreshold>-1.0122388601303101e+00</stageThreshold>
      <weakClassifiers>
        <_>
          <internalNodes>
            0 -1 59 -73935973 217105 16386 81921 163842 81920 757795
            14941679</internalNodes>
          <leafValues>
            -9.2438560724258423e-01 8.3006536960601807e-01</leafValues></_>
        <_>
          <internalNodes>
            0 -1 9 1460787055 -805191537 1074891035 -1291628544
            302006291 -1459617269 419451523 -2370933</internalNodes>
          <leafValues>
            -8.4721428155899048e-01 7.9771810770034790e-01</leafValues></_>
        <_>
          <internalNodes>
            0 -1 61 392150911 -1583242454 -974578877 -22748335 741218623
            -1088015247 1630595579 -101418331</internalNodes>
          <leafValues>
            -8.1602263450622559e-01 7.5936102867126465e-01</leafValues></_></weakClassifiers></_>
    <!-- stage 2 -->
    <_>
      <maxWeakCount>3</maxWeakCount>
      <stageThreshold>-1.0018784999847412e+00</stageThreshold>
      <weakClassifiers>
        <_>
          <internalNodes>
            0 -1 1 -70265121 -519897079 1073840129 -503246141
            -1878835185 -2147418112 8405003 2006676439</internalNodes>
          <leafValues>
            -9.2913383245468140e-01 7.9853481054306030e-01</leafValues></_>
        <_>
          <internalNodes>
            0 -1 47 1426085204 1694853147 1074495681 1963148131
            931367367 1880006795 -473726741 -12885</internalNodes>
          <leafValues>
            -9.1106277704238892e-01 6.6911095380783081e-01</leafValues></_>
        <_>
          <internalNodes>
            0 -1 15 -11012745 1409507335 1610760263 1529069573 537370755
            268599299 -2134781749 -74452853</internalNodes>
          <leafValues>
            -6.8857687711715698e-01 8.3831810951232910e-01</leafValues></_></weakClassifiers></_>
    <!-- stage 3 -->
    <_>
      <maxWeakCount>4</maxWeakCount>
      <stageThreshold>-5.3107768297195435e-01</stageThreshold>
      <weakClassifiers>
        <_>
          <internalNodes>
            0 -1 0 -209192581 -1073614717 134234129 -805065725
            1082220623 -2143158272 -913088477 1523022695</internalNodes>
          <leafValues>
            -8.5546875000000000e-01 7.7022057771682739e-01</leafValues></_>
        <_>
          <internalNodes>
            0 -1 29 153160487 -1557970915 -763260753 -246194023
            -1509568651 400376475 -1467950929 -70534261</internalNodes>
          <leafValues>
            -9.1785311698913574e-01 6.9542962312698364e-01</leafValues></_>
        <_>
          <internalNodes>
            0 -1 37 -708555668 -250655305 -1605842941 -1556512765
            585849363 -427605871 1761853659 -268700689</internalNodes>
          <leafValues>
            -8.9977264404296875e-01 5.6855350732803345e-01</leafValues></_>
        <_>
          <internalNodes>
            0 -1 65 -785395072 -116336366 1393739776 -363822076
            -2004294465 -772240210 -624891138 -236774244</internalNodes>
          <leafValues>
            -7.9306274652481079e-01 6.7369067668914795e-01</leafValues></_></weakClassifiers></_>
    <!-- stage 4 -->
    <_>
      <maxWeakCount>3</maxWeakCount>
      <stageThreshold>-8.8561981916427612e-01</stageThreshold>
      <weakClassifiers>
        <_>
          <internalNodes>
            0 -1 12 2065694687 555450397 352354403 1929859073 2055432971
            403316736 276908491 1068193979</internalNodes>
          <leafValues>
            -8.3203125000000000e-01 7.5919115543365479e-01</leafValues></_>
        <_>
          <internalNodes>
            0 -1 54 51714039 -1964097205 1833031503 -17293877
            -1884303425 -76947175 1086431259 -5280822</internalNodes>
          <leafValues>
            -7.8835695981979370e-01 7.9099160432815552e-01</leafValues></_>
        <_>
          <internalNodes>
            0 -1 17 -737708683 -712961711 -1048362997 -15383933
            537100475 276924483 -1593141109 -5258821</internalNodes>
          <leafValues>
            -7.3788142204284668e-01 7.3476845026016235e-01</leafValues></_></weakClassifiers></_>
    <!-- stage 5 -->
    <_>
      <maxWeakCount>4</maxWeakCount>
      <stageThreshold>-4.5956993103027344e-01</stageThreshold>
      <weakClassifiers>
        <_>
          <internalNodes>
            0 -1 51 118751231 571424855 1602175871 979328895 2080372215
            -4465 1606415837 -1</internalNodes>
          <leafValues>
            -7.1126759052276611e-01 7.7906978130340576e-01</leafValues></_>
        <_>
          <internalNodes>
            0 -1 78 -1564542133 -2147237884 1073827841 180240
            -2145222525 -2147336192 -2130542010 -1433218337</internalNodes>
          <leafValues>
            -8.6603069305419922e-01 6.2462651729583740e-01</leafValues></_>
        <_>
          <internalNodes>
            0 -1 74 -1480851473 -2136487537 -1063415932 -1602629373
            -390495698 -2004823741 -1574711226 -2140671181</internalNodes>
          <leafValues>
            -8.1651186943054199e-01 5.8940255641937256e-01</leafValues></_>
        <_>
          <internalNodes>
            0 -1 9 1499814267 -788397952 1073750211 1342278209
            1660975648 -796819326 1141006978 -49574257</internalNodes>
          <leafValues>
            -9.5160591602325439e-01 5.2832579612731934e-01</leafValues></_></weakClassifiers></_>
    <!-- stage 6 -->
    <_>
      <maxWeakCount>4</maxWeakCount>
      <stageThreshold>-1.5163927078247070e+00</stageThreshold>
      <weakClassifiers>
        <_>
          <internalNodes>
            0 -1 10 -671090825 -559241 -32769 2147483647 812970034
            829749237 -1342233866 -1</internalNodes>
          <leafValues>
            -6.3966941833496094e-01 7.9095476865768433e-01</leafValues></_>
        <_>
          <internalNodes>
            0 -1 57 -72614666 -774700592 -267353904 -778502055 109174937
            1224869888 33620147 -7667455</internalNodes>
          <leafValues>
            -7.1559935808181763e-01 7.2620213031768799e-01</leafValues></_>
        <_>
          <internalNodes>
            0 -1 77 -1905272913 512 -268189676 536887360 -520011349
            -771702775 -1610383359 2145246143</internalNodes>
          <leafValues>
            -7.7472871541976929e-01 6.4131546020507812e-01</leafValues></_>
        <_>
          <internalNodes>
            0 -1 21 -164660609 -1073643517 196609 -1064976318 139657507
            1656782851 1611351459 863193955</internalNodes>
          <leafValues>
            -8.2819664478302002e-01 5.9148639440536499e-01</leafValues></_></weakClassifiers></_>
    <!-- stage 7 -->
    <_>
      <maxWeakCount>5</maxWeakCount>
      <stageThreshold>-5.1646113395690918e-01</stageThreshold>
      <weakClassifiers>
        <_>
          <internalNodes>
            0 -1 8 -8913025 2138570751 2138570751 2139095039 1462793013
            -655361 2138535923 -537395201</internalNodes>
          <leafValues>
            -6.1022365093231201e-01 8.0287474393844604e-01</leafValues></_>
        <_>
          <internalNodes>
            0 -1 55 -419168833 3407675 263171919 1245183999 -1599950533
            -268486209 -579340801 -33587841</internalNodes>
          <leafValues>
            -5.9902012348175049e-01 7.6556771993637085e-01</leafValues></_>
        <_>
          <internalNodes>
            0 -1 75 -1412436273 226672710 -1056423933 -401751808
            270690158 138494080 -1778352126 -521152129</internalNodes>
          <leafValues>
            -6.9958913326263428e-01 7.1138691902160645e-01</leafValues></_>
        <_>
          <internalNodes>
            0 -1 73 -799018497 344325 1677836675 2339201 453231251
            192517 -2122066679 -1285565829</internalNodes>
          <leafValues>
            -6.9963610172271729e-01 7.1240055561065674e-01</leafValues></_>
        <_>
          <internalNodes>
            0 -1 62 1904381984 -746422142 1174405146 -551976832
            1930088891 10551424 -92013682 -6618997</internalNodes>
          <leafValues>
            -6.8355602025985718e-01 7.3222553730010986e-01</leafValues></_></weakClassifiers></_>
    <!-- stage 8 -->
    <_>
      <maxWeakCount>4</maxWeakCount>
      <stageThreshold>-1.5213027000427246e+00</stageThreshold>
      <weakClassifiers>
        <_>
          <internalNodes>
            0 -1 11 1942740799 285262208 142770177 285736960 78299206
            134250536 -1496596457 2079048202</internalNodes>
          <leafValues>
            -8.1777775287628174e-01 6.6782611608505249e-01</leafValues></_>
        <_>
          <internalNodes>
            0 -1 76 -1365774865 -1530544125 -1046232704 -1065106273
            -666151578 -2044092351 -2142945277 -535299689</internalNodes>
          <leafValues>
            -6.7410260438919067e-01 7.0633107423782349e-01</leafValues></_>
        <_>
          <internalNodes>
            0 -1 52 -102805504 -376496128 -1341964160 -707590971
            613515298 -880738294 998980098 -1144291131</internalNodes>
          <leafValues>
            -8.1460303068161011e-01 5.7600492238998413e-01</leafValues></_>
        <_>
          <internalNodes>
            0 -1 20 -174467089 -1056866227 -1325289450 -318324520
            -603700473 1610648832 -1588907161 -173864365</internalNodes>
          <leafValues>
            -7.0042318105697632e-01 6.9968253374099731e-01</leafValues></_></weakClassifiers></_>
    <!-- stage 9 -->
    <_>
      <maxWeakCount>5</maxWeakCount>
      <stageThreshold>-9.5479303598403931e-01</stageThreshold>
      <weakClassifiers>
        <_>
          <internalNodes>
            0 -1 46 67565055 1073922180 -1073741693 -981339831
            -2147237749 -1040005120 -1878883958 -141571638</internalNodes>
          <leafValues>
            -7.3333334922790527e-01 7.1009176969528198e-01</leafValues></_>
        <_>
          <internalNodes>
            0 -1 61 -1839491237 -2050023424 -805302015 -452899697
            338211562 167837696 1094758571 -72013646</internalNodes>
          <leafValues>
            -7.6707774400711060e-01 6.3674330711364746e-01</leafValues></_>
        <_>
          <internalNodes>
            0 -1 22 -11134 -319359258 -1098912222 -67634435 -12294592
            109018967 -134686972 -67659</internalNodes>
          <leafValues>
            -6.6061508655548096e-01 7.3180854320526123e-01</leafValues></_>
        <_>
          <internalNodes>
            0 -1 23 -259988534 -226459643 68190347 -751859519 -200907042
            1615579136 -1733277557 -338739063</internalNodes>
          <leafValues>
            -7.2810184955596924e-01 6.4107406139373779e-01</leafValues></_>
        <_>
          <internalNodes>
            0 -1 6 -817247285 -1052671992 8421385 -955449333 -1744729975
            -2104885248 566411 1623572548</internalNodes>
          <leafValues>
            -8.2726454734802246e-01 6.0937917232513428e-01</leafValues></_></weakClassifiers></_>
    <!-- stage 10 -->
    <_>
      <maxWeakCount>5</maxWeakCount>
      <stageThreshold>-9.4253104925155640e-01</stageThreshold>
      <weakClassifiers>
        <_>
          <internalNodes>
            0 -1 25 -972381693 -266043140 1627416583 -229997436
            -628884486 2012072072 -1040145248 -206010232</internalNodes>
          <leafValues>
            -6.8260037899017334e-01 7.0287835597991943e-01</leafValues></_>
        <_>
          <internalNodes>
            0 -1 14 611678207 66843315 -1861959542 -241315839 698825727
            729878657 -606773089 2147214063</internalNodes>
          <leafValues>
            -7.2583329677581787e-01 6.3102924823760986e-01</leafValues></_>
        <_>
          <internalNodes>
            0 -1 16 1366030769 1895952363 -2130394355 1955373709
            228083960 1363866274 -1476361560 -339631994</internalNodes>
          <leafValues>
            -7.9159212112426758e-01 5.8255136013031006e-01</leafValues></_>
        <_>
          <internalNodes>
            0 -1 69 -1945497456 -1059536832 1342586888 -774893568
            -2139053942 -2105507840 -2145353590 -2121662260</internalNodes>
          <leafValues>
            -7.7309656143188477e-01 6.1988508701324463e-01</leafValues></_>
        <_>
          <internalNodes>
            0 -1 70 -1056927614 -468975552 -1056894974 -761229116
            -897579861 -1031241592 -2134801767 -1098169719</internalNodes>
          <leafValues>
            -6.8857032060623169e-01 6.4511257410049438e-01</leafValues></_></weakClassifiers></_>
    <!-- stage 11 -->
    <_>
      <maxWeakCount>5</maxWeakCount>
      <stageThreshold>-1.0854994058609009e+00</stageThreshold>
      <weakClassifiers>
        <_>
          <internalNodes>
            0 -1 3 2140207089 -1107689537 -1 -1507340 -8193 -17367050
            -163915 -707495980</internalNodes>
          <leafValues>
            -6.7003369331359863e-01 7.9324054718017578e-01</leafValues></_>
        <_>
          <internalNodes>
            0 -1 26 525189087 583361463 694223105 -1478233333 1016197107
            11045067 25430021 636470858</internalNodes>
          <leafValues>
            -7.8642600774765015e-01 6.7023670673370361e-01</leafValues></_>
        <_>
          <internalNodes>
            0 -1 36 101087735 238337508 -2118003889 -842008725
            -1853774437 -511139444 -742012028 -6298747</internalNodes>
          <leafValues>
            -8.1215858459472656e-01 5.9831416606903076e-01</leafValues></_>
        <_>
          <internalNodes>
            0 -1 72 600303079 5054469 -1073741808 1099121027 -402304797
            17221908 823099461 -1538790911</internalNodes>
          <leafValues>
            -7.6427084207534790e-01 6.3679224252700806e-01</leafValues></_>
        <_>
          <internalNodes>
            0 -1 56 -919373 2140784661 1476501769 1130176527 1091226787
            2064156825 184621195 1406107818</internalNodes>
          <leafValues>
            -8.5499382019042969e-01 5.4632657766342163e-01</leafValues></_></weakClassifiers></_>
    <!-- stage 12 -->
    <_>
      <maxWeakCount>5</maxWeakCount>
      <stageThreshold>-1.0564311742782593e+00</stageThreshold>
      <weakClassifiers>
        <_>
          <internalNodes>
            0 -1 58 2101722911 -170044623 1895892240 -236600694
            -766664119 1883291680 -771137088 785246795</internalNodes>
          <leafValues>
            -7.5590550899505615e-01 7.1794873476028442e-01</leafValues></_>
        <_>
          <internalNodes>
            0 -1 28 533180 1537927589 1166610825 -15757296 -2063483397
            2076803752 -754251607 -71718904</internalNodes>
          <leafValues>
            -8.7501066923141479e-01 6.0369437932968140e-01</leafValues></_>
        <_>
          <internalNodes>
            0 -1 2 -921697287 -611571239 -1929049283 -48659455
            -1996256337 -1432190824 -662165111 -270499184</internalNodes>
          <leafValues>
            -6.7581832408905029e-01 7.0936560630798340e-01</leafValues></_>
        <_>
          <internalNodes>
            0 -1 48 -780061230 -640330619 -788528767 -552318630
            -2146879416 -637009920 -905359230 -7732854</internalNodes>
          <leafValues>
            -8.2171213626861572e-01 6.0708940029144287e-01</leafValues></_>
        <_>
          <internalNodes>
            0 -1 45 143661555 1058553976 1493203281 -1090386559
            516430331 -1727496184 704652218 -342358007</internalNodes>
          <leafValues>
            -6.9310534000396729e-01 6.8683153390884399e-01</leafValues></_></weakClassifiers></_>
    <!-- stage 13 -->
    <_>
      <maxWeakCount>4</maxWeakCount>
      <stageThreshold>-1.5192161798477173e+00</stageThreshold>
      <weakClassifiers>
        <_>
          <internalNodes>
            0 -1 68 -36703785 -787233778 -972734395 -1849316541
            -798387699 -1864040320 -910046785 654306251</internalNodes>
          <leafValues>
            -7.4308300018310547e-01 7.0932358503341675e-01</leafValues></_>
        <_>
          <internalNodes>
            0 -1 31 151658557 -322891723 1233454109 -628555762
            -536688202 -1381463896 -2147483478 -644349911</internalNodes>
          <leafValues>
            -7.4697446823120117e-01 6.5254753828048706e-01</leafValues></_>
        <_>
          <internalNodes>
            0 -1 24 -1693428776 -104628079 83887485 -2293759 -351757829
            -574971479 1657048489 -1379924460</internalNodes>
          <leafValues>
            -7.2772336006164551e-01 6.1551451683044434e-01</leafValues></_>
        <_>
          <internalNodes>
            0 -1 67 -620699254 1393692673 -1056960470 -177668066
            1493271965 -1475198968 -801045176 1468990275</internalNodes>
          <leafValues>
            -7.5384205579757690e-01 6.5986651182174683e-01</leafValues></_></weakClassifiers></_>
    <!-- stage 14 -->
    <_>
      <maxWeakCount>4</maxWeakCount>
      <stageThreshold>-4.9969613552093506e-01</stageThreshold>
      <weakClassifiers>
        <_>
          <internalNodes>
            0 -1 34 1032785185 1004211345 415351181 -636680039
            -1467416659 1020301648 -1140077654 -1163255414</internalNodes>
          <leafValues>
            -8.3981692790985107e-01 6.5950131416320801e-01</leafValues></_>
        <_>
          <internalNodes>
            0 -1 18 1971814335 -724041191 -2146948907 -712884223
            1045240767 -83866444 -391492902 1000160143</internalNodes>
          <leafValues>
            -8.8918560743331909e-01 5.1667141914367676e-01</leafValues></_>
        <_>
          <internalNodes>
            0 -1 71 -1786773310 -586866432 -738176640 -40299196
            -1191015926 1116242048 -1861733654 -1280693846</internalNodes>
          <leafValues>
            -7.0985645055770874e-01 6.5295457839965820e-01</leafValues></_>
        <_>
          <internalNodes>
            0 -1 41 -960149270 -1051786987 -1071610479 -645332893
            -796778894 -724664186 -1010822773 -75373397</internalNodes>
          <leafValues>
            -7.9308122396469116e-01 5.7635182142257690e-01</leafValues></_></weakClassifiers></_>
    <!-- stage 15 -->
    <_>
      <maxWeakCount>4</maxWeakCount>
      <stageThreshold>-1.3074797391891479e+00</stageThreshold>
      <weakClassifiers>
        <_>
          <internalNodes>
            0 -1 35 9917911 637964373 1241537869 1107265543 -203863633
            -690716595 -926901749 -6588274</internalNodes>
          <leafValues>
            -7.8132116794586182e-01 6.3996553421020508e-01</leafValues></_>
        <_>
          <internalNodes>
            0 -1 48 -586984502 -238338665 -578596445 2013091039
            -1018875299 -897056568 -1233108541 -223517977</internalNodes>
          <leafValues>
            -8.1099689006805420e-01 5.3773015737533569e-01</leafValues></_>
        <_>
          <internalNodes>
            0 -1 64 -675828608 -739262483 398456243 -553697803 -67108865
            2004877183 -1146115441 -1694508289</internalNodes>
          <leafValues>
            -5.7025128602981567e-01 7.9408496618270874e-01</leafValues></_>
        <_>
          <internalNodes>
            0 -1 62 -709427166 -676342358 2146926590 -129 -201592069
            -1614850625 -1 -1078263105</internalNodes>
          <leafValues>
            -5.6619709730148315e-01 7.6030784845352173e-01</leafValues></_></weakClassifiers></_>
    <!-- stage 16 -->
    <_>
      <maxWeakCount>5</maxWeakCount>
      <stageThreshold>-7.1074271202087402e-01</stageThreshold>
      <weakClassifiers>
        <_>
          <internalNodes>
            0 -1 27 -353312102 -34539526 2096967679 -33685514
            -1075318785 1836531583 -1107787777 -475138</internalNodes>
          <leafValues>
            -5.8802819252014160e-01 7.1124029159545898e-01</leafValues></_>
        <_>
          <internalNodes>
            0 -1 38 -1313112751 821641194 -72699921 -1158713362
            -1207961605 -134217730 -134222029 -201330706</internalNodes>
          <leafValues>
            -5.7826554775238037e-01 6.9628494977951050e-01</leafValues></_>
        <_>
          <internalNodes>
            0 -1 50 1440302210 -909924224 -232676863 -1664876332
            -1315700477 -265912190 -1165776640 -1595240197</internalNodes>
          <leafValues>
            -7.4139243364334106e-01 5.8583956956863403e-01</leafValues></_>
        <_>
          <internalNodes>
            0 -1 43 1433784807 1628110887 -1150212845 -820572143
            151622329 1233781395 -383739397 -68576882</internalNodes>
          <leafValues>
            -6.5720498561859131e-01 6.6706150770187378e-01</leafValues></_>
        <_>
          <internalNodes>
            0 -1 79 -1933576193 5014838 -804806650 -1006581503
            -1946057711 1745014794 -734558079 -1196141395</internalNodes>
          <leafValues>
            -7.1967053413391113e-01 5.9243810176849365e-01</leafValues></_></weakClassifiers></_>
    <!-- stage 17 -->
    <_>
      <maxWeakCount>6</maxWeakCount>
      <stageThreshold>-1.4385061264038086e+00</stageThreshold>
      <weakClassifiers>
        <_>
          <internalNodes>
            0 -1 63 -1627197438 -775946200 17072256 -201818108
            -1542920054 676864008 864075915 2131419268</internalNodes>
          <leafValues>
            -8.4766584634780884e-01 6.2447613477706909e-01</leafValues></_>
        <_>
          <internalNodes>
            0 -1 42 -1022626819 1535139904 -1878896331 -583741248
            1860826078 769654952 1376371327 -176082695</internalNodes>
          <leafValues>
            -6.4991629123687744e-01 6.2681281566619873e-01</leafValues></_>
        <_>
          <internalNodes>
            0 -1 19 -419476790 -352323585 -352452950 -251920385
            -140052670 -814975106 -8738941 -203702281</internalNodes>
          <leafValues>
            -5.2678018808364868e-01 7.3422449827194214e-01</leafValues></_>
        <_>
          <internalNodes>
            0 -1 32 -2108042245 -1971322636 -1056590329 -2080370688
            -477083087 1803734952 -2144741160 -1676746621</internalNodes>
          <leafValues>
            -7.0065265893936157e-01 6.3175398111343384e-01</leafValues></_>
        <_>
          <internalNodes>
            0 -1 66 -71630424 545390784 1888260226 -1151630175
            -1321006948 1074398336 371313382 -551583612</internalNodes>
          <leafValues>
            -6.7080950736999512e-01 6.0297495126724243e-01</leafValues></_>
        <_>
          <internalNodes>
            0 -1 13 -783190953 -1853390582 -803109882 -246611519
            -1331623091 276824489 -897488734 931619111</internalNodes>
          <leafValues>
            -7.7485173940658569e-01 4.8517644405364990e-01</leafValues></_></weakClassifiers></_>
    <!-- stage 18 -->
    <_>
      <maxWeakCount>5</maxWeakCount>
      <stageThreshold>-9.9428617954254150e-01</stageThreshold>
      <weakClassifiers>
        <_>
          <internalNodes>
            0 -1 61 458341754 -1450758078 1610680418 -707821351
            422543499 134217728 268473007 -1023749</internalNodes>
          <leafValues>
            -7.4583333730697632e-01 6.7678570747375488e-01</leafValues></_>
        <_>
          <internalNodes>
            0 -1 40 2102457205 1931038803 -1069370161 252240033
            1485356457 1602322600 -2002216820 1727696041</internalNodes>
          <leafValues>
            -6.7603832483291626e-01 5.9712952375411987e-01</leafValues></_>
        <_>
          <internalNodes>
            0 -1 60 -754732101 -340973813 696488097 1833902283
            -873983349 -501219199 42140363 1930140463</internalNodes>
          <leafValues>
            -7.6280319690704346e-01 5.0907576084136963e-01</leafValues></_>
        <_>
          <internalNodes>
            0 -1 53 -1180537688 -269879572 -1195836832 -134611471
            -13091030 -305758225 -1380256315 -826548742</internalNodes>
          <leafValues>
            -5.6836944818496704e-01 6.9174796342849731e-01</leafValues></_>
        <_>
          <internalNodes>
            0 -1 44 -1860652922 -200539488 420599234 -344194664
            -894275583 -1467645840 -2062896573 -1058438933</internalNodes>
          <leafValues>
            -7.7323824167251587e-01 5.2476477622985840e-01</leafValues></_></weakClassifiers></_>
    <!-- stage 19 -->
    <_>
      <maxWeakCount>5</maxWeakCount>
      <stageThreshold>-1.0589483976364136e+00</stageThreshold>
      <weakClassifiers>
        <_>
          <internalNodes>
            0 -1 5 -774903409 -1324686777 33554434 -750222843
            -1043807552 -1744699254 -502559858 2062508495</internalNodes>
          <leafValues>
            -7.4660634994506836e-01 6.3039726018905640e-01</leafValues></_>
        <_>
          <internalNodes>
            0 -1 30 -2132211661 -111271611 -737646575 -951016576
            1789582255 1753320586 1644748912 -389422966</internalNodes>
          <leafValues>
            -8.0898809432983398e-01 5.0239908695220947e-01</leafValues></_>
        <_>
          <internalNodes>
            0 -1 39 -263981708 -154979501 1342182281 -1130845182 8774335
            -1567588117 277074345 -1124275544</internalNodes>
          <leafValues>
            -7.0214277505874634e-01 5.8204174041748047e-01</leafValues></_>
        <_>
          <internalNodes>
            0 -1 49 1502728702 -782936371 -1056438144 -112770355
            279332923 -669448448 -327120086 -87547765</internalNodes>
          <leafValues>
            -6.6683757305145264e-01 6.1184602975845337e-01</leafValues></_>
        <_>
          <internalNodes>
            0 -1 33 -469699673 -456848362 -1995861923 -331341800
            184550383 -385122136 301993016 -382412284</internalNodes>
          <leafValues>
            -6.9775503873825073e-01 5.5423915386199951e-01</leafValues></_></weakClassifiers></_></stages>
  <features>
    <_>
      <rect>
        0 0 6 30</rect></_>
    <_>
      <rect>
        0 0 11 30</rect></_>
    <_>
      <rect>
        0 1 10 9</rect></_>
    <_>
      <rect>
        0 3 11 9</rect></_>
    <_>
      <rect>
        0 3 13 29</rect></_>
    <_>
      <rect>
        0 6 13 28</rect></_>
    <_>
      <rect>
        0 8 13 12</rect></_>
    <_>
      <rect>
        0 28 12 7</rect></_>
    <_>
      <rect>
        0 31 8 11</rect></_>
    <_>
      <rect>
        0 33 8 11</rect></_>
    <_>
      <rect>
        0 37 12 11</rect></_>
    <_>
      <rect>
        0 38 8 5</rect></_>
    <_>
      <rect>
        0 43 13 15</rect></_>
    <_>
      <rect>
        0 46 5 7</rect></_>
    <_>
      <rect>
        0 58 13 10</rect></_>
    <_>
      <rect>
        1 31 13 15</rect></_>
    <_>
      <rect>
        1 32 13 9</rect></_>
    <_>
      <rect>
        1 35 13 12</rect></_>
    <_>
      <rect>
        1 38 9 17</rect></_>
    <_>
      <rect>
        1 50 1 1</rect></_>
    <_>
      <rect>
        1 55 5 2</rect></_>
    <_>
      <rect>
        2 36 4 15</rect></_>
    <_>
      <rect>
        2 47 1 1</rect></_>
    <_>
      <rect>
        6 42 7 5</rect></_>
    <_>
      <rect>
        7 0 7 7</rect></_>
    <_>
      <rect>
        7 40 9 4</rect></_>
    <_>
      <rect>
        7 49 11 10</rect></_>
    <_>
      <rect>
        8 42 6 6</rect></_>
    <_>
      <rect>
        9 40 6 6</rect></_>
    <_>
      <rect>
        10 38 7 4</rect></_>
    <_>
      <rect>
        10 39 5 4</rect></_>
    <_>
      <rect>
        11 39 8 4</rect></_>
    <_>
      <rect>
        11 43 5 2</rect></_>
    <_>
      <rect>
        11 43 7 2</rect></_>
    <_>
      <rect>
        12 36 6 5</rect></_>
    <_>
      <rect>
        13 31 9 9</rect></_>
    <_>
      <rect>
        13 31 9 10</rect></_>
    <_>
      <rect>
        13 36 3 8</rect></_>
    <_>
      <rect>
        14 40 4 2</rect></_>
    <_>
      <rect>
        14 44 8 7</rect></_>
    <_>
      <rect>
        14 45 4 2</rect></_>
    <_>
      <rect>
        15 42 2 3</rect></_>
    <_>
      <rect>
        15 43 3 2</rect></_>
    <_>
      <rect>
        15 45 4 2</rect></_>
    <_>
      <rect>
        15 46 2 1</rect></_>
    <_>
      <rect>
        15 76 6 4</rect></_>
    <_>
      <rect>
        16 33 8 9</rect></_>
    <_>
      <rect>
        16 35 3 8</rect></_>
    <_>
      <rect>
        16 43 2 2</rect></_>
    <_>
      <rect>
        16 44 2 1</rect></_>
    <_>
      <rect>
        16 45 1 1</rect></_>
    <_>
      <rect>
        17 40 3 4</rect></_>
    <_>
      <rect>
        17 44 1 1</rect></_>
    <_>
      <rect>
        17 47 1 1</rect></_>
    <_>
      <rect>
        18 38 3 4</rect></_>
    <_>
      <rect>
        18 42 3 3</rect></_>
    <_>
      <rect>
        18 43 2 2</rect></_>
    <_>
      <rect>
        18 44 1 1</rect></_>
    <_>
      <rect>
        19 0 7 30</rect></_>
    <_>
      <rect>
        19 2 7 29</rect></_>
    <_>
      <rect>
        19 43 1 2</rect></_>
    <_>
      <rect>
        19 44 1 1</rect></_>
    <_>
      <rect>
        19 45 1 1</rect></_>
    <_>
      <rect>
        20 44 1 1</rect></_>
    <_>
      <rect>
        20 45 1 1</rect></_>
    <_>
      <rect>
        20 45 3 2</rect></_>
    <_>
      <rect>
        20 48 1 1</rect></_>
    <_>
      <rect>
        21 42 2 3</rect></_>
    <_>
      <rect>
        22 0 6 30</rect></_>
    <_>
      <rect>
        22 43 1 1</rect></_>
    <_>
      <rect>
        22 45 1 1</rect></_>
    <_>
      <rect>
        23 45 1 1</rect></_>
    <_>
      <rect>
        24 48 5 8</rect></_>
    <_>
      <rect>
        25 32 5 5</rect></_>
    <_>
      <rect>
        25 50 5 5</rect></_>
    <_>
      <rect>
        25 52 5 6</rect></_>
    <_>
      <rect>
        27 52 4 5</rect></_>
    <_>
      <rect>
        31 36 3 9</rect></_>
    <_>
      <rect>
        34 12 2 23</rect></_>
    <_>
      <rect>
        34 38 2 8</rect></_></features></cascade>
</opencv_storage>
